#include "nnom.h"

/* Weights, bias and Q format */
#define TENSOR_CONV1D_8_KERNEL_0 {27, -23, 23, -9, 1, 18, 13, 10, 7, 17, 6, 13, 1, -17, 14, 18, -21, 12, 28, 22, -12, 26, -19, 30, -1, 30, 7, -29, -25, -25, 24, 13, 8, 3, -3, 12, 18, -31, -18, 43, 26, 39, -22, -16, 28, 44, -22, 18, 6, -32, 30, 43, -20, 17, 85, 35, -78, 44, 13, 69, -95, 101, 10, 12, -76, -85, -30, 14, 22, 30, -10, 60, -77, -56, -14, 7, -11, -106, 39, -36, 28, 26, 7, -63, 3, -61, 59, 12, -37, -70, -78, 42, 74, -50, -6, -86, -72, -23, -38, 77, 11, 25, 55, 30, -86, -39, 12, 54, -78, -3, 47, 23, -62, -56, -28, 27, -37, -56, -63, 18, 40, 26, -30, -10, 0, 65, 26, -1, 17, 55, 30, 61, -10, -70, -51, 29, 23, -31, -29, 21, 15, -10, 23, -27, 11, -3, -1, -16, -8, -18, -42, 2, -9, -9, -42, -28, -26, 33, -45, -6, -14, 20, 28, -32, 26, -18, -11, 9, 37, -12, 12, -25, 23, 24, 9, 18, 7, -31, 13, -7, 22, -17, 12, 7, 30, 4, -12, -30, 35, 35, 20, -21, -26, 38, 6, 37, -35, -13, 17, -1, -31, -8, 6, -25, -24, -22, 2, 31, -22, 21, -19, -37, -32, -26, 39, 2, -24, 19, 23, 20, -9, -27, -29, -15, -10, -21, -4, -5, -9, -12, -9, 23, -3, 30, -24, -5, 13, -36, 17, 5, 17, -22, -1, -8, 28, 39, 32, -21, -30, -34, -17, 21, -29, 41, -23, -43, 12, 0, 2, 13, 19, 8, 31, 25, -7, -18, -19, -4, -5, 7, -21, 24, 13, -12, 33, -34, -28, 19, 17, 34, 18, -22, 7, -40, -10, 2, -25, -33, -32, -5, -16, 35, -8, -31, 36, -28, 19, -1, 18, -5, -22, -18, 4, -16, 17, 0, -25, 2, -3, -26, 26, 10, 0, -25, 7, -3, -4, 32, 33, 24, 0, 18, 40, 30, 23, 0, 5, 3, 13, 10, -2, -17, 12, 0, -2, -21, 22, -16, -5, 13, 2, 18, 24, 15, 9, 10, 15, -10, 15, -17, -15, -72, -58, 29, 61, -53, -17, -30, 46, -46, 19, -6, 41, 39, 34, -33, -70, 67, -68, -20, -41, -5, 34, 20, 84, 30, -89, 91, 20, -22, 27, 6, -10, 13, -4, -7, 26, 29, -10, 16, 27, 9, 19, -15, 21, 1, 27, 12, -20, 9, -18, 10, 27, -21, -22, -16, -8, -26, -7, -6, 10, 3, -25, 3, 13, 10, -34, -29, -26, -19, -14, -22, 25, -26, 21, -27, -26, 24, -23, 0, 6, -26, -29, 24, 39, 17, 8, 8, 15, 0, -22, 54, -24, 37, -23, -2, 43, 21, -3, 9, -14, 34, -7, 45, 9, -15, -8, 51, 9, 4, -11, -27, -6, -34, -24, -14, 22, 32, 6, 6, -32, 20, 2, 13, 2, 7, -14, 36, 15, -11, -1, 11, -27, 2, 11, 23, -24, 7, -22, 17, 14, 27, 44, 2, -37, 0, -24, 9, 25, 0, -19, 44, 28, -18, 17, -19, 16, -21, 17, 8, -6, -20, 32, 70, 74, 43, -6, -16, -4, -59, 43, -64, 58, -12, 34, -27, -34, -37, -13, 61, 39, -26, 52, -4, -50, 34, 14, 13, -43, 53, -12, 23, 21, -16, 8, -11, 9, -15, 14, -19, -4, 9, -29, 8, -4, 16, -4, 26, 10, 19, -1, -26, -5, -18, -14, 16, 12, -13, -38, 43, -39, 46, -46, 3, -25, -26, -35, -39, 19, 5, 32, 9, 23, -6, -22, -42, 8, 44, -15, 20, -41, -9, 20, -15, 16, -37, 28, 33, -37, -45, -39, -13, -32, -22, 44, 36, -42, 24, -46, -41, 3, 5, -27, -23, -49, 28, 10, -23, 0, 6, -2, -27, -41, -31, 54, -32, 1, -42, 18, -27, -49, -24, 2, 15, -38, 37, 45, -8, 58, -9, -41, -42, -52, -50, 9, 43, -2, -29, -41, -3, 4, -26, -28, 31, -14, 31, -10, 14, 39, -33, -4, 49, -31, 30, -15, -33, -4, 50, 24, -6, 1, -39, -30, -36, -40, -73, -5, 33, 46, -17, 29, 28, -25, -26, 32, -18, 50, -33, 2, 27, -59, 66, 9, -59, 49, 14, 21, -6, -56, 57, 11, -12, 11, -36, -32, 36, 32, -7, 26, -33, 1, -22, -24, -18, 4, 27, 4, -28, -31, 10, 37, 15, -22, 2, 30, -38, -25, 16, 19, -14, 6, -22, -4, -14, 12, 9, -11, -15, 4, 31, -28, -11, 7, -30, 20, 25, -4, -8, 29, 39, 31, 25, -5, 35, -27, 24, -30, -14, 42, -44, -41, 18, -39, -43, -37, 25, 27, 25, -4, -7, -7, 49, -12, -49, 7, 40, 44, -44, -22, -54, -14, 19, -50, 50, -25, -21, -11, 21, 30, -33, 7, -7, -32, -26, -3, -35, 7, -12, 24, -25, 39, 47, -42, 8, 8, 10, 41, 31, -38, 44, -30, -30, -55, -32, -14, 37, 38, -4, 66, -23, 69, -6, 57, 75, -51, -42, 29, 42, -30, -18, 19, 29, 11, -25, 48, 43, 60, -12, -15, 20, -27, -28, -13, -8, 24, -4, -26, -8, 25, 0, -16, 15, 3, -25, 11, -28, 3, 22, 10, 0, -25, 19, 5, -32}

#define TENSOR_CONV1D_8_KERNEL_0_DEC_BITS {19}

#define TENSOR_CONV1D_8_BIAS_0 {39, 62, 31, -55, -37, -57, 2, 23, -64, -86, 18, -80, 68, -25, 53, -79, 18, 25, 72, -50, -82, -67, -40, -3, -21, -77, 35, 53, -43, 14, -30, -69}

#define TENSOR_CONV1D_8_BIAS_0_DEC_BITS {10}

#define CONV1D_8_BIAS_LSHIFT {1}

#define CONV1D_8_OUTPUT_RSHIFT {7}

#define TENSOR_CONV1D_9_KERNEL_0 {-24, 64, 16, -27, 15, -15, -12, -29, 9, 71, -38, -47, 16, 20, 50, -16, -12, 17, -4, 51, 17, 43, -61, -33, 39, 66, -10, -32, 24, 12, 7, -13, -18, -48, -1, 11, -23, -24, 9, -67, 55, 30, 17, 36, 67, 33, 55, 2, -44, -33, -60, -39, 14, -6, 16, 70, 34, 40, -44, 33, 41, -31, 41, -54, 30, -53, -62, -27, 50, 51, -14, 1, -20, 36, -37, -45, -30, -27, -7, -64, -33, 74, -21, 66, 68, 59, 40, 16, -53, -41, -14, -52, 40, 2, -52, 17, 19, -41, 41, 42, -8, 41, 3, -44, 18, 68, -35, 46, -24, 37, -50, 53, 62, 43, 68, 19, 7, -53, -9, 15, -50, 28, 46, 16, -28, -8, -1, -34, 4, 29, -63, -65, 57, -26, 61, -1, -39, 49, -40, 1, -52, -48, 67, 52, -37, -20, -21, 23, 37, 2, -40, -49, 33, -18, 0, 50, -43, -4, 66, -49, 35, 44, 33, 17, -10, 24, -44, 37, -38, 53, 36, 35, -21, 41, -38, -1, -47, -32, -1, 6, 3, 16, -3, -37, 12, -35, -5, 7, 22, -43, 24, -16, 4, 26, 6, -25, 23, -23, 20, 38, 8, 13, 12, -17, 39, -7, 25, 9, -38, 36, 59, -21, -33, 29, -40, 53, -43, -8, 52, -7, -43, -53, -53, -37, 19, 16, -36, 51, -33, 10, -45, 13, 8, 3, -11, 11, 35, 25, 36, 52, -21, 56, -2, 44, -46, -35, 57, -42, 13, 1, 22, 4, 2, -11, -58, 44, -15, -6, 29, -16, -24, 39, -52, 2, -6, -42, 28, -31, -30, -24, 24, -30, 38, 40, 23, 40, -32, 19, 48, -46, 4, 37, 39, -4, -40, -56, -2, -10, -6, -17, 30, 23, 38, -23, 45, -32, -39, -35, 1, -53, 18, -45, -17, 5, -26, -24, -16, 54, 48, 42, 42, -42, -32, 8, -40, 42, -4, 21, 14, -50, 86, -65, 5, -80, -78, -20, 75, -16, 7, -102, 15, 49, 103, 5, 57, 25, -42, 54, -60, -92, -6, -19, -62, 52, 9, 94, -69, -68, 33, 28, 22, -55, 71, -88, 6, 61, 17, -37, 63, -19, -68, -40, -3, -55, -59, -49, -6, 33, -37, -50, -23, -98, 60, -7, -41, 5, -53, 30, -37, -25, 12, -75, -51, 38, -29, -86, 19, -32, -86, -94, -85, -12, 65, 13, -89, 18, 74, -100, 12, 16, -82, 3, 56, -66, 72, 30, 19, 2, 58, -97, -38, -26, -44, 14, -50, -36, 23, -13, -32, 45, -24, -29, 64, 32, -61, -71, -11, 75, -38, 88, 46, 28, -56, 57, 21, 59, -40, -29, 47, 48, 71, -69, -104, -46, 0, 42, -2, 6, 58, -24, -5, 59, 7, -48, 12, 67, 64, 60, 17, 22, -4, 87, -52, -65, -80, -79, -15, 7, 15, 10, 47, 41, 3, -55, -2, 26, 61, 30, 18, -31, -28, -71, 16, -26, -4, 80, -11, 31, 49, -30, -67, 37, -66, 42, -13, 3, 63, 36, -39, 15, -24, 10, -35, -83, -93, -51, -25, 35, 23, 16, 68, -56, 58, -28, -36, 60, 48, -72, -17, -41, 32, 3, -28, -11, -10, -30, 26, 30, 31, 55, 65, 25, -32, 59, 45, 47, -73, -73, 7, -54, 30, 70, 11, -53, -80, 38, 19, -5, -32, -67, 47, 20, 19, -19, 58, 30, 36, -11, 38, -19, -51, -66, -4, 38, 88, -4, -52, -11, -48, 28, 28, 42, 5, 77, 61, 36, -8, -29, 30, 45, -68, 40, 69, -16, 2, 42, -22, 4, 22, -1, 15, -29, 47, -23, 57, 81, 53, -34, 11, 24, -18, 76, 63, -10, 53, 47, 73, -32, 69, -77, 55, -70, -69, 30, -42, 24, -77, -27, -23, 19, 46, -7, -7, 66, 69, 81, 27, 0, 77, 13, -29, -41, -11, -11, -69, 26, -21, -44, -7, 2, 99, -7, -56, -77, -36, 59, -74, 52, 78, -47, 77, -90, 73, -54, 34, -76, 21, -35, 51, -44, 24, 18, 35, -74, -29, -24, -63, 38, -74, -29, -11, 56, 95, -27, -39, -43, -14, 85, 19, 4, 69, -27, 3, -2, 27, -12, -79, 2, 11, 81, 63, 82, -69, -16, 26, -72, 30, 56, 57, -2, 39, 50, -81, 54, 96, -13, -36, -20, -72, 47, -38, -27, -3, -62, -69, -26, 29, 23, -2, -8, 2, -41, 89, -26, 64, -68, -69, -15, -5, -89, -49, 19, 62, 3, 80, 56, 17, 42, 23, 4, 43, -37, -46, -25, -43, -44, -15, -26, 51, 13, 30, 52, 71, -67, 30, 27, 90, 102, 85, -31, 6, 6, -83, 42, 76, -8, -62, 56, 58, 58, 33, -56, -56, 56, 7, 52, 12, 8, -30, -17, 22, -6, -53, -56, 15, -6, -13, 86, -54, -47, -79, -35, 23, 60, -26, -12, -55, 44, 74, 1, -14, 36, -23, -52, 27, -37, -9, -48, -4, -50, 8, 16, -24, 11, 10, 21, 21, 42, 47, -5, -4, 3, 46, 9, -4, 23, -42, 28, -46, 46, 49, -2, 7, -25, 27, -21, 18, -11, -4, 42, 26, 44, -53, 21, 32, 43, 16, -10, 51, -30, 8, 37, -2, 47, -16, 12, -10, -6, -44, -13, 20, 38, 5, -37, 24, 54, -28, -35, 4, 17, 9, 22, 8, 32, -51, -48, -11, 1, 24, 25, -20, -36, 17, 37, -19, -30, -49, -27, -33, -61, 26, -6, 1, 39, -15, 14, -24, 27, -29, -40, -2, 7, 51, -6, 24, -41, -30, 3, 36, -30, -34, -7, 32, 19, -4, 24, 45, 39, -52, 0, 13, 22, -37, 8, -28, -26, -50, -14, 4, 32, -37, 13, 50, -44, 1, -14, -39, -19, -41, 11, 51, 29, 47, -30, -25, 2, -12, 28, -2, 52, 11, -9, 14, -10, 35, 27, 39, 14, -4, -6, -29, -34, 87, 96, -62, 59, -33, 41, -28, 31, -29, 6, -43, -33, -62, 24, 24, 85, 15, -60, -10, -75, 40, 90, -54, 79, -1, -54, 13, -41, -29, 71, 70, -39, 60, 43, -1, 39, 22, -61, 31, 1, 88, -15, -64, -12, 17, -15, -22, 78, -26, 26, -75, -49, 1, 63, -75, 32, 77, 94, -32, -75, -65, 48, -25, 3, 4, -2, 86, -17, 1, 55, -4, -11, 18, 52, -8, 35, 69, -2, -65, -12, 18, 63, -24, -85, 8, -3, 1, -46, 52, 88, -10, 47, 44, -83, -58, -17, -73, -79, -1, 21, 13, 7, 32, 35, -22, 36, 80, 47, -7, -1, -5, -23, 33, 44, -6, 26, -10, -61, 74, 29, -43, -41, -36, 14, -40, -47, 43, 75, 65, -14, 62, 33, 31, 30, -79, -53, 52, -15, 44, 60, 62, -72, -26, 19, -29, -64, 57, 44, 64, 71, -15, -36, -46, -40, -4, 14, 44, -18, -101, -64, -58, -70, 29, -42, -11, 60, -14, 5, 73, 21, 88, 23, 9, 45, 44, 42, -10, -78, 43, 52, 23, -10, -46, 65, -44, 12, 31, -31, -13, -32, 26, -78, -73, -8, -2, 15, -6, 82, -53, -25, 45, -56, -46, -83, 86, 17, -32, 7, 80, 64, 89, 4, 49, -77, 78, -50, 67, 56, 88, -9, -20, 86, -6, -83, 6, -4, 84, 13, -75, -85, -32, 79, -65, 55, -51, 9, 79, 31, -76, 5, 18, 5, -23, 21, 62, -11, -53, 49, -79, -78, -46, 89, -25, 47, -48, 45, 78, -54, -92, -77, 21, -44, -55, 57, 52, 7, -2, -92, -34, -44, -49, 113, -57, 25, -33, 19, -51, -56, 65, -21, 29, 98, -42, 57, -15, 30, 13, 0, 14, -13, 87, -50, 56, -79, -35, 66, 31, -33, 95, 25, 49, 56, -61, 88, 86, -36, 70, -79, 3, -47, -78, 5, -21, 117, -1, 13, -76, 41, -2, -21, 13, 34, -21, 37, 11, -35, 1, -6, -7, -50, 22, 18, 8, 25, 37, 40, -24, -22, 37, -28, 8, -5, 37, -39, 42, 39, 42, 12, 9, 41, -12, 7, -15, 2, -50, 10, -23, -22, -52, 26, 12, 12, 28, 22, -21, -4, -14, 28, -23, 28, 5, 12, 50, 29, 16, 22, 29, -36, -35, -29, -26, -41, 49, -31, 15, 13, 13, 15, -16, -6, 12, -47, 22, -9, -40, -47, -35, 16, -23, -24, -40, 9, -36, 30, 50, -3, 36, 8, 28, 20, 33, -20, 5, -4, -44, -44, 9, 41, -43, 26, -10, -15, -14, 28, 18, 34, -27, -24, -23, 33, -37, 45, 17, -4, 15, -42, 24, 21, -5, 37, -34, 24, 13, 39, 32, -27, 48, -44, 3, -6, 38, 47, -10, 11, -23, 14, -14, 18, -24, -38, -19, -26, -24, -31, -27, 27, 21, -28, 53, 36, 22, 17, -14, 11, 38, -38, -43, 15, -21, -72, 88, -5, -3, 19, 37, -56, 60, 0, -47, 29, -36, 14, -43, 47, -51, 32, 31, -26, -42, -82, -28, 9, -87, 56, 17, 52, -9, -67, 82, -26, -62, -35, -20, 41, 65, -19, -61, 12, 18, -53, 71, 4, -7, -57, 44, -54, 8, 9, -20, 29, -14, -38, 53, 57, -90, -70, 31, -13, -31, 21, -5, 2, 2, -40, 78, 72, -14, 19, -33, 43, -9, -19, 82, -44, -47, 80, 1, 40, -9, -60, 13, -86, 67, 6, 34, 17, -13, -47, 55, 79, -59, 4, 26, 24, -11, -35, -2, 40, 14, 26, -51, 52, -23, 66, 47, -7, 53, -2, 52, 66, 14, 3, -61, 19, -70, -72, -34, 45, 13, -58, 17, -69, 4, -71, -3, -8, 24, -42, 1, 5, 31, 1, -59, -44, 57, -45, 36, 48, 77, 49, 64, -77, 58, -67, -23, 41, -50, -36, 45, -66, -79, -28, -30, -46, 66, 22, -49, -39, 106, 93, -3, -1, 82, 64, -32, 56, 79, 82, 14, -28, 70, 77, -69, -43, -91, 44, 0, 0, 49, 98, 25, -25, -17, -93, 41, 32, -6, -32, -34, -52, 1, 22, 68, -89, 54, 107, -73, 84, 101, -59, -100, -79, 54, -40, -6, 92, 83, 96, -39, -89, 102, -75, -78, -98, 67, 40, -56, 19, -16, 5, -33, 66, -64, 16, -76, 11, 93, -61, 11, -76, -94, -66, -53, -76, -14, -30, 46, 62, 18, -11, 45, 80, 48, 61, 40, 90, -15, -65, -97, 38, 79, 5, 57, 89, 100, 0, -87, -62, -42, 50, -29, 57, -79, 62, 15, 35, 52, -111, 96, -18, 2, 32, -35, -73, -19, 2, -34, -65, -49, -22, 12, -12, 2, -67, -51, 94, -36, -44, 69, 28, 0, 17, -91, 9, -69, -36, 24, -18, -37, -41, -36, -6, -4, -2, 63, 76, 11, -113, 46, -10, -75, -97, -71, 58, 1, 69, -58, 33, 40, 12, 47, 1, 2, 34, -25, 63, 48, 64, -68, -32, -19, -1, 18, 69, -71, 66, -15, -10, -70, -20, 54, -59, -18, 33, 38, -50, -19, 20, 53, 41, -78, 61, 53, -15, -2, 77, 8, -60, -50, 66, -26, -72, -21, -13, -22, 59, 20, -25, 9, 51, -29, 7, 7, -64, 47, 32, -36, -47, 49, -79, -31, -58, -64, -74, 62, 74, 10, 83, 59, 69, -39, 45, -25, 24, -36, -11, 23, -28, -27, 49, -22, 54, 39, 5, 1, -18, 74, 55, -35, 17, 41, 24, -41, 2, 30, -65, 3, -35, -66, 69, -53, -26, -10, -17, 71, 32, -7, 53, -20, 30, 20, -65, -65, 15, -19, 18, -51, 17, -11, -72, -56, -42, -26, 64, -10, -10, -52, 67, -57, -51, -65, 73, -56, 4, -64, -58, 11, -51, -51, 51, 46, -21, 68, -9, 30, 17, -74, 51, 50, 45, -42, -44, 53, 1, -11, 36, -27, -1, 35, 40, -24, -19, 66, -75, 61, -40, -35, -7, -75, -4, -6, -46, 1, -7, -57, -19, -56, -41, 28, 48, -70, -50, -32, -75, 10, 5, -28, 4, 55, -44, -7, -36, 68, 48, -24, 52, 5, 28, 20, 10, -73, 51, 38, -4, 25, 23, 37, 28, 42, -38, -5, 43, -52, -64, -45, 14, 49, 34, -70, -47, -73, 14, 38, -28, -25, 12, -54, -36, 20, 44, 29, 83, -48, -23, 59, -51, 33, -37, 11, 50, 24, 23, 19, 30, -38, 51, 17, 70, -25, -31, -13, 12, -37, -55, -30, -33, 25, 16, -72, 29, 74, -15, 31, 31, 21, 59, 74, -64, 63, -52, -42, -49, 73, 58, -25, -48, -33, -48, -2, 66, -51, 40, -51, -63, 32, -47, 10, 63, -75, 18, 45, 0, 72, -43, 37, 31, -57, -62, -42, -35, 39, -70, 62, -22, 44, 8, 14, 38, -2, 58, -12, -35, -24, -12, 47, 17, -32, 29, -27, 4, 48, -18, 38, 18, 61, -50, -54, -3, -84, 23, 62, 73, -48, -28, -80, 48, 73, -1, 15, -5, 64, -57, 27, -15, -52, -50, 44, 57, 65, -67, -66, -26, -16, 12, 90, -20, 8, 24, -38, -2, -43, -34, -35, 71, 9, -74, -64, -26, 53, -79, -76, 81, -7, 27, -75, -58, -61, -29, 60, 19, -16, -23, 4, 10, 75, -15, 56, -46, 2, 12, 76, 65, 34, 21, 76, 42, 75, 76, -57, -56, -74, -61, -47, -44, 60, 76, 3, -52, 9, -58, 51, 25, -30, -18, -48, 80, 18, 48, 71, 35, 41, -41, 17, -15, 52, -22, 49, -59, -16, 45, 51, -43, -14, 59, 60, 40, 70, 56, -21, -11, 42, -21, -18, -27, 47, 21, -49, 76, -22, -34, -79, -42, -53, 64, 54, 47, -61, -8, 45, -21, 23, -25, -43, -55, -18, -32, 32, 63, 17, 8, -36, -36, -20, 46, -57, 19, -11, -20, 3, -1, -47, 5, 48, 64, -24, 60, -14, -7, -84, -75, -62, 42, 75, -6, -29, -51, -15, 15, -18, 19, -1, -4, 17, 24, -65, -12, -46, 29, -46, 11, 76, 7, -59, 52, 42, 24, 2, 26, -32, -57, 66, -15, 9, 12, 33, -30, 24, 27, -53, -30, -64, -11, 48, 60, -37, -9, -21, 15, -16, 46, 73, 26, 78, -3, -22, -2, -23, -36, 74, -58, -33, 11, -65, 10, 0, 52, 63, -41, 50, -34, 32, -17, -28, -2, 65, 0, -61, 15, 14, -69, 51, 70, -6, 54, -62, 29, 55, -21, -51, 9, 48, 22, -71, 15, -80, 55, 58, 30, -52, -61, -1, -80, -38, -19, 67, 32, -46, -54, 38, -7, 0, 17, -31, 14, -61, 17, 18, 6, 62, 45, -49, -53, 35, -44, 41, 59, 1, -15, -51, -42, 22, -11, -14, 46, 9, 35, -55, 16, -68, -70, -3, -76, 37, -46, 40, 13, 73, -23, -36, -52, -55, -15, -59, -31, -62, -14, 23, 39, -2, -58, -46, 37, -25, -14, -54, 10, -44, -27, 51, 46, 60, 8, -18, -59, -50, 16, 42, 44, -44, 35, -32, -65, -4, 52, 20, 25, -64, 20, -29, 56, 59, 7, 38, -56, 1, -41, 51, -3, -23, -1, -29, -45, -3, 47, 70, 40, 53, -3, -13, 57, 12, -27, -47, -22, -25, 48, 49, 14, -29, 42, 39, 35, -25, 40, -2, -62, -19, 59, 21, 58, -18, 37, -34, -53, 26, 62, 29, -48, -22, -11, -8, 34, 41, 44, 49, -3, 44, 19, -52, 23, -55, 43, -23, -69, 59, -5, 14, -12, -42, -38, 28, 5, 48, 0, -61, 20, -11, -41, -13, -18, 63, -28, 37, -36, -2, -1, 11, -2, -58, 33, 42, 1, -65, 37, -62, 39, -58, -17, -49, -30, 27, 48, -16, -12, 2, 26, -70, 46, -42, 63, -29, -10, 9, -61, 33, -4, -9, -23, 2, 29, 40, 82, 48, -24, -18, 52, -28, -51, 46, 0, -87, 25, -26, -37, -17, 46, 33, -6, 19, 28, 74, 20, -50, 21, 37, 55, -39, -53, -11, 78, -23, 60, 22, 81, -50, 56, 68, -23, -41, 24, 0, -5, -43, -38, 17, -13, 48, -28, -72, 50, 5, 70, 59, 75, -41, 59, -66, 56, 10, 26, -77, -26, -26, 14, -19, 51, 69, -1, -21, -27, 0, 4, -72, -30, 44, -64, -4, -17, 60, -4, -33, -62, -15, 53, -77, 18, -59, -60, -80, 36, 73, -8, -69, 81, 60, -13, -93, -48, 40, -42, -87, -10, 56, -74, -42, -57, 1, -71, -87, -64, 10, -51, 33, -87, -1, -54, -66, -69, 80, -25, -81, 6, -73, 6, -61, -17, 20, 55, -50, -25, 65, 23, 37, -94, -59, -16, -20, -19, -51, 13, 63, 62, 22, 75, -29, -59, -42, -79, 12, 50, 55, -2, 25, 46, -25, -35, -59, -52, 66, -77, -88, -107, 50, -13, -63, -4, -97, 45, -103, 42, -81, -37, -88, -46, -53, 7, -38, 34, -1, 7, -123, -96, -49, -111, -111, 64, -6, 67, 74, -72, 12, -35, -7, 23, -15, -8, 7, -61, 87, -97, 21, -22, 71, 68, 50, -28, -77, 3, 40, 0, -95, -59, 21, 0, 26, -16, 46, -32, -8, -26, -67, 66, -125, -77, 100, 57, 21, 35, 1, -3, -92, 54, -40, -4, -56, 50, 39, 57, 24, -84, 53, 71, -67, 17, -64, 4, -72, -86, -67, -11, 95, -7, 86, 80, -24, -25, -23, 16, 84, -27, 63, -8, 54, -95, 58, 41, -17, -80, -70, 61, -8, 92, -97, -15, -16, -89, 22, 39, 78, -30, 20, 65, 92, -80, 51, 28, -35, -32, 37, -80, 87, 73, -31, 24, -36, -72, 2, 93, 26, -76, 34, -19, -8, 60, -52, -10, 68, -63, -45, 65, -47, -52, -3, -23, 92, -80, -83, -76, -63, -17, -41, 13, -82, -52, 38, 67, 86, -24, 29, -43, 1, -88, 16, -58, 80, -85, 78, -54, -92, 66, 13, -3, -57, -7, -101, -34, 55, -21, 89, 46, -112, 52, -55, 7, 45, -94, -75, -52, 1, 28, 83, -3, 84, -29, 8, -50, 37, 9, 19, -99, 29, 22, -51, -10, -54, -53, 101, 59, 49, -36, 53, 76, -19, 72, -104, -34, 63, 12, 59, -77, 72, 79, 12, -41, 87, 7, -1, 58, -50, -72, -54, 8, 7, 13, -25, -52, 79, 89, -62, -20, 1, -5, 31, -24, 25, 4, 6, 36, -6, 0, -6, 87, 61, -55, 83, 26, -77, -44, -94, -6, 1, 85, -73, 32, -64, -91, 29, -75, 75, -82, 101, 65, 73, -102, 68, 22, 48, -54, -81, 29, 64, -85, -38, -59, 81, 60, 14, -25, 94, 68, 59, 45, 38, -6, -17, 36, 104, -38, -32, -48, 93, -22, 69, 121, -77, -95, -37, -73, 33, 93, -83, -49, -15, 59, 16, 52, -64, -46, -17, 7, -54, -56, -63, -62, 3, 64, -15, 8, -76, -19, -20, -77, -92, -87, -61, -64, -37, -41, 48, 29, 85, 89, -61, 0, -89, -33, 44, 91, -32, 69, -16, 0, 70, 60, -43, 63, 36, -75, -32, 82, 62, -18, -10, -87, 11, -12, -79, -52, -11, -17, 3, 58, 19, -49, 74, -7, 41, -23, 6, 75, -38, -2, -71, 46, 49, -44, 45, 86, 77, -58, 15, 12, 13, 93, 29, 33, 21, -64, 1, 48, -94, -13, -6, -37, 50, -60, -11, 82, -33, 58, 10, 91, 55, -76, 54, 46, 56, 10, 22, -2, 41, -28, -66, -58, 50, -55, 8, -23, -7, 33, -20, 47, 88, 57, -44, 26, 10, 85, -20, 39, 37, 94, 19, 66, -67, -16, 59, -15, 26, 14, -79, -47, 29, -56, 8, 86, 50, 30, 78, -27, 7, -76, 59, -66, -12, 49, 64, -8, 62, -12, 60, 86, -36, 43, -72, 22, 37, -34, 69, 10, 28, -73, -44, 19, 8, 66, 79, -69, -52, 82, -51, 46, 29, -79, -70, 58, 69, -81, -88, -47, 13, 9, 64, -19, 2, -44, 52, -64, -48, -38, 86, -38, 52, -43, 8, -28, -6, -16, -38, 6, 76, 15, -71, -42, 31, 62, -34, 52, 29, 8, 65, -21, 35, -84, 63, -52, -38, 72, 74, 66, -77, 43, 34, -74, 65, -81, -38, 65, 73, 76, 42, -54, 85, -67, 15, -93, 53, 45, 26, 84, -55, 29, 37, 3, -57, 47, 10, -78, -33, -65, -38, 4, -16, 29, 18, 42, -47, 84, 16, 32, 24, 23, -47, 93, 11, 51, -65, 37, 71, -22, 2, -57, 64, 35, -34, 31, 10, -53, -49, -24, -40, -21, 16, 34, -4, 64, 33, -78, 46, 81, 47, -80, 93, 5, -19, -24, 14, 22, 45, -92, 2, 1, -64, -45, 28, 38, -66, 32, -23, -47, 16, -40, 23, 43, -37, -60, 62, -86, -36, -17, 20, -57, 18, -33, -4, 81, -15, 58, -56, 3, -47, 19, 81, -36, 15, 38, 19, -32, 22, -58, 33, 11, 15, -48, -17, -51, -75, -62, 56, 71, 26, -72, 9, 35, 25, 27, 13, 8, 79, -19, -38, 29, -54, 90, 21, 21, -37, 46, 44, -18, 41, -20, -9, 57, 67, -27, 25, 12, 20, -51, -68, 78, 24, 50, 72, -33, -85, -8, 44, -15, -18, 48, 27, 76, 55, 48, 2, -81, -17, -35, -4, -6, -89, 73, -13, -23, -1, 82, 63, -79, 57, 27, -8, -7, -3, -64, 54, 15, 59, 56, -44, -68, 2, -27, -62, 37, 28, 48, -52, 38, -12, 65, -31, 68, 28, 52, -59, -33, 13, 38, -13, 80, 73, 33, 86, -54, 35, 30, -2, -64, 27, 41, -88, 73, 71, 37, -14, 11, -24, 92, 51, 41, -14, -64, -37, 31, 19, -54, 34, 36, 14, 21, -14, 37, 40, 11, 28, -1, 25, 27, 3, -2, 13, 8, 48, 21, 52, -12, 10, 44, -21, -12, 47, -30, 2, 26, 28, 55, -23, -39, 19, 7, -36, 15, 7, -33, 20, -53, 20, -11, -21, -28, -36, 26, 26, -52, -11, -38, 39, 53, 25, 52, -4, 55, -44, 31, 20, 31, -52, 7, -55, 48, 43, 12, -10, -6, 39, 51, 17, -30, -25, 7, 22, 10, -19, 26, -42, -2, -6, -19, 19, 39, -41, 29, -4, 15, 28, 1, 6, 24, 10, 9, -10, -28, 8, -38, -23, -42, 27, 56, -53, -26, 1, 30, 51, 42, -56, 21, -32, -6, -10, -31, -55, -46, 45, 50, -9, 11, 45, -47, 29, -32, -10, 31, -35, 32, -45, 13, -1, 22, -31, 17, 0, -45, 41, -24, -43, 18, 12, 40, 45, -7, 27, 27, 57, 24, -26, -11, -9, 56, 33, 48, 25, -28, 46, 38, 6, -16, 34, 52, -49, 14, 29, -24, -50, 4, 23, -29, -10, -67, 31, -12, 57, -54, -25, 6, -4, 61, -2, -55, 14, -37, 40, 11, 12, 40, -23, 26, -8, 15, 50, -50, -35, -23, -60, 10, 57, -49, -57, 20, 43, -28, 55, -44, 17, 40, 39, -45, -4, -16, -9, -25, 21, -55, -17, -16, -11, -32, -8, 30, 5, -13, -30, 15, -52, 59, 15, -46, -39, -1, -45, -24, -24, 28, -24, -14, -18, -24, -43, -19, 65, 19, -5, 35, 20, -21, -20, 31, 22, -7, 16, 61, -22, -59, 31, 63, -14, -20, -25, 40, 64, 20, 56, 30, 21, -41, 59, 35, 32, -47, 14, 10, 31, 31, 54, -22, -37, 1, -57, -40, -54, -38, -13, 0, 34, -52, 61, 23, -23, -5, -27, -58, -40, 19, 39, -40, 38, 57, -50, 10, 9, 3, -3, 53, 12, -19, -36, 32, -33, -38, -33, 21, 25, -47, 16, -20, -20, -37, -10, -17, 11, -55, -73, 40, -48, -34, 24, -54, -70, 13, 40, 2, 39, -52, -5, 17, 17, 4, -62, 49, 24, -51, 4, -43, -20, -44, 11, 3, 10, 48, 71, 73, -26, -63, 24, 26, 32, 3, 26, 52, -17, -27, -49, 28, -42, -49, 36, 3, 34, -26, 1, -29, 59, 15, -36, -17, 31, 39, 12, 50, 49, 27, 52, 56, -72, -46, -27, -5, -1, -39, 0, -12, -48, 17, 51, -26, 2, 34, 16, 48, 20, -24, -68, -48, 49, -60, -30, -26, -62, -45, -7, 52, 55, 43, 21, 57, -53, -17, -51, 13, -58, -31, -3, -3, -12, -26, -54, 50, 61, 29, 15, 20, 23, 2, -8, -1, 52, -44, -65, 25, -17, 20, -1, 56, -43, -43, 13, -39, 27, -11, 50, 20, 47, -29, -21, -35, 35, -29, 69, -23, 29, -38, 60, 22, -39, -41, 2, 37, 63, -15, -43, -51, 38, 43, -37, -2, 14, 51, -68, 6, -30, 17, -16, -38, -10, 71, 0, -51, 70, 28, -24, -9, 51, -15, -5, 1, 17, 22, 45, 8, 2, -71, 11, 81, -79, -49, 39, 25, -56, 58, 9, 1, -46, -38, -81, -66, -3, 36, -51, 51, 41, 62, -82, -70, -63, 50, -34, 36, -45, 44, 83, -82, 40, 53, -11, 9, 55, 13, 27, -42, -40, 62, -43, 4, -35, 76, -53, 35, 44, -20, -38, 54, -29, -53, 14, 44, 67, -13, 64, -3, -59, 64, -12, -48, 64, -37, 66, 44, 18, 14, -26, -10, -30, -66, 35, -8, 44, -31, -17, -73, -39, 39, -32, 4, 79, 32, -65, 0, -89, -37, -12, -5, -55, -21, 20, -54, -56, 45, -69, -74, -6, -25, 22, -32, 27, -79, 0, -5, -4, -58, 48, -34, -3, 5, -77, -59, 18, 69, -78, -62, 8, -25, -77, 72, -62, -55, -27, -71, 14, -46, 19, -4, 5, -17, 27, -28, -100, 8, 32, -44, 11, -19, 30, 46, -2, 0, -54, -26, -43, -13, -17, -3, -4, 56, -58, 32, -7, 4, 46, 28, -49, 46, -43, -62, 56, -17, -61, -31, 22, -2, -9, 14, -22, 29, 44, -19, 40, 25, -39, -44, -12, 16, -34, 13, -55, -59, -6, -51, 9, 26, 28, 17, -59, -38, 40, 23, -13, -10, -56, 54, -30, 21, 3, -45, -37, -34, -54, -22, 46, 5, 20, -44, 32, -2, -31, 9, -33, 12, 45, -61, -37, 14, -34, -21, -23, -10, -53, -34, -41, 53, -39, -14, 12, 11, -49, -58, 29, -6, -49, 44, -1, 3, 59, 33, -66, -61, 11, -59, -53, 0, -57, -13, -34, -20, 59, -16, -50, 62, -66, -51, 3, 27, 21, 25, 14, -35, 8, 22, -34, 58, -24, 6, -46, 17, 43, 3, 37, -7, -35, -59, 5, 44, -3, -11, -38, 56, -27, 36, 34, -5, -6, 37, -61, -22, 35, -26, 33, 56, -13, -66, -61, -60, 13, -79, 30, -3, 42, -52, 55, -50, -41, 4, 58, -66, 40, -17, -46, 66, 28, -13, 30, 11, -74, -8, -44, 55, 23, 50, 31, -19, -52, 40, -19, -45, 48, -66, 61, -1, 46, -78, -17, -48, -47, -17, -55, -10, -15, 54, 49, 20, 50, -55, 75, 50, 71, 19, -26, -29, -56, 26, -7, -30, -59, -60, 8, -63, -14, -32, -40, -19, -20, -44, 4, -24, 62, -56, -64, -55, 35, 69, -54, -80, 50, -28, -54, -42, 55, 20, -6, 0, -39, -48, -50, -41, -55, -24, 78, -50, -9, 65, 28, 57, 44, 4, 50, -1, -22, -19, 25, 12, 62, 59, -40, 47, -9, 53, 26, -60, 15, 66, -61, -21, -49, 60, -32, 37, -12, -46, -14, 22, 50, -7, 28, 11, -78, -85, 38, -44, 67, 73, -32, 12, -77, 49, 18, -73, -71, -9, -48, -11, 1, -80, -43, 27, 56, -78, -14, 4, -1, 6, -20, -11, -2, -29, 0, 7, 1, -24, 24, -5, -40, 22, 37, 46, -50, -30, 52, 31, 20, 19, 26, -10, -21, -21, 3, 3, -11, 36, -6, 9, 26, -32, 5, -17, 7, 30, 35, -24, -31, 43, -23, -7, 16, 38, -17, -19, 23, 3, 5, 16, 6, 18, 2, 47, 9, 37, 30, -7, 12, 23, -20, 44, 29, 6, 30, 22, -37, 47, 16, 40, 4, 38, -18, 18, 30, -10, -16, 22, 9, -24, 21, -19, 0, -1, 8, 34, 35, 17, -19, 6, 17, -21, 23, 18, -16, -5, -31, 44, 49, -16, 36, -14, -9, 8, -14, 28, 11, 20, -35, 27, -4, 6, 43, 47, -18, 47, -16, 39, 25, -34, -41, 37, 13, -16, 39, 32, 19, -16, 33, 27, -4, 24, -37, -33, 43, 14, -19, -40, 8, 5, -17, 34, -16, 5, 17, 31, 44, -21, -17, 20, 13, 13, 44, 34, -33, 27, 24, -23, 13, -2, 7, -55, 51, -22, 61, -3, -11, 32, 61, 7, -37, -41, 30, 30, -34, 26, 39, 55, -10, 21, 48, 53, -40, -27, 21, -69, -3, -15, -16, 57, -7, -27, -16, -33, -64, 21, 16, 19, -1, -34, -37, -20, -10, -15, -59, -56, -47, -75, -24, -28, -52, -12, 1, 27, 63, -23, 54, 50, 29, -36, 14, 23, -13, -54, -43, -45, -50, 15, -73, -22, -61, -61, 28, -34, 29, -4, -52, -10, -20, -76, -75, 33, 28, 26, 53, -42, 21, 21, 4, -55, 44, -74, 64, 45, -20, 44, -75, -34, 48, -40, 2, -70, -2, 42, -12, 70, 55, -30, -10, -68, 48, 1, 60, -39, -50, -33, 12, -17, -43, 10, -31, -34, 39, -33, 33, -53, -31, 48, -68, -22, -40, -36, 0, -51, -35, 63, 58, -18, -17, 31, -22, -3, 58, 41, 63, 26, 47, -50, -48, -49, -4, -74, -2, -19, -57, 59, 64, -32, 50, -19, -29, -20, -48, 57, 56, -39, -56, -34, -40, 43, 60, 64, 54, -40, -24, -15, -6, 0, -60, -26, 45, 25, -38, 7, 70, 22, 32, 50, 9, 45, -43, -39, -8, -8, 54, -63, 17, 3, -43, -48, -10, 68, 45, -48, -67, -1, 11, -72, 58, 20, 10, -12, -56, -13, -9, 40, 7, -46, 27, 48, 37, 30, -27, -48, 49, 2, 19, -65, 32, 73, -40, -23, 10, -49, -14, -3, -39, 30, -37, 53, -51, -55, -7, -55, 62, 19, 29, -51, 19, 13, -28, -23, 24, -30, 50, 30, 34, 24, 12, 23, -42, 24, 33, 19, 43, -60, -60, 61, 25, -52, 36, 6, 6, 42, 36, -49, 44, -71, -82, -26, -34, -11, -20, 41, -19, -29, 48, -24, -36, -8, 62, -11, 52, -51, -36, -8, 46, -38, -23, 34, 45, -58, 36, -49, -79, -8, -35, -43, -64, -64, -73, -26, 0, -24, -20, 59, -31, -62, -59, -43, 15, 42, 37, 42, -43, 38, 31, 56, -1, 7, 26, -62, -64, 56, 67, -81, -49, 28, 66, 25, -31, -56, 48, 49, -69, 8, -23, -21, 22, -49, 11, 8, 22, -24, -11, -71, -54, 13, -50, 17, -7, -44, -31, -44, -25, -65, -48, 13, -53, -43, -3, -57, -28, 61, -17, -37, 53, -61, -7, 66, 34, -66, -71, -27, -40, -35, -7, -47, -26, 48, -64, -57, 48, -5, -24, -64, 24, -56, 65, -64, -65, 49, 28, 31, -28, 23, 36, -45, -5, -35, 1, -28, 4, -21, 10, -82, 23, -58, 22, -43, 45, -7, 51, -24, -11, 22, -28, 13, -47, -15, 10, -6, -5, -82, -64, -43, 19, 44, 40, -4, 55, -9, 53, -64, -10, 45, -55, 21, 2, -15, -13, 44, 52, 45, -64, -49, -56, 29, -47, -57, -69, -23, 4, 58, 64, -16, 12, 54, -5, 9, -57, -30, 22, -70, -5, 46, -76, 2}

#define TENSOR_CONV1D_9_KERNEL_0_DEC_BITS {9}

#define TENSOR_CONV1D_9_BIAS_0 {-17, -5, 41, -42, -26, -17, -42, -17, -10, 16, -4, 0, 9, -18, 2, 8, 41, 61, -16, -26, -30, -49, -49, 11, 1, 60, 51, 54, -62, 48, 30, 74}

#define TENSOR_CONV1D_9_BIAS_0_DEC_BITS {6}

#define CONV1D_9_BIAS_LSHIFT {7}

#define CONV1D_9_OUTPUT_RSHIFT {9}

#define TENSOR_CONV1D_10_KERNEL_0 {12, -22, -36, -39, -6, 12, -14, 10, -37, -30, -27, -38, -36, -21, -32, -26, -53, -49, 11, -55, 28, -15, -36, -24, -25, -31, 9, -31, 32, -20, 45, 39, -48, 21, -22, 1, -19, -30, 16, -4, 30, -49, 54, 28, -2, -1, -21, -7, -14, -28, -15, -12, 20, -34, 53, 32, -31, -5, -37, -35, 1, 28, 23, -50, -8, 36, 40, 32, 31, 0, 10, -30, 19, -41, -4, 6, 25, -32, -23, -27, 38, -8, -28, -45, -40, 32, -27, -24, 1, -34, 47, 26, 40, -16, 27, -14, 4, -53, -49, -32, 10, -36, -38, 51, 26, 38, -33, 49, 4, 19, 57, 7, -15, 33, 42, 13, 5, -37, 22, 49, 66, 17, -3, -36, 3, 48, -56, -23, -20, -14, -10, 44, -15, 47, -33, 47, -24, 25, 41, -58, -6, -7, 43, -41, -34, 5, -39, 8, 9, 18, 47, -38, 49, -24, 3, 16, -43, 28, 35, 45, -41, -19, -35, 5, -58, 6, -4, 7, 35, -27, -1, 50, 20, 31, -51, -33, 9, 21, 42, 54, 14, 50, 60, 20, -37, -39, 5, -32, 54, -24, -7, -27, -33, 24, -31, -18, -4, -31, -17, 22, 19, 9, -7, -12, -11, -40, 39, 38, -26, -11, -33, -9, -22, 5, -10, 6, 18, -10, -21, 11, 31, -42, 25, -25, -11, -35, -16, 2, 21, 21, 24, 32, -25, -20, -43, -24, -34, -18, -28, -28, -24, -22, 11, 26, -43, 15, -2, -28, -15, -3, -29, 26, 39, 31, -34, 19, -32, 20, 26, 29, 13, 16, -7, 35, 35, 26, 26, 14, -21, 16, -41, 41, -21, -45, -12, -34, 33, -12, 26, 12, 16, 37, -2, -33, -10, 17, 38, 2, -61, -18, 44, 63, -37, -20, 43, -62, -62, 13, 53, -4, -49, -24, 34, 17, 57, -5, -68, 46, 11, -18, 6, -16, 4, -27, 61, 28, 64, 6, -48, 34, -62, -28, -44, 54, 29, 60, 11, 41, 47, -9, -21, 62, -40, 43, -23, -60, 17, 13, 6, -1, -52, -32, -59, -36, 60, -9, -18, -52, 18, -57, 66, 42, 14, 65, -20, 18, 35, 40, -66, -9, 0, 42, -59, -28, 58, -48, -1, -39, 54, -36, -8, -64, 32, 33, -48, -68, 17, 58, 5, 5, 51, -65, -16, -46, 30, -18, -37, 0, 40, 16, 24, -8, -9, 52, 5, -41, 35, 9, 1, 17, 12, 39, 9, 59, 14, -19, 10, -25, 10, 22, -31, -44, -33, 48, 44, 3, -3, -44, 1, -10, -5, 52, -36, -32, 25, 20, 26, 16, -11, -40, -31, -14, -15, -50, 49, 10, -39, 53, -15, 46, -30, 30, 23, -41, -24, 50, 35, 3, -34, 27, -36, -37, 47, 9, 26, -34, -10, 40, 24, -13, 34, 50, -5, 35, 19, 22, -7, -13, -18, -7, 41, -33, -44, 7, 20, -1, -14, -1, 44, -44, -15, 27, -39, 29, 25, -37, -49, -7, 6, -21, -33, -48, 18, -16, -58, -45, 9, 23, -34, 51, 49, -6, -42, -20, 7, -48, -32, 1, -50, 51, 6, 29, -41, 6, -32, 0, -29, -34, 13, 13, 53, 53, 6, -48, -1, -22, -55, 48, 20, 13, -23, 0, -3, 2, 4, 26, 39, 30, -32, -36, -48, 49, -2, -32, -26, -15, -47, 22, 14, -48, -39, -20, 46, -32, 39, -8, -32, -35, 48, 45, -8, 33, 50, 36, -50, 42, -56, 48, 24, 25, -60, -35, -1, -40, 48, 13, 23, -33, -24, 10, -18, -21, -4, 11, -3, -38, 24, 16, -16, -38, 12, 36, -28, -4, 8, -1, 35, -2, 23, 28, 27, 24, 28, -20, 10, 33, -31, -16, 4, -27, 31, 22, -39, -3, 28, 22, -31, 22, 33, 8, -8, 14, -32, -31, -16, -4, 10, -25, -24, -44, 22, 26, -16, 10, 41, 25, 18, 1, 9, 24, -18, 29, 14, -21, -37, -7, -11, 27, -20, -25, -37, -24, 13, 6, 31, -20, -25, 30, 39, -13, 31, 12, -39, 11, 20, 21, 18, 17, -28, 4, -24, -21, -19, 31, 38, -25, 21, 8, 1, 10, -44, 6, -33, -13, -38, -43, -21, -25, -5, -19, 41, 13, -39, 2, -2, -23, 3, 21, 40, 38, 37, -42, -31, 24, -10, -17, 4, -15, -13, -29, -31, 34, -2, -30, 42, 5, 17, 30, 35, 35, 44, 23, 32, -17, 25, -33, 22, -45, -3, 32, -29, 15, -19, -19, -16, -31, -24, 38, 37, 7, 5, 40, 42, -26, -7, 38, -31, -37, 44, -24, 43, -44, 34, -14, -33, -7, 37, 27, 43, -13, -48, -30, 24, 3, -13, -20, -12, 15, -21, -39, -40, 50, 37, -25, -36, 29, -24, 52, 29, 53, 33, 44, -21, -40, -25, -46, -35, 10, 54, -45, -52, -15, -5, 21, 40, 13, -39, -56, 6, 17, -52, 22, 24, -17, 56, -54, -31, -19, 31, 15, -4, 11, 10, -25, -27, -5, 18, 58, 38, 41, -2, -43, -15, -43, -17, -55, 16, 45, 23, 24, -6, -31, 25, -49, 53, -38, 49, 39, -27, 46, 59, 43, 50, 25, 31, 33, 11, 30, 36, 15, -42, 46, 52, 12, -47, -54, -26, -33, 17, 26, -14, 21, 6, -8, 49, 40, 35, -26, 26, -35, -24, -49, -52, 21, 41, 5, 7, -34, -19, -33, 41, 49, 17, 43, -11, 12, -32, -35, -18, -19, -24, -42, -32, 4, -53, 59, -55, -62, 9, -44, 34, 2, 2, -28, -64, -33, -32, -51, -42, -19, -1, 16, -51, -51, -52, -39, 34, -10, 35, 53, 3, -25, -27, -59, 44, -1, -2, 39, 21, -10, -7, -14, -50, -53, -17, 28, 45, 53, 25, -49, -21, -22, -18, -30, -29, 41, 24, 33, -36, -11, -46, 61, 11, -29, 58, -4, 48, -40, 32, -42, 70, 67, -51, -65, 41, 60, 56, -30, -76, 58, -18, 48, 44, -5, -58, 48, 17, -9, -22, 31, 49, 2, -45, -15, 7, -10, 35, 36, -33, -62, -31, -11, -17, -66, -76, -26, -24, 29, 39, -54, -39, -80, 72, -65, 57, -4, -23, 47, -24, 16, 48, -4, 21, 46, -28, -87, -16, 41, 31, -26, -78, -31, -47, 4, -20, -55, 8, -17, -82, 2, 49, -34, 12, -22, 68, 54, -40, 40, 52, 40, 52, -6, 27, 39, -33, 7, -63, -5, -11, 53, 60, -59, 9, 9, 6, 9, -14, 37, -26, 24, 27, 9, -7, -6, 18, 40, 13, 18, -3, 0, -23, -36, -30, 13, 34, -34, 23, 8, 27, 11, -9, 23, 12, -44, 19, -5, 2, 3, 34, -9, 48, 9, 7, 38, 12, 11, 14, -30, 31, -28, -11, -28, -36, 0, 29, 34, 30, 8, -36, -4, 22, 37, 6, 3, -41, -7, 35, -8, -25, -21, -15, 31, -11, 20, 12, 12, 40, 21, 23, -2, 31, -17, -34, -34, 7, -3, 7, 27, -42, -31, -8, -1, 44, -14, -23, 16, 42, -25, 33, -11, 2, 3, 12, 5, 9, 14, -20, -14, -5, -24, -2, 8, 23, -16, 3, 3, -1, -11, -6, -2, 26, -11, -18, 3, 10, 4, 4, -1, -12, -21, 8, -18, 15, -30, -11, 23, -5, -14, -29, -16, -2, -13, -24, 7, 1, 9, -6, -21, 15, -9, -22, 20, -5, -26, -11, -29, 11, 22, -22, -24, -4, 3, -18, 24, -29, -27, 9, 23, 3, -1, 18, -1, -3, -3, -19, 11, -4, 6, -11, -4, 12, 4, 21, -9, -17, -14, -15, -23, -25, -4, -28, -9, -18, 3, 7, -28, 25, -24, 21, -13, 33, -27, 29, 39, -18, -44, -3, 53, -23, 49, -20, -39, 57, -41, -58, -62, 32, 29, 18, -3, -50, -16, -7, 57, -17, -21, 61, -11, 54, -13, 27, 33, -22, -48, -8, 34, 63, 27, -12, -33, -27, -1, -10, -20, 57, -14, 32, -14, 27, 14, -51, -32, 34, 6, 9, 5, -37, -69, 7, 57, -25, 46, -44, -5, 30, 58, -53, 47, -67, 61, -28, 2, 59, -11, -37, 18, 51, 51, -32, -24, -15, 16, -45, 57, -8, -62, -9, 14, -2, -47, 57, 42, 22, -15, 68, 69, -27, 16, 42, 13, -12, -15, -41, -1, -73, -33, 60, -15, -39, 25, -42, 12, 1, 44, -20, 51, 7, -51, 50, 9, -18, 37, -30, 39, 22, -22, -12, 44, -24, 51, -8, -9, -22, -28, 11, 32, 29, -31, 21, -45, -6, -53, 19, -57, 34, 16, -14, 27, 35, -49, 48, -19, -37, -56, -56, -25, 33, -56, 29, 16, 52, 10, -19, -5, 35, 25, -45, 57, -53, -13, 19, 48, 56, 8, 45, -66, 15, 13, -3, 36, 21, 31, -11, -24, 23, 35, 56, 26, -53, -50, 63, 22, -52, -23, 41, -61, -53, -28, 10, -7, 11, 34, 27, -26, 19, -22, 30, 18, 56, 30, -19, -31, 20, 34, 61, -13, -22, -24, -24, 4, -9, -23, -10, -50, -52, -49, 12, 40, 20, -49, 5, -8, -27, -2, 13, -31, -6, 31, 22, -43, -23, -19, 2, -22, 63, -43, -2, -13, 63, 5, 38, -19, 33, 22, 21, -40, 34, 58, -56, 12, 32, -44, -58, -38, 40, -32, -19, -29, -7, 17, -32, -19, 32, 32, 7, 40, 25, -12, 67, -51, 63, 35, 13, 8, 3, 43, -47, 14, -67, -71, 58, -11, -20, 20, -30, 5, -50, -65, 26, 30, -59, 54, -25, 51, -70, 53, -23, 40, -39, -68, -10, 54, 28, 6, 6, 8, 59, -5, -51, -21, 27, -59, 22, 27, -22, 26, 25, 37, -33, -56, 60, 1, 14, -23, 6, -4, -48, -10, 34, 26, -1, -31, -49, 37, -44, 7, 7, -72, -48, -59, 31, 58, -43, 40, -38, -36, -71, -16, -63, 6, 48, -24, 32, 54, -31, -28, -48, -65, 32, 28, 35, 58, -23, 6, 27, 28, -30, -28, 28, 16, -9, -60, 52, -45, 81, -30, 44, -37, 14, 47, -2, -2, 0, 14, 35, 64, 28, -35, 21, -63, 45, 32, -68, 14, -58, -26, 34, 55, 34, -34, -53, 18, -12, -42, -31, -59, 13, 46, -18, -1, 46, 58, 73, 77, 26, 75, -14, -18, -6, 39, 67, -23, 35, -59, 32, -14, 18, -24, 51, 63, 14, 8, 45, -28, -16, -60, -39, 10, -10, 73, 62, 27, 30, 53, -67, 59, -69, -53, -41, -24, -43, -30, -39, 11, -31, -41, 21, -11, -19, 71, -33, -26, -46, 40, 16, 48, 20, -64, -27, 37, 30, -19, 33, -29, -44, -38, 37, 33, 38, -42, -29, 11, 33, 19, 3, 8, -44, 27, 1, 30, 30, 26, 47, -29, 13, 26, -10, -26, 8, 23, -37, 2, -26, 21, -8, -29, 13, -22, 1, -13, -24, 12, 5, -3, -6, 39, 9, 38, -23, -42, 8, 44, 6, 9, -37, 12, -26, -31, 11, 8, 6, -41, 23, -13, 10, -31, 31, -22, -22, 25, 26, 16, 2, -28, -15, 10, -17, 28, -43, -27, -29, -46, -32, 18, 24, 20, 37, 8, 5, -35, 2, 4, -31, -32, -17, 35, -15, -33, 52, 44, 48, -58, 47, -4, -39, -18, 52, -25, -12, 20, -2, 37, -43, -14, 6, 6, 34, 40, -5, -2, 41, 23, -15, 42, 18, 9, 45, 31, -45, 21, -1, -8, 48, -41, 29, -38, 46, -28, 50, 26, -37, 8, -59, -35, 15, -58, -10, -42, 20, 6, 45, -17, -34, -47, 39, -37, -35, 12, 15, -20, -15, -12, -23, -48, 43, 31, 9, 32, -22, -34, -45, 31, -52, -37, -35, -41, -47, 15, -41, 43, 50, 6, 11, 25, 27, 15, -44, 24, 33, 28, -60, 56, 4, 16, 32, -27, 17, -17, -17, -34, -9, 54, -12, 65, -50, 49, -13, 20, -49, -32, 8, -66, 2, 63, 26, 47, 71, 13, 74, -6, 50, 42, -70, 12, -53, 37, 57, -48, -57, -50, -10, -11, 0, -23, -43, 32, 18, 16, 35, 2, 7, -36, -74, -44, -29, -61, -78, 44, 27, 14, -3, 60, 18, -4, -73, 64, -55, 27, -4, -3, -36, -6, 43, 1, 20, -63, 38, 10, 45, 40, 60, -7, -38, -10, -59, -38, 6, 1, 67, 42, -38, -65, 3, -39, -61, -55, 33, 41, 12, -44, -52, 35, -12, 63, 29, -45, 32, -49, -39, 40, -56, -36, -2, 22, -24, 49, 28, -56, 17, -15, 7, 52, -35, 52, -10, 21, -24, -59, 46, -32, 68, -4, 10, -20, -51, -35, -52, -48, -7, 58, -72, -49, -22, -38, -64, -49, 38, 63, 18, 43, 19, 75, 46, 6, -3, 35, -8, -14, 30, 41, 18, 70, -58, -40, -48, -4, 28, -50, -33, 58, -22, -13, -28, 37, 32, 27, -39, -29, -72, -44, -48, -34, -48, 19, 51, 31, -53, -22, 11, 31, 12, -56, 22, -10, 11, -38, 18, 55, 1, -34, -59, -23, 21, 30, -49, -42, 41, 33, -23, -32, 21, 14, 19, 22, -62, -51, -4, 31, -28, 49, 11, 55, -57, -24, 13, -15, -41, 30, 51, -2, 2, 45, 17, -20, -46, -53, -53, 11, -59, 38, 28, -13, -68, 25, -53, -35, -38, 31, 32, -58, 45, 16, 18, 8, 14, -56, -62, -36, 31, -5, 34, -12, -43, -59, -24, -43, -22, -32, 38, -20, 47, -42, -44, 2, -67, 54, -39, -36, 52, 8, 26, 1, -36, 44, 36, -7, 53, -51, -39, 13, -30, 16, -12, -11, 41, -56, 43, 48, 27, -16, -45, 9, -22, -45, -16, 41, -36, -21, 27, -29, 47, 17, 15, -40, 38, -46, 26, -43, -43, 52, 51, -18, 10, 2, 39, 24, 28, -27, -28, -48, -9, -18, -22, -38, -26, -31, 21, 1, 11, -14, 48, 40, 9, -36, 7, 48, -38, 19, -29, 47, -35, 29, -38, -59, 16, -6, 9, 32, -43, -21, -16, 24, 36, 12, -37, -33, -27, 33, 0, -52, -5, -1, -11, 26, -36, -29, -12, -42, 9, -9, -18, 30, 54, -36, -24, 25, -44, -1, 8, 17, 40, -48, -47, 42, -31, 32, 46, 24, 41, -7, 16, 18, 18, 4, 38, -20, 48, -40, -1, 36, 18, -31, -23, 25, -25, -45, -32, 36, -16, 11, -31, -1, 13, 25, -7, -17, 25, 22, -29, -33, 55, -33, 5, 4, 14, -26, -46, -43, 47, -47, 40, -15, 12, 3, -19, -8, -22, 2, -24, 47, 27, 41, 18, 18, 1, 10, 43, -25, 27, -46, 34, 32, 8, -31, 8, 12, -15, -6, -14, 36, 6, -17, -19, 11, -29, 51, 16, 31, -10, -43, 59, 11, -23, 1, -46, 39, 52, -25, 8, 40, 23, -22, -37, 25, 34, -31, -16, -8, 39, 54, 9, 61, 19, 57, -15, -22, 13, -24, 1, -6, -27, -67, -56, 49, 24, -7, 55, 9, -24, -64, -16, 30, -42, -48, 62, -18, 29, 58, -60, 9, 64, -57, -20, 6, 14, -14, 51, -46, -12, -6, -56, 50, 31, -55, -49, -40, -56, 29, 33, 68, -2, 33, 61, 0, 33, -14, 37, 69, 59, 36, 27, -13, 7, -31, 11, -61, 12, -6, -37, -35, -28, 58, -8, -8, -53, 63, 8, -16, -4, -20, -30, 5, 26, 33, -20, -56, 56, -38, 20, 21, -35, 23, -15, 12, 11, 54, -4, -38, 32, -19, -29, 28, 3, 22, 3, -33, 4, -4, -27, -58, 50, -31, -45, 54, 42, 59, 18, -15, 12, -10, -27, 2, 33, -49, -37, -41, 3, 23, -3, -19, 48, -36, 22, 32, -12, -37, 48, 39, -44, -42, 16, -34, 10, -38, -29, 37, -18, 39, -53, -3, -20, 38, 42, 6, 21, -44, 18, 24, -50, 18, 30, -55, -52, 47, -34, 36, -44, 43, -42, 1, -30, -14, -47, 15, -14, 37, -39, 27, 45, -45, 40, 47, 7, 36, 68, 7, -64, 26, -53, 30, 15, 41, -55, -67, 6, -2, -53, 39, 67, 9, -47, -12, -33, 40, 15, 63, 29, 57, -4, -17, 22, 48, 61, -61, -38, -10, 14, -2, -61, 40, -53, 52, 49, 27, 12, -22, -64, -46, 33, -34, -60, -21, -26, 6, -35, -57, -20, 0, -59, -33, 59, 57, 40, 50, -36, -42, 47, 51, -69, 52, -55, -7, -8, 11, -15, -43, -57, 22, -43, -53, 25, -16, -44, -70, -62, 0, -41, 56, 0, 41, 30, -46, 4, -2, 9, 29, 26, 9, -21, 35, -22, -34, 54, 23, -13, 45, -13, -14, -7, -25, -27, -34, 13, -5, -2, 8, -31, -43, -49, -22, 54, 47, -57, -23, -40, 28, -35, -43, 3, 37, 22, -22, -23, 26, 24, -7, -22, -40, -47, -38, -6, 16, 58, -28, -16, 20, -50, 38, -50, 15, 25, -10, 25, 47, -9, 21, 25, 25, 48, -38, -50, 22, -28, 24, -36, -42, 17, -37, 48, 26, 16, -40, 38, -21, 29, -35, 0, -32, 31, 42, -29, 4, -13, 14, -29, -22, 0, -5, 13, -30, 17, -11, 7, -41, -23, -27, -16, -39, -10, -31, 31, 34, 21, -43, -7, -36, -37, 7, -7, 7, 12, -37, 41, -40, 3, 7, 29, 34, -9, -36, -16, -4, -49, 3, -40, -13, 8, 2, 8, -39, 10, -3, -33, 39, 18, 36, 20, 35, 27, 24, 21, -13, 20, 20, 42, 42, -4, -14, -32, -19, -33, -29, 34, -20, -14, -42, -6, -40, 45, -23, -4, -11, 9, -30, -54, -21, -48, -42, -45, -6, -15, 22, 26, -8, 20, 2, -13, -3, 6, 38, 11, 46, -20, 28, 13, -40, -30, -20, -3, 10, 17, 25, 23, 17, 32, 21, -10, -2, -19, 37, -33, -11, 32, -21, 35, 21, -21, 13, 4, -31, 19, -8, 22, -33, -13, -16, 25, 23, -14, -13, 33, -32, -17, -27, -36, 22, -36, 20, -39, -37, -12, -43, 28, 28, -34, 20, 36, 4, -30, -35, 8, 38, 16, -6, -17, -26, -26, -31, 4, -40, 33, 39, 29, 18, 2, 16, -37, 43, 23, 36, 32, 7, -7, -10, 32, -16, 35, -36, 5, -31, -33, -4, -23, 47, 35, -32, -57, -41, 4, -72, 6, -4, 0, 40, -27, 54, -16, -65, 20, -37, 73, -54, 28, 71, 15, -17, -35, 43, -51, -9, 50, -33, 49, 15, -52, -41, 4, 59, -38, 46, -69, 40, 75, -35, 59, -26, -24, 15, 42, 46, -57, 47, -25, 1, -71, 74, 50, -15, -17, 78, -61, -29, -33, -57, 33, -42, 40, -11, -25, -43, 39, -29, 39, -81, 72, 49, 76, 64, 42, 71, 20, -19, -59, -36, -12, -70, 59, 27, -38, 73, 14, 14, 14, -63, -85, 21, 27, 32, -5, -72, -20, 30}

#define TENSOR_CONV1D_10_KERNEL_0_DEC_BITS {8}

#define TENSOR_CONV1D_10_BIAS_0 {65, -32, 20, 10, -34, 38, -8, -6, -26, 59, 9, -37, 39, -14, -27, -10, 50, -41, 5, -6, 18, 34, 50, 38, -18, -33, 23, 40, 13, 52, -8, -7}

#define TENSOR_CONV1D_10_BIAS_0_DEC_BITS {6}

#define CONV1D_10_BIAS_LSHIFT {6}

#define CONV1D_10_OUTPUT_RSHIFT {8}

#define TENSOR_CONV1D_11_KERNEL_0 {-22, -26, -15, -30, 37, 19, 30, -6, 34, -29, -3, 5, 11, -31, -4, 29, -32, 19, 9, 5, -12, -7, 7, 22, 5, 6, 12, -14, 2, 8, -28, -2, -38, -15, -15, 16, -30, -7, 2, -17, 2, -10, 17, 19, 14, 8, 20, 1, -21, 3, 9, -19, -12, 36, -3, 9, 22, -26, 40, 28, -28, -28, 2, 28, 36, -1, -4, -13, -7, 4, 3, 20, -31, -23, 21, -5, 19, 3, 10, 22, -35, 11, 14, 17, 15, -1, 5, 2, -8, -35, 24, 31, -19, 27, -18, -9, -22, 31, -12, -13, -18, -3, 6, -9, 1, 18, 22, 10, 12, 2, -4, 37, -6, -12, -7, -31, -1, 14, -18, 40, 8, 23, -10, 9, 5, 15, 2, -5, 12, -24, -29, -9, -8, 5, -26, 23, 14, -22, 35, 7, 21, -2, -24, -5, -30, 29, 6, -23, -17, -27, 25, -19, 23, 25, -13, 10, 36, 19, 29, 32, -22, -9, 5, 35, -1, 23, 21, 5, 24, 12, 7, 3, -5, -30, 13, -19, 13, 5, -13, -12, 3, -30, -6, 2, 11, 18, 39, 32, 8, -14, 33, -25, 13, 38, 9, 28, 21, -27, 12, 35, 29, 14, 35, 4, -7, -18, -34, -9, 28, -32, 5, 15, -3, 2, 11, 15, 15, -8, 11, 22, 19, -1, -26, -12, -29, 16, -28, -32, 34, -30, -17, 15, 6, -14, 33, -34, 22, -29, 14, -31, -6, -10, -35, -22, -7, 25, -31, 12, 11, -15, 27, -32, 0, 30, -7, 8, -14, -18, 30, 23, -11, -16, -14, 34, 31, -32, 26, 36, 37, -24, -25, -34, -26, -15, -18, 15, -31, 21, -37, -2, -1, 31, 1, 31, 26, -17, 23, -19, -16, 10, 19, -2, -39, 43, -3, -43, 7, 16, -17, 42, 2, 20, 20, 42, 11, -55, -5, 47, -3, -1, 16, 26, 48, -22, -8, -12, -7, -20, 35, -43, -19, 5, -6, 3, 23, -24, -27, -28, -21, -3, 33, 34, -45, 15, 43, -1, 3, -36, -3, 23, -20, -20, 22, -17, -34, -32, 12, -18, -16, -22, -1, 12, 34, -15, -21, 43, -15, 42, 22, 17, 24, 13, -27, 10, -17, -10, -26, 33, 19, -47, -29, 8, 39, 31, -30, 20, 18, 19, 3, -31, 31, -19, -30, -3, 15, -10, 16, -23, 43, 19, 29, 17, 46, 30, 4, -21, -29, 41, 31, -22, -36, -24, -1, 42, -28, 30, 27, -29, 31, -44, -3, -13, -24, -30, -37, 41, 21, -9, 22, -10, -25, -2, 42, 32, -4, -46, 21, -22, 10, 40, 9, -21, 33, -38, 25, 5, 32, 16, -32, -17, -8, -4, 24, -43, -33, -44, 2, -36, -45, -42, 25, -15, 22, 41, -19, 42, 9, 17, -24, -37, 31, -12, -5, -14, -13, -36, -26, -24, -41, -9, -9, -14, -13, -5, 1, -1, 1, 20, 3, 16, -5, 16, 11, 13, 42, 8, -36, 30, 4, 40, 9, -18, 20, 37, 38, -7, 8, -19, 11, -23, -27, -13, 17, 38, -39, -31, 36, -42, -32, 20, 25, -4, -38, -14, -28, 44, 43, -32, 21, -36, -1, -23, -35, -18, 30, -29, -18, -11, 29, 22, -23, -20, 17, 43, 0, 19, -5, 28, 22, -6, 19, 15, 32, -41, 32, -31, -33, 39, -24, 1, 31, -38, -12, 2, 33, -1, 2, 38, -12, 4, -33, 35, -4, -40, 14, 47, -8, -35, -29, 33, -8, -17, -32, -20, 18, 31, -25, -34, 1, 31, 3, 19, 24, 17, -30, -19, -24, -10, 0, 33, 20, -24, -4, 42, -4, 14, -25, 8, 4, -11, -37, 27, 44, 0, 31, -3, 18, 9, 30, 15, 24, 22, -33, -19, 14, -34, 0, 31, -1, -20, 15, 29, 6, -14, -29, 33, 30, -38, -44, 29, 9, 13, -11, 6, -34, 5, -4, -11, 0, -10, -10, -15, -39, -32, -37, 11, 27, -21, -9, 10, 30, 47, -34, -24, 22, -29, -27, 12, 24, -15, 6, 5, 17, -2, 0, -1, -1, 24, -35, -39, 10, -7, 6, -22, 29, -25, -40, -3, 2, 35, -2, -7, 17, -8, -49, -41, -8, 22, 23, -10, -26, -22, 2, -24, 27, 3, -40, 12, 3, 7, 30, 29, -14, 20, -3, 33, -36, -32, 16, -14, -18, -19, -10, 5, 28, 21, -12, 34, 23, -33, 32, 17, 4, -34, 15, 25, 40, -26, 20, 15, 37, -24, 14, -1, 0, 24, -33, 15, 3, 3, -5, -31, 1, -7, 23, 18, -11, 17, -22, -30, -12, 7, -24, -5, 9, -9, -1, -30, 17, -39, 1, -26, 10, -1, -35, 30, -18, -4, 19, -21, -41, -8, -28, -33, 20, 43, 7, 26, -31, 0, -37, 0, -39, 16, -21, 27, -27, 12, 29, 6, -5, -35, -31, 32, 5, 34, 18, -13, 34, 5, 17, -2, -22, -6, -37, 41, 39, 10, -37, -1, -40, 7, 19, -11, -5, -35, 37, -16, -33, -38, -9, 3, -7, -29, -20, -11, -12, 4, 8, 35, -29, -2, -44, 1, -21, -10, -11, -35, -6, -16, 8, 35, -35, 21, 18, 21, 0, 10, -2, 12, -6, 39, -29, -14, -4, 25, -34, 3, 17, -4, 7, 35, -30, -39, -30, 8, -4, -21, 7, -15, -37, 28, 0, -4, 11, 20, -43, -7, -34, 2, 26, 7, 2, 20, -40, -32, 15, -6, 16, -34, -10, -5, 33, -33, 7, -31, 32, -3, 6, 17, 19, -27, 8, -36, -12, 4, 31, -11, 2, -15, 1, 34, -38, -22, -19, 22, -1, -26, 5, -4, 33, -15, -32, -19, -23, 23, -31, -30, 11, 1, -16, 22, -14, -2, -25, 25, -23, 23, -26, -24, -29, 0, -5, 34, 35, 21, 5, -45, -39, 11, 8, -21, -24, -10, 9, 3, -34, -8, -36, -34, -38, 36, 27, -21, -39, 26, 10, 19, 47, -34, 7, 29, -8, 14, -22, -27, 17, 30, -23, 11, -34, -35, -11, -38, 16, 10, -25, 14, 34, -51, -11, -43, 6, -34, 11, 32, -21, -35, 22, -37, 10, 20, -31, 36, -34, 43, -19, 14, 26, -13, -5, -33, -13, -20, -5, 33, -18, 11, 18, -27, -11, 34, -37, 14, -4, 34, 40, 21, 35, 32, -17, -35, 16, 38, -2, 6, -30, -47, -16, 4, -31, -6, -37, 26, 11, 33, 16, 26, -5, 23, -11, 23, -4, -18, -9, 32, -1, 8, 35, 18, 26, -37, -22, -19, 26, 45, -21, 24, 34, 16, -27, 6, -45, -8, 22, 46, -35, 22, -39, -12, -1, -35, 0, 30, 30, 17, -32, -5, 0, 7, 29, 13, 29, -2, -32, -18, -34, 25, 13, 9, 31, -15, 14, 19, -30, 50, 32, 22, -33, -36, 34, -26, -15, 36, 31, 4, 16, 9, -23, 31, 10, 19, 10, 23, 9, 32, -11, -6, -28, -11, 3, -10, -31, 9, 13, -22, 28, 29, -5, 7, -38, -13, 16, -33, -30, -12, -4, 30, 48, 4, -12, -26, 6, -6, -12, 29, 6, -20, -34, -36, 21, -22, 8, 20, 35, -29, 32, -13, 20, -29, -32, -40, 32, -36, -27, 27, -12, -19, -31, -19, 29, -25, 5, -43, 15, -24, 25, 30, 2, -5, 39, -3, 19, -4, 30, -20, -34, -41, 30, -4, 16, -36, -35, -26, 10, 26, -19, -22, 22, -30, -33, 17, -27, -13, 11, 26, -1, 8, 16, 26, -39, 6, -25, 10, 12, 12, 28, -43, -19, -30, -6, -23, 2, 35, -37, -4, -14, -30, 37, 9, -22, 12, 41, 44, 35, -8, -10, -36, -35, 26, -18, -3, 11, 32, -5, 28, -9, 10, 19, 37, 45, -6, -10, 9, 40, -27, -3, 2, 44, -1, 30, -24, 35, 19, -48, 0, -13, 7, -42, -31, 32, 29, -33, 1, -22, 33, -19, -26, -21, -3, -40, 5, -23, 25, 23, 28, 34, 2, 15, 26, -36, 5, 31, -36, 31, -9, -16, -5, 25, -22, 16, -25, 14, 17, -37, 27, 27, -11, 36, 35, 13, 3, -8, 33, 32, -19, -6, 13, -28, -15, -33, -39, -39, -12, -14, -42, 2, 15, -1, 43, 28, -7, 16, 22, 31, 12, -2, -12, -4, -30, 1, -1, 8, 8, 25, 22, -14, -12, -17, 27, -14, -45, 31, -14, -24, -12, 23, 1, -6, -16, -43, 21, -23, -29, 26, 24, 29, 20, 2, 19, 6, -42, 47, 34, -24, 5, 6, 2, 27, -33, 35, -24, 19, -40, -14, -36, 11, -31, 9, -38, -24, 25, -4, -40, 15, -22, -14, 26, 6, 40, -2, -11, 26, -9, 26, -13, -14, 34, 35, -28, 47, 7, 41, 31, 2, 12, 10, 2, -41, -46, -27, -13, 37, 11, -13, 40, -34, 33, -2, 5, -2, -30, -11, -13, -22, -13, -1, -28, -7, -24, 12, -8, -5, -12, 33, -3, 8, 22, 0, -2, -30, -18, 31, 37, -22, 4, 2, 21, 27, 30, -10, -9, -16, 0, -19, -25, -6, 7, 19, 17, 22, 38, 23, -11, 32, -15, -26, -35, 24, 25, -39, 6, 38, -11, -10, 7, 2, 10, -4, -20, -3, 15, -31, -4, 13, -10, -19, 0, -8, -7, 6, -16, -32, 16, 2, -16, 15, 0, -3, -32, 19, -31, 19, 2, 9, 0, -33, 25, -22, -13, -1, -3, -4, 27, 27, -5, 10, -10, -8, -9, -30, -31, -16, -3, -38, -13, -25, -18, -6, 3, -1, 23, -28, 37, -5, -6, 27, 0, -4, -2, 23, 21, 23, 36, 19, 11, -19, 31, 16, -22, 12, -37, -31, 0, 2, 15, -13, 36, -22, -12, 6, 30, -11, -27, 26, 16, -17, 2, 7, 16, 28, 31, 18, -33, 34, -4, -25, 37, 15, -31, -19, -3, 14, 8, 6, 31, 17, -9, -28, -12, -32, -7, -32, -7, -16, 5, -15, -30, -20, -27, -16, -20, 21, -3, -21, -24, 9, 9, -31, -26, 8, 10, 12, 21, 18, 27, 2, -22, 12, -7, 13, -12, -29, 24, -3, 13, 26, 29, -9, 43, -12, 19, -29, -5, -2, -7, -25, -24, 5, 31, 1, 13, -9, 0, -18, -26, -16, -17, -17, 6, -29, 25, 2, 18, -7, 3, 9, 13, -23, 3, -9, -31, -14, 18, 19, 1, -19, 27, -11, -26, -18, -18, -4, -10, -5, -1, -36, -4, 11, 25, 3, 31, 0, 13, 5, 6, 28, 27, -22, -3, -22, -31, 23, -16, 22, 28, -20, 25, 18, 30, -16, 14, -7, -6, 9, -24, -12, -23, 41, 37, -5, -16, 7, -15, -54, 23, 8, -27, -18, 47, 15, 38, -38, -2, -4, -15, -15, -2, -8, -23, -2, 9, 34, -42, -33, 0, -3, 35, -46, -12, 23, -12, 19, 14, 9, 9, 30, -6, 28, -17, -35, -38, -28, -19, -40, -28, -23, -42, 39, -19, 32, -18, -22, 45, -19, 49, -7, -6, -39, -39, -36, -5, 26, -5, 26, 35, 27, -1, 26, -1, 16, 10, 11, -43, -7, -30, 38, 10, -13, -35, -40, 26, 41, -25, 38, 27, 18, 12, -45, 17, 42, 3, 13, 42, -29, 1, -19, 7, 25, -25, 8, -47, 21, -47, 39, 27, 20, -38, 37, 14, 36, 8, -5, -31, -4, 10, -8, -10, -24, 11, 2, 29, 25, 41, -49, 3, 32, -2, 39, 13, -20, -41, -17, -24, 18, -7, -11, -7, 33, 41, -17, 36, -23, 38, -29, 22, 24, 16, -37, 16, -15, -33, -42, 29, -40, -18, -15, 27, 5, 16, 1, -33, -4, 30, 10, 33, 29, -7, -41, -5, 19, -7, -28, 44, 19, -43, 2, -24, -20, 6, 38, -33, -12, -3, 34, 31, -16, -29, -12, 22, 6, 24, -30, 6, 31, -38, -55, 26, 4, -49, 22, -1, -8, 0, -9, 39, 10, 0, 37, -32, -22, 28, 6, 14, 18, 22, -36, -24, -30, -1, 12, 26, 29, 24, -23, 17, -44, 22, -53, -23, 27, 18, 3, 24, -23, 11, -10, -7, -17, -3, -17, 19, -40, 8, 24, 31, 16, 13, -38, -21, -33, -45, 21, 34, 17, -29, 19, 1, -25, -22, -20, 17, 29, -2, -6, 17, 9, 13, -41, 35, -27, 18, -32, -27, -13, 24, -8, -34, 1, 33, -18, -45, 9, -15, -45, 34, -16, 42, 0, -14, 32, 8, 9, -6, -34, 3, -19, 7, 19, 16, -19, -22, -2, 13, 41, 17, -26, -36, 24, 12, -13, 11, -46, 44, -1, -4, -32, -15, -36, 13, -9, -42, -29, 35, 29, 32, -11, 17, 37, 28, -4, 3, 16, 1, 17, 41, -2, 39, -17, 12, -26, -12, -3, -33, -10, 9, 3, 4, -1, 31, 5, -21, -31, -19, -29, 16, 40, -2, -37, -25, 46, 2, 9, -28, -24, 16, 17, -31, 41, -26, 37, 35, -8, 9, 19, 21, 18, -3, 28, -1, 13, 35, 28, -14, -21, 26, 20, -22, -6, 1, -1, 27, -28, -16, 37, -17, -23, 11, 27, -22, 39, -3, 47, -28, -35, 5, -27, -16, 12, 28, -33, -31, 40, -11, -28, 31, -34, -21, -16, 0, -31, 4, 0, -15, -31, -7, -2, 17, 17, 15, 23, 5, -31, 39, 21, 5, -3, -13, 14, 34, -13, 25, -15, 36, 31, -3, 11, -4, 44, -15, 36, -34, 23, -23, 11, 14, 42, 2, -31, 5, -2, -27, -12, 12, 37, -14, -33, -18, -8, -25, -36, 37, -9, 15, 23, -5, 10, 40, -30, 32, -43, 37, 16, -37, -21, -19, -5, -21, -8, 36, -34, 4, 19, -24, 5, -19, 28, 9, 36, 9, 25, 17, -23, -33, -18, 27, 6, -14, -24, -44, -4, 37, 17, -41, -35, 2, 36, -8, -30, 14, -23, 5, -22, -8, -23, -3, 35, -27, -7, -1, 24, 2, -7, -27, -28, 4, 48, 43, -9, 38, 25, 30, -25, 2, -7, -32, -34, 8, -22, 47, -36, 20, 19, -35, -21, -36, -14, 25, 30, 32, 47, -42, 21, -24, 7, 3, 8, -26, 15, 27, 4, -33, -24, 44, 27, 26, 53, -11, 40, -21, -12, 44, 15, -28, -32, -4, 4, -10, -56, -43, 16, -32, 60, -7, 16, 24, 45, 40, -45, 35, -40, -4, -47, 4, 35, 35, 2, 38, -53, -22, 30, -41, 42, 4, 24, -32, 0, -51, 43, 0, -57, -5, -4, 47, 12, 13, -2, -36, -46, 27, 54, -37, -37, -42, 13, -38, 16, 43, -44, 20, 18, 6, 0, -49, -53, -24, -5, 42, -35, -21, -38, -28, 37, 47, 28, 22, 34, 48, -47, -5, 46, 35, 25, 19, 7, 14, 38, -48, -38, -52, 48, 41, 51, 31, -11, 29, -30, 9, -51, -12, -29, 18, 35, 16, 10, 11, -27, 38, 16, 31, -45, -32, 25, -56, -31, 37, -15, 37, -10, 24, -11, -9, -39, 5, 35, 37, 33, -41, -25, -48, 33, 13, -48, -15, -33, -10, 32, -16, 18, 2, 19, 39, 14, 7, 48, 23, 43, -46, -30, 45, -34, -10, 4, 23, -52, -10, -7, -45, -49, 3, 12, 50, -17, 5, -18, 15, 40, -6, 36, -31, 38, 55, 13, 45, 12, -50, -20, -22, 3, -1, 8, 27, 19, 11, 25, 15, -40, 26, -18, -45, -9, 8, -18, 26, -24, -17, 35, -46, 13, 42, 12, -53, -53, 45, -21, 32, 48, 22, -30, -25, -44, 52, -14, -2, 8, -47, -39, -29, -9, -35, 36, -41, -8, 23, -14, 36, 61, -39, -5, -12, 26, -26, -10, 17, 31, 27, 19, 40, -28, 10, -20, -44, -32, 10, 23, 60, 10, -35, 48, -26, 33, 29, 39, 33, 11, -40, -8, 28, -17, -30, -42, 39, -17, 42, -15, -1, -40, 42, 50, 56, -12, -42, 7, -7, -25, -8, 22, 7, -31, 19, -9, -1, -31, 24, 19, 23, 10, 39, 7, 15, 18, -25, 0, -11, -21, -27, 14, 23, -35, 8, 18, 40, 26, -10, -37, 48, 5, -20, 8, -18, 19, 24, 1, -11, 12, 21, -5, 26, 35, -15, 11, -13, 2, 25, 36, 0, 33, -8, -25, -19, 19, -38, 16, 9, -8, 34, -6, -24, 16, 18, -19, -27, 5, -38, -32, -2, -17, 39, -8, -12, -35, -21, 13, 25, 16, 33, -20, -21, -9, 26, 22, 15, 9, 18, 0, -2, -15, 11, -1, -8, 13, -31, 1, -16, -20, 34, 44, 29, -16, 37, 6, 26, 10, 39, 25, -35, -15, -4, 38, 17, -15, 21, -11, -20, 22, 35, 12, -24, 38, 8, 23, 15, 20, 9, -26, -39, -20, -25, 22, -9, -27, 11, -24, -31, 29, -12, -18, 32, -32, -24, -21, 20, 1, -20, 4, 39, 30, 9, 14, -36, -31, 27, -9, -24, 41, -34, -21, -17, 49, 2, 30, -37, 44, -10, 14, -22, -30, 2, -29, -11, -3, -2, -1, -13, 34, 15, -14, -37, 11, 33, -27, -27, 33, -16, 28, -38, 22, -25, 36, -37, -29, -33, 11, 15, 21, -12, -14, -31, 7, 34, -16, -36, -26, 24, 10, -1, 30, 16, 17, 24, -8, -30, -36, 8, -32, -14, -24, 44, -2, 11, 1, -13, -33, 3, 4, -34, -13, -14, -26, -6, 11, -8, 31, -3, 23, -12, 10, 17, 44, -18, 39, 16, 14, -1, 38, -16, 24, -35, -37, -26, -17, -35, -10, 8, -10, -35, 20, 0, -12, 1, -30, -10, -31, 24, -5, 10, -16, -34, -17, 17, 16, -44, 39, 17, 4, -28, 23, 23, 32, -31, 27, 7, -35, 30, -15, -39, 26, 7, 3, -16, 29, -8, -4, 30, -13, 34, -3, 26, -15, 36, 18, -35, -11, 9, -32, 16, -14, -11, 3, 36, 14, 32, 34, -40, -12, 37, 31, 19, 25, -14, -2, 24, -40, -15, -19, -29, -32, -32, -15, 16, 25, -14, 24, 29, 25, -5, 24, 27, -12, -12, -16, -23, 28, -39, 1, -34, 7, 34, -25, 7, 14, -30, -10, 25, 10, 18, -23, -13, 25, -15, 13, -17, 16, -11, 3, 30, -21, 35, -7, 0, 35, 38, 0, -14, 14, 33, 18, 2, -16, 38, -34, 29, -11, 32, 2, -12, -13, -39, -22, -15, 34, 23, -36, 46, 6, -33, -29, 15, -43, 25, -35, 20, -19, 5, 34, 0, -27, 19, 44, -7, 15, -7, -4, 2, 29, -11, 1, -12, 36, -38, 20, 30, 2, 31, 19, -9, 37, 15, -12, -19, -22, -17, -22, 28, 42, 31, 17, 37, 37, 7, -25, 18, -41, -10, -7, -1, 32, -6, 17, -35, -37, -2, 11, -8, -18, 13, 10, -9, 41, -6, -37, 7, -35, -23, 33, -38, -38, 28, 18, 12, -21, -28, -12, 38, 0, 10, -27, 40, -26, -11, 11, 44, 7, -37, -2, -28, 16, -16, 11, 11, -6, 18, -9, -42, -26, -17, 15, -18, -5, -9, -14, 2, 26, 21, 37, -23, 22, 29, 33, 37, -11, -26, -28, 14, 37, 7, 39, -19, -32, -17, 9, 25, 2, -10, -17, -17, -29, 28, 19, 36, -7, 11, -39, 21, 29, 24, 34, -45, 38, 21, 16, 6, -14, 43, 34, 40, -40, 7, -20, -27, 14, -14, 16, 10, -10, 0, -4, 39, -2, 24, -19, 37, -21, 14, -37, 14, -17, 22, -19, 26, 30, -3, 29, 29, -5, -15, 20, 19, 16, 12, 21, -29, -21, -7, -7, 8, 16, 0, -18, 29, -1, 5, 23, -29, 33, 19, -26, 27, -11, 16, -25, 39, 41, -12, 11, -25, 7, 24, -25, 22, -27, -7, -27, 23, -25, -4, -3, 16, 9, 8, 19, -15, -9, -11, 26, 17, -31, -32, -8, -12, 20, 28, -24, 16, 20, -30, -14, -35, 32, 17, 1, -17, -5, 35, 23, -1, -12, 15, -20, 25, -12, 34, -38, -28, 17, 1, 45, -16, 19, 9, 10, 4, 1, -5, 28, -25, -9, -23, -13, -21, 3, -29, -1, -25, -25, -25, -27, -25, 40, -15, 20, 10, 29, -5, -12, -20, 21, -7, 14, -28, 19, 4, 13, 7, -12, 21, 1, -19, 34, -34, -29, 15, 31, -30, 3, -19, 27, 6, 17, -12, -7, 11, -25, 1, -6, -35, 21, 11, 32, 0, 40, 2, -19, 15, -21, -17, 32, 7, -30, 34, 33, -23, -30, -7, 19, 4, -31, 19, 10, 27, 13, -30, 7, -28, 17, 22, 18, -3, 24, 28, 22, -21, 40, -5, 13, 31, -5, 3, -2, -15, -9, -3, 26, -28, 27, -32, -15, -14, -15, 10, 7, 30, -5, -23, -1, 15, 0, 0, -7, -26, -2, -30, 22, 20, 24, 30, 33, -8, -13, 29, -26, -5, -24, -10, -7, -10, -11, 26, -18, 29, -11, -39, -1, -17, -17, 28, -8, 21, 22, -7, -27, 9, 28, 8, 4, -3, -5, -18, -15, 9, 13, -21, 5, 21, -17, 8, 25, -17, -20, -36, 23, 13, 19, -16, 35, 36, 9, -13, 23, 7, -9, 26, -22, 23, 18, 22, 39, 14, 1, -33, -15, 32, -15, -19, -25, 15, -5, -19, -4, 6, 1, 33, 7, 10, -2, 11, 8, 14, -31, 11, 25, -33, -16, 0, 20, 37, -20, -18, -45, 25, 9, -34, 31, -4, 18, -19, 10, -19, 37, 8, 2, 22, -18, 2, 7, -3, -7, 28, -2, -36, -41, -8, -13, 20, 24, -15, 44, 9, -19, -34, 10, -14, 10, 8, -6, -14, -9, -4, -14, 32, 9, 13, -34, 5, -5, -24, -3, 41, 14, -5, -16, -22, -36, -16, 22, -30, 32, -15, 18, -5, -30, -16, -10, -2, -40, 28, -19, -23, -28, -29, -33, 31, 25, -14, 30, 33, 0, 15, 22, 39, 15, 44, 14, 12, 14, -28, -4, -22, -15, 13, -33, -27, 15, -21, 5, 18, -6, 35, -6, 30, 49, 41, -37, -20, -22, 26, 33, -23, -42, 21, 3, 1, -22, -5, 14, -23, -34, -4, 6, -15, -6, 9, 1, -34, -25, 43, -22, -38, -3, 37, 6, -16, 33, -3, -30, -31, -17, -42, 32, 30, 36, 7, -31, 3, 17, -14, -31, -17, -33, 33, -32, -13, 32, 41, 25, -25, 37, -31, 5, -32, -16, 23, -14, -25, -4, 10, -2, -10, -28, -18, 18, 16, 18, 26, 32, -32, 14, 1, -22, 17, 21, -8, 30, -19, 30, 19, 38, -32, 38, -26, 4, -16, -11, -2, -5, 34, 9, 22, -12, 13, -39, 13, 13, -16, 11, 30, -22, 12, -17, 17, -26, 24, 5, 11, 4, 3, 34, -6, 15, 21, 14, 12, 7, -17, -10, 33, 40, -22, -44, 4, 33, 2, -27, 9, 25, 19, 32, 10, -1, 35, -31, 28, 5, 29, -1, -18, 25, 25, -3, -9, 37, -18, 43, 33, 30, -8, 13, 16, -20, 41, 41, 21, -15, 27, -26, 27, -19, -29, 16, 40, 35, 2, -20, 33, 34, -15, 12, 11, 31, 33, -12, -38, 21, -40, -3, -6, -27, 44, -28, 27, 47, -29, -17, 21, 18, 37, -21, 4, 2, -16, 1, -31, 17, 4, 12, -4, -20, -21, 13, -21, -27, 2, 18, 28, -46, -7, -13, -21, 29, -3, -23, 28, 3, -23, 46, -35, -5, -28, -24, -13, -39, 31, -31, -15, 45, 4, 26, 1, -10, -25, 5, -26, 14, -32, 9, -36, -20, -34, -24, -12, -19, 19, 29, -10, -27, 20, 37, 1, -18, 29, 33, 2, 16, 5, 1, -37, 5, -29, -31, 10, -30, -9, -3, 25, -11, -1, -43, 22, 0, -28, -8, -33, 3, -10, -27, -4, 24, 8, -36, 2, -10, 13, 28, -14, 13, 21, 21, 23, 4, 13, -25, -16, 41, 23, -9, -24, -42, 13, 26, -28, -52, 17, -43, -43, -7, 23, -4, 6, -27, -46, 21, -17, -4, 5, 17, 18, -26, 8, -43, 24, 5, 2, 9, -9, 33, 8, 34, 4, -33, -40, -24, -34, -10, -24, -40, -14, -22, -24, -40, -21, -26, -28, 3, -23, -13, -4, 8, -29, -23, -26, 11, 11, -11, -14, -2, -12, 22, -35, -16, -3, 1, 12, -3, 24, -30, -23, -20, -42, -34, 13, -37, 20, -36, -28, -1, -13, -16, 3, -30, 23, 28, -34, -36, -2, 35, 24, 21, -25, 45, 27, 14, -46, -2, -22, -14, 7, 13, -35, -10, -1, 36, 17, 40, 10, 18, -40, 32, -40, -20, 45, -9, -44, -23, -13, -27, -5, -17, -32, -31, -18, -14, -19, -24, 7, -10, 14, 24, 18, -3, 6, -14, 20, 34, -21, 38, -10, 14, 1, 4, -17, -15, -23, -3, -15, 6, -9, 22, -17, 6, -25, 38, -13, 48, 13, -1, 27, 40, 23, 38, -1, -37, 20, -41, -2, -20, 2, 6, -22, -40, 7, 11, 28, -25, -17, 29, 5, 10, -25, -50, -38, 38, -46, 39, -40, 21, -41, 22, 21, -16, -14, 31, 2, 2, 31, -18, 8, -5, -38, -6, -21, -29, 42, 15, -9, 6, 16, -4, -22, -11, 1, 38, 43, -12, -22, 34, 35, -23, 15, 47, -16, 6, -4, 45, 25, 0, -32, 5, 9, -26, -24, -23, 10, -40, -17, -17, -25, 37, 47, 23, -8, 8, 24, 45, -14, -42, 22, -14, 37, 15, 22, 0, -22, -10, 25, 1, -15, -36, -4, 36, 30, -25, 22, 38, -39, -28, -19, 40, 18, -3, -24, 42, -45, -36, -37, 39, -29, 10, 20, -3, 19, -9, -2, 35, 27, 8, 41, -23, 42, -8, -41, -8, -27, -10, 11, 23, 24, -32, -26, 33, -32, 36, -7, 13, 37, 4, -37, 21, 36, -33, -11, 28, -9, -8, 20, -18, 14, -31, -16, 38, 33, -39, -21, 31, -2, 27, 29, 14, -11, 0, 26, 21, 32, -31, -28, 2, 14, 28, -27, 5, -25, 22, -15, 38, -20, 3, -42, -36, -33, -30, -27, 18, 43, 8, 5, 22, -40, -19, -25, 33, 48, -28, -31, -3, 12, 5, 6, 13, -13, 1, -33, -34, 32, -31, 25, -2, 6, 37, -38, -2, 29, 38, 27, 24, 9, 7, -31, -40, 30, -42, 34, -29, -41, 44, 16, 21, -45, -15, 17, 15, -2, 19, -37, 23, 34, 28, 39, -14, -25, 36, 9, -30, -6, 29, -9, -33, -17, 43, 33, 25, 29, 38, 37, 10, 15, -9, -42, -25, 30, -36, -33, 44, 25, 40, -10, 43, 36, 40, 9, -15, -15, -28, 3, 12, 11, -10, 27, 31, 24, 33, 33, 45, 8, 2, 32, 20, 4, 18, -29, -13, -45, -40, -31, 1, 24, -54, -3, -28, 11, -16, 36, 0, -14, -11, -27, -5, -30, 18, 41, -11, -1, 17, 51, 7, 18, 14, 4, -25, -22, 30, -23, -18, 7, -29, -37, -27, 11, -39, -23, 26, 0, -29, 20, -32, -29, -21, 4, 9, -39, 33, -5, 8, 38, 25, -21, -7, -18, -10, -32, 1, -29, -35, -23, -28, 15, 3, -19, -14, 13, -8, -38, -35, 35, 10, -13, 36, -16, 35, -13, -7, 7, -10, -32, -22, -35, -3, 42, -5, 4, -45, 20, -48, -42, 29, 46, 20, -32, 33, 31, 16, 34, -5, 39, 39, -31, -16, 30, 38, 9, -31, -8, 27, 23, -19, 3, 16, -16, -30, -20, -39, -1, -23, -5, 9, 10, 44, -41, -43, -23, -25, -38, 8, 6, 37, 16, -2, 22, -31, -42, -16, -30, -34, 5, 4, -28, -28, 12, 15, -41, -12, 23, -31, -38, -11, -25, 30, 22, -39, -10, -14, -33, -2, 10, 0, 10, -35, -30, -39, 4, 6, -4, 21, 9, -31, 40, -27, -14, -38, -14, -18, 1, -45, 4, 8, -30, -40, 29, 14, 38, 15, -1, 35, -25, 40, -43, -28, -6, -18, 5, -15, -10, -34, 44, -25, -4, 23, -4, -4, 30, -32, 37, 2, -32, 22, -28, 32, 18, -33, 16, -4, -43, 5, -5, 34, 29, -41, 41, -36, 39, -8, -28, 43, 31, -16, -34, 9, 34, -4, 24, -23, -37, 34, 3, 30, -31, -7, 16, 20, -12, 35, 34, 32, -6, -49, -27, 42, 34, 16, -17, -34, -27, -16, -34, -30, 16, 40, -26, 24, -28, -31, 12, 26, 17, 28, 21, -18, 23, -28, -9, 0, 10, 3, -16, -5, -26, -6, 2, -18, -13, -28, -26, -33, 14, 35, -26, -10, -31, 11, -3, 17, -7, -3, 21, 26, 28, 25, -23, -22, 17, 23, 17, 24, -17, 1, -11, -20, -30, 20, -16, 1, 25, -34, -15, -19, -33, 35, 11, 1, -36, 37, -31, 18, -4, 22, 23, -17, 19, 1, -16, 24, -9, -33, 10, 25, 23, -19, -1, 30, 25, -9, 24, 25, -16, -11, -28, 19, 14, 23, -1, -17, -8, -13, 14, 13, 17, 18, 2, -32, -30, -14, 16, 22, -11, 19, -11, 28, -32, 11, 28, 15, -26, -13, 21, 13, 8, 21, 1, 13, 39, 19, 4, 11, -1, 6, 18, 7, -32, 28, -24, 15, -22, 10, -3, -15, 32, -3, -3, 23, 0, 17, 22, 27, 30, 7, 23, -28, -9, 17, -8, 0, -6, 32, 33, 20, -30, 3, -7, 1, 29, 23, 7, -6, -9, -32, 29, -3, -1, 14, -14, -22, -26, -15, -12, 9, 13, -15, -24, -14, -27, -17, -6, 30, 5, -19, -19, -3, -24, -9, 20, 12, -10, 6, 32, -4, -6, 42, 24, -30, 22, -12, 1, -17, 5, 30, -19, 22, -10, -9, -7, 9, 18, 6, -26, -10, 9, 8, 2, 23, -40, -34, 4, 1, -16, -27, 7, -37, 10, 4, 8, -17, 6, -22, 26, 11, -9, 4, 24, -18, -13, -31, -1, 7, 6, -14, 25, -10, -17, 10, 20, 7, -24, 12, 13, 2, 4, -16, 31, -3, -14, -26, -16, 19, -24, -9, 16, -6, 21, -10, -18, -4, -29, -8, -1, -1, -20, -10, -7, -17, 17, -8, 26, -19, 27, -23, 20, -2, -16, -8, -33, -12, 16, 31, 14, -8, 0, 15, 28, 4, -3, 21, -23, 33, 27, -26, -5, 8, 29, -10, -2, 24, -4, -3, -24, 25, 12, 30, -10, 27, 5, 12, -18, 16, 3, 26, 35, 24, 25, -21, 1, 5, -10, -25, -6, 4, 12, -26, 6, -16, -11, -40, 38, -25, 14, -6, 0, -23, -9, -12, 21, 7, 5, -23, 8, -8, -14, 4, -4, 11, -19, 6, 22, -5, 29, 10, -22, 23, 1, -24, -24, 31, 17, 7, 41, 32, 34, -20, -34, -3, 14, 8, -23, -30, -23, 0, 28, 2, 3, -4, -15, -36, 18, -10, 19, 35, -24, -2, 36, -22, -31, -2, -15, 21, 18, -29, -28, 31, -28, -3, 0, -11, 16, -17, -14, 4, -6, 13, -20, 16, 13, 27, 13, -3, -5, 22, 2, -4, 0, -34, -32, -29, 19, -3, 11, 38, 36, 11, -34, -35, 17, 3, 29, 11, 36, -28, -14, 12, -21, -21, 10, 16, -26, -9, -12, -31, -19, 2, 0, -39, -13, 1, -27, 32, 8, 25, 10, -35, -5, 35, 9, 12, -6, -18, 15, 22, -16, 9, -32, -7, 35, 34, 15, 22, -27, -34, 28, 17, 23, -20, 27, 44, -1, 8, -17, -32, -27, 32, -22, -18, -12, 4, -21, 27, 19, -16, 7, 35, 10, 34, 15, 17, 8, 26, 4, 22, 39, -9, -1, 26, -13, -28, -1, -28, 23, -15, -5, -10, -19, -18, -21, 19, 5, -7, 11, -29, 20, -34, -28, -18, 6, -7, 20, 22, -31, 27, 1, 25, 27, 1, -8, 27, 27, 16, 39, -41, 24, -12, 29, 13, 9, -10, 1, -6, -31, 16, 21, -11, -19, 14, 32, -16, 16, 29, 30, -10, -24, -43, -16, -36, 29, 23, 30, -62, 30, 40, 34, -21, -44, -16, -52, -34, 46, 8, -18, -3, 5, 48, -33, 9, 37, 32, -28, -40, -43, -11, 5, 0, 12, 11, -23, 13, -12, 44, -22, -31, -1, -20, -35, 50, -3, 13, 3, 59, 16, -7, 1, 14, -42, -7, -34, -3, 32, -13, 3, 15, 13, 55, -14, -28, -25, -20, 34, 11, -41, -48, 23, -20, -32, -9, -15, -25, 42, -30, -9, -36, 20, 37, -14, 18, -34, -41, 29, -40, -8, -9, 19, -14, -23, -33, -12, 12, 44, 35, -15, -17, 31, 50, 14, 40, -5, 33, -36, 6, -14, -7, -29, -6, 45, 11, 17, 8, 13, 35, 27, 3, -33, 10, -20, -34, -35, -1, 24, -40, -34, -35, -27, -31, -42, -33, -40, 32, -24, 37, 35, -42, -30, 11, -8, 54, 30, -21, -44, 45, -51, 8, -14, -26, -38, -12, -46, -36, -4, 10, 27, -29, 25, 26, 51, -32, 24, -35, -19, -38, 10, 16, 43, -33, 15, 15, 26, -39, -45, -3, 3, 48, -43, 47, -32, 18, 30, 4, -4, 7, -2, 9, 12, -2, -27, 26, 2, 9, 42, -7, -28, -54, -8, 8, 19, 2, 39, 22, -16, -11, -8, 18, -9, 14, -21, 36, -37, -44, 35, -6, -43, -54, -23, 39, 61, -21, -5, -33, -27, 33, 10, 3, -4, 32, 20, 33, 3, -37, -13, -10, -33, -40, -38, -16, 18, 28, 18, 0, 16, -17, -28, 42, 27, -28, -29, -3, 23, 25, -48, 22, 48, 25, -15, -8, -29, 13, -48, 26, -28, -36, -24, 53, 30, 3, -34, 36, -34, 29, 23, -14, -1, 25, -27, 31, -11, -4, 6, 12, -7, 49, 4, -10, 9, -31, -23, -26, -1, -8, -21, -34, -7, -20, 2, -27, 9, 21, 26, 14, -35, -9, -36, 11, -13, -24, 35, 6, 26, 18, 3, -4, 0, 37, -35, 31, -2, -36, -37, -3, -17, -3, -16, 50, -3, 25, -3, -16, -26, 1, 32, 4, 16, -37, -39, 37, 19, 11, 15, 31, 8, -15, 4, -13, -14, -9, 48, -14, -6, 13, -29, -37, 11, -18, -19, -22, 41, -2, 20, -29, -33, 40, -18, 13, 31, 36, -34, 28, 12, 1, -26, -36, 5, 48, 36, 21, -23, 17, 26, 35, 35, 7, 14, 39, -7, 25, 13, -48, 28, 19, 19, 0, -22, 8, -29, -34, -32, -30, -32, 24, 25, 26, 34, -31, 17, -8, -41, 31, -25, 22, -41, -28, -36, 17, 31, -48, -40, 29, 13, 2, -13, 36, -36, 19, 9, -40, -18, -37, -13, -36, 5, -27, -28, 26, -23, -17, 1, 36, -2, -3, 33, -12, 41, -38, 20, -1, 4, 14, 6, -36, 41, 2, 10, 22, -14, -16, -9, -38, -12, -28, -29, 7, 3, -41, 9, -18, -21, 16, -18, -16, 38, -2, 15, -8, 35, -12, 14, -8, 23, -15, 29, -18, 34, -46, -3, 2, 12, 14, -14, -49, -10, -5, -14, -9, 22, -23, -11, -9, 27, 20, -11, 21, -11, -24, -40, -32, -4, -12, 13, 43, -27, -17, 24, 13, -16, 22, -23, 4, 21, -23, 19, 18, -24, -32, -37, 7, 14, -14, 3, -21, -35, 25, -4, -21, -2, -41, 10, -11, -10, -30, -21, 22, 10, 16, -26, -3, 0, -12, -18, -28, -44, -5, 27, 24, -33, -17, 24, -19, 11, -17, -10, -36, 30, 15, 16, 16, -33, 10, -23, -38, -12, 6, 22, 2, 13, -8, -2, 20, 3, -48, -30, -34, -16, -12, 19, -24, -48, -31, -17, -18, 0, 9, -36, 13, 18, 9, -1, -20, 27, -38, -12, 32, 36, 35, -16, 4, -7, 19, -11, -28, -1, -27, 37, -36, -15, -15, 28, -35, -34, 8, 31, -11, 27, 6, 10, 14, -18, 2, 2, 21, 21, -20, 0, -33, 21, 21, -10, 17, -42, -25, 22, -11, 20, -33, -32, 3, -8, -2, 30, -30, 8, -33, 20, -27, -33, -2, 28, -34, 21, -27, -17, -41, 0, -25, 16, 39, -16, -10, -5, -30, 16, -17, 30, -11, 10, -8, -29, 7, -20, -23, 7, -9, 12, 30, 27, -3, -6, -38, 29, 3, -17, -27, 42, -1, 10, 37, 24, -10, 19, 35, 28, 0, -31, -17, 39, 30, 31, -31, 34, 2, 5, 31, -35, 10, -31, 8, 8, 15, 7, -23, -22, 43, -35, 20, 4, -33, -17, -15, 10, 5, 33, 27, -36, 37, -25, -33, -5, 11, 5, 33, 24, -2, 9, -19, -38, -25, 18, -22, 13, -10, 4, -12, 0, -13, -4, 8, -12, -31, -19, 29, -18, 30, -1, -9, 14, 41, -27, -35, -23, -32, -15, -29, -18, 22, -22, 2, 23, 2, 4, 22, 46, -14, -32, 6, 39, 26, 4, 8, 22, 40, 12, 8, -19, -44, -13, -24, -15, 13, -10, 13, -31, -11, -5, -1, -6, -30, 25, 2, 18, 17, -5, -3, 26, -9, -37, 24, 0, -4, 33, -28, -9, 9, 31, 22, 31, -3, -25, -17, -4, -38, 16, 4, 4, 15, 25, -8, -11, -15, -26, -12, -7, -34, 17, 15, 10, -27, -32, 27, -9, -1, 5, -30, 20, 15, 9, 1, -17, 13, -34, -33, -23, -7, 27, 24, 15, 28, 1, 23, 33, 28, -8, 14, 3, 14, -12, 17, 34, -21, -22, 31, -21, 27, -7, -32, -3, 2, -19, -26, 26, -17, 14, -18, 10, -23, 18, -31, -34, -3, 29, 45, 31, -27, -21, -25, 13, -42, 44, 30, -1, -38, 2, 13, -6, -29, 6, 27, -8, 14, -11, -29, -8, -23, 3, -22, -33, 1, 28, -18, 7, 6, -31, 8, 23, 14, -3, -8, 0, -10, -3, 28, 31, 29, -17, -13, -36, 21, -8, -15, 32, -32, 27, -21, -17, 25, 28, -27, -27, 27, -34, 8, -43, -2, 11, -6, -30, -13, 14, -14, 21, 34, 5, 9, 22, 15, -11, 34, 35, 30, -2, 13, 12, 30, 42, -41, -23, -19, 2, 32, -19, -20, 32, 9, 5, 30, -27, -20, -35, -20, 13, 21, -17, -6, -32, 3, 29, -15, 4, 5, 3, -8, 21, 8, 12, 13, -6, -40, -2, 24, 30, -1, -9, -12, -40, 19, 17, -25, 31, 26, -36, 6, 8, 6, -6, -12, 29, -2, 1, 18, 9, 5, -13, -25, -6, -8, -27, -31, -6, 3, -25, -28, -38, -20, 3, 28, -33, -23, -29, 23, -30, -4, 26, 28, 7, 14, -31, -5, 10, -27, 41, 23, -30, -12, 14, -36, -4, -44, 3, 44, -28, 7, -20, 9, -14, 14, -12, 18, -29, -14, 20, 39, -10, 26, -1, -12, -21, 6, -31, -41, -30, 35, -5, -34, 32, 9, 16, 5, -2, -27, 32, 26, -22, 26, 30, 1, 20, -12, 1, 39, 10, 4, -38, 8, -24, 33, 13, 16, 22, 12, -37, 29, -22, 29, 36, 7, 1, 7, -35, 27, 14, -19, -36, -24, -22, -28, 7, -45, -13, 40, -39, -42, 7, -44, 52, 6, -4, -17, -21, -13, 34, -43, 22, -30, 38, -13, -11, -1, 53, -49, 7, -26, 0, 16, -25, -1, -50, -38, -31, -25, -53, -35, 24, 4, -31, -2, -3, 33, -22, -24, -11, -25, 3, -50, 7, 18, 56, 24, 1, -17, -11, 25, -9, 2, -28, 22, -3, 13, 14, -21, -62, 25, 43, -46, 14, -2, 23, -26, -6, 16, -13, -31, 20, 0, 33, 28, -38, -12, 44, 44, -4, 4, 36, 24, 10, 8, -33, -36, -26, 19, -19, 21, 46, 29, 28, 9, 43, -34, -44, -21, 47, -36, -32, -26, -15, -45, 14, -28, 20, 32, 0, -43, -24, 11, 30, -38, -46, 26, -19, -23, -53, -22, 17, -46, -40, 18, -40, -51, 44, 22, 45, -14, 36, 20, -10, -23, -63, 8, -7, 33, 22, 13, -9, -39, -34, -37, -12, 36, -46, 1, 17, 48, 35, -27, -30, 29, -54, 30, 1, 14, 47, -12, -21, 32, 26, 44, -44, -32, 37, -5, -38, -9, -38, -36, 42, -34, 26, 4, 44, -44, 7, -41, 32, 5, -47, 27, -43, 20, 35, 19, -30, -28, -4, -30, -18, 26, -21, -49, 3, -32, 38, -29, 33, 1, -39, 7, -7, 17, 3, -25, -26, -20, 45, 37, -13, 29, 18, -21, -65, -17, -10, 13, -23, 30, 28, 26, 33, -29, 32, -54, -13, -23, 19, 48, 29, 19, 14, 19, 44, 27, 23, 39, 30, 44, -27, 13, 44, -18, -4, 0, -19, 24, -8, 9, -19, 16, 11, 14, 21, -5, -7, 35, 29, 45, 10, 38, -6, -29, -30, -34, 9, 36, -46, -11, 30, -8, -27, 6, 30, -15, -32, 8, -40, 19, -28, -19, -31, 21, 6, 32, 30, -17, -36, 7, 6, -33, -15, 32, 9, 18, 4, -18, 28, -4, 21, -2, -1, -23, 7, 5, 30, -3, 37, 6, 46, -27, -20, -20, 16, 35, 15, 34, 1, 35, -35, -12, -5, -30, -18, -25, -29, 23, 14, -44, -17, 23, 38, -39, -22, 30, -26, 17, 26, -9, -42, -18, 4, 22, 20, 25, -27, 35, -37, -12, -10, -33, -20, 38, 13, -23, -7, 10, 20, -8, 1, 34, -14, -4, -11, -7, -2, -25, -8, -1, 15, -6, -28, -35, -3, 19, -25, -16, -11, 24, -24, -23, -31, -40, -9, -27, -19, 1, -27, -6, 19, -31, 11, 28, -6, -4, -27, -13, 10, -41, -38, 2, 16, -47, 45, -18, 27, -4, 19, -17, 28, 39, 22, -32, 18, 7, 8, -1, 0, -34, -25, -13, -30, 7, -11, -22, 11, 37, 19, -4, -24, -12, -17, 16, -35, 3, -11, 38, 3, -40, 21, -30, -7, -18, -36, -23, 18, -39, 7, -35, 25, 31, 8, 21, -4, -18, -32, -8, -7, 26, -3, 29, -9, 24, -39, 5, -24, 33, 39, -2, 32, 26, -6, 29, 32, -15, -27, -19, -39, 34, 14, -39, -11, -6, 22, -22, -17, 18, 0, 14, -37, 20, 29, -3, -37, -40, -34, 27, -8, -11, 15, 13, -10, 23, 29, 11, 29, 7, 35, -27, 31, -25, 3, -11, -25, -18, -32, -21, 32, 11, -25, -17, -24, -21, -1, -16, -24, 8, -17, -31, 19, 31, 23, 40, 4, -17, 36, 25, 6, -7, 31, -27, 32, -1, 6, 28, 19, 12, 13, -5, 5, 0, 5, -1, -11, -21, 7, 18, 2, 35, -10, 12, 21, -4, -24, 27, -16, -22, 11, -37, -18, 44, 2, -34, -40, -2, 30, -39, 35, -29, 11, -39, 18, -57, -49, 1, -45, -9, 48, -50, -53, -23, -13, -33, 21, 20, 46, 38, 46, -12, -22, -9, 10, 10, -28, -50, -4, 47, 6, 32, 50, -5, 5, 22, -8, 38, 44, -45, -40, 34, -19, 24, 11, -47, -52, 14, 40, -7, -16, 50, 49, -48, 51, 53, 22, -28, 46, 33, -30, 18, -54, -38, 13, 6, 8, 35, 6, -37, -44, -35, -17, -26, 45, -37, 26, -5, 37, -20, -49, -45, 46, -46, 3, 24, -8, -6, -19, 32, 53, 9, 7, -5, -5, 30, -16, -32, 14, 8, 23, 5, 30, -7, -33, -8, -52, 45, -23, 24, -53, 35, -46, -37, 55, -29, 42, 5, -9, 40, -13, 48, -20, 24, 48, 29, -24, -22, 35, -47, -30, -43, 34, -27, -2, -42, 43, 20, -56, -23, -49, 14, -31, 58, -24, -30, 3, 16, 45, 14, -25, 10, -46, -35, 30, 28, -46, 45, -23, 37, 38, 43, 9, 45, 25, 53, 26, -16, -35, 6, -36, 51, 25, -36, -20, 30, 43, -18, -24, 28, -26, 2, 1, 32, 45, 32, -36, 52, 23, -42, -48, 37, -41, -22, 56, 6, 22, 46, -24, -21, 10, -38, -9, -47, -46, -40, 7, -56, 26, 16, 27, -51, 41, -55, 50, 3, 44, -26, -15, 20, 13, -1, 4, -20, -34, 1, 10, 46, 14, 27, 25, -7, -12, 6, 28, -17, -51, 31, -7, 19, -23, -36, -10, -38, -53, 33, 16, -20, 43, 30, -10, 18, 46, -24, -28, 35, 57, -19, 43, 0, 6, -17, -54, 8, -5, 32, 21, 41, -27, 10, -46, 22, -44, -14, 28, 6, -43, -12, 25, 34, 1, -24, 39, -33, -39, 47, 41, -36, -6, 55, 11, -14, -25, 27, -5, -35, 22, -26, 16, 28, -19, 79, -18, -63, -13, -23, 66, 27, -49, 44, 48, 63, -64, 10, 53, 12, 45, 36, -5, 75, -19, 27, 8, 27, -56, 1, -54, -45, 12, -39, 28, 30, -9, -15, -52, 20, 8, -34, 14, 12, 76, 33, -15, 19, 3, -37, -29, -16, -56, 33, 3, 28, 39, -5, -43, 63, -50, -46, -21, -39, -47, 27, -40, -24, -18, 39, -53, -6, 21, 58, -43, 66, -33, -42, -11, -37, -16, 2, 43, 50, -27, 63, 4, 20, 1, -16, -23, -3, 8, -2, -31, 23, 35, 18, -31, 33, 7, 2, 3, 9, -23, -24, 28, 1, 53, -3, -48, -2, -40, 16, -42, 13, 20, -28, -30, -9, 31, 52, -53, -51, -34, -9, 26, 61, -45, 35, 40, 11, -13, 2, 21, -67, 25, 56, -12, -15, -11, -30, 25, 11, 43, 49, 52, 18, -5, -3, 30, 63, 36, 50, 2, 54, -12, 61, 13, -16, -50, -3, 22, 13, -24, 12, 17, -31, 41, 50, 7, -13, 14, -14, 18, 45, 34, -39, -48, -19, 41, 47, 36, -58, 52, -33, -57, 34, -1, 10, -19, -6, 21, 19, 53, 25, 24, 38, -30, 40, -12, 2, -22, 48, 19, 26, -34, -53, -56, 52, 7, -50, 16, 6, 16, 15, -50, 36, 40, -30, -59, 28, 24, -70, 6, -12, -26, -46, -2, -23, -18, -48, 49, -59, 27, -4, -5, -51, 57, 22, -15, -58, 15, -10, -18, -24, 49, -11, 5, -9, 12, -56, 3, 10, -33, -64, -57, -55, -26, -14, 37, 29, -44, 5, 33, 2, -15, 28, 14, 51, 32, -27, 53, 20, -25, 11, 19, -7, -37, 18, 23, 11, 11, -15, -19, -16, 31, 37, 13, -1, 1, -34, 0, -3, 26, 27, -2, 28, -6, -35, 7, 8, -38, -16, -17, -27, 19, 17, -17, -33, 28, -43, -4, 26, -37, 36, -11, -35, -30, -29, -28, -12, -13, -34, 24, -41, -3, -5, -7, -37, -21, 2, -20, -32, 34, 21, -6, -25, 27, -3, 14, 8, -12, -13, 31, 27, 22, 6, 6, -32, 17, 21, -39, 15, -6, -5, 21, 25, -23, -13, 19, -14, -2, -41, 5, 9, -21, -26, 15, -15, 9, 25, 7, 15, 34, -29, -25, -16, -13, 30, 27, 18, 16, 17, -39, -22, -17, -22, 35, -43, 11, 26, -4, -9, 5, 29, 27, 16, 10, 27, 14, 1, 14, 2, 15, -7, -41, 29, -36, -12, -34, -32, 21, -37, -20, -28, 18, -31, 0, -40, -18, 27, 25, 31, -31, 19, 36, 33, -8, 8, -7, 27, 1, 21, 12, 37, 21, 33, -17, 3, -5, -15, 22, -21, -27, -2, 15, 15, -13, -20, -33, 22, 32, -17, -24, 25, -25, 23, 10, 15, -24, -31, -16, 5, 26, 17, 9, 21, 17, -26, -9, -13, -41, -32, -1, -23, -20, 29, 8, 20, 18, -36, -37, -45, -33, 16, 24, -21, 17, -1, 15, 23, -17, -11, 10, 15, -11, 12, -7, 4, -29, 15, -40, -6, 1, 35, 23, -29, 13, -36, 26, 0, 7, -19, 26, 10, 11, -25, 26, -22, 18, 27, 27, -3, 25, -34, -15, -7, 20, 36, 19, 17, -24, 17, -18, 43, 3, -5, 4, 10, -16, -28, 20, -26, -10, 36, -34, -32, 29, 28, -26, -2, 1, 12, 36, -28, -14, -10, -22, 18, 15, -3, -33, -36, 11, 17, -21, 31, -12, -16, 0, 14, -12, 39, 20, -2, -38, 10, 25, -18, 20, -12, -38, 30, 42, 36, -26, -18, -35, -33, -39, 38, -26, 11, -23, 19, -22, 16, -24, 7, 38, -32, -31, -8, 14, -6, 16, 28, -3, -29, -15, 2, 40, 3, -27, 10, 12, 36, 28, -15, -31, 7, -39, 15, 9, 9, 26, -32, 22, -14, -5, 12, -19, -30, -6, -7, -25, 37, -14, 36, -5, -26, 34, 11, 32, 26, -14, -1, 21, -12, -29, -12, 22, 22, 14, -8, -12, 1, -32, 1, -3, -14, -27, -2, 12, -10, -37, -28, -39, -9, -32, 5, -14, -2, -32, -31, -37, 12, -22, -33, 40, 19, -12, -4, 22, -30, -31, -32, -13, -2, 9, -5, -16, -35, 20, 30, -16, -1, 9, -4, 12, 13, -4, 2, -27, -2, -31, -8, -3, -28, 35, -23, -17, 19, -6, -29, -32, 32, 30, 5, -21, 36, 32, -35, 1, 23, 21, -12, -17, -25, -11, 29, -15, 2, 20, 32, -12, 40, 32, 30, -34, 25, -6, -9, 25, -37, -18, 16, -15, 22, 16, -21, -21, -24, -24, 25, -7, 28, 38, -9, -13, -25, -16, 35, 25, -15, -7, -30, 26, 16, 11, 19, -2, -26, -13, -29, 24, 13, -11, 10, -13, -20, -1, 20, -20, -41, 11, -33, 11, 3, 21, -26, -19, 6, -2, 17, 10, -20, 21, 12, -11, 21, 22, 14, 25, -6, -35, 29, 31, -21, 28, -42, -38, -19, -32, 24, -14, -10, 9, 21, -15, -18, 21, 32, 9, 23, -17, 26, 27, -5, 10, 18, -10, -5, 12, 2, -2, 18, -21, -4, 14, 3, 31, -26, 7, 19, -6, -26, 19, 8, 7, 42, 28, -24, 45, -47, 49, 6, 3, -13, -40, -36, 52, 44, -40, 58, 27, 27, -34, -23, -15, -20, 42, 17, 12, -22, -14, -24, -7, -16, 20, 5, -56, 21, 43, -38, 17, -33, -9, 12, 1, -17, -44, 27, -25, 33, -50, -47, -46, 12, 42, -25, 52, -23, -41, -25, -7, 48, 21, 0, 14, -14, -39, 33, -31, 38, -12, 32, 6, 41, -38, 47, 42, -27, 12, 1, 0, -6, 51, -28, -49, 16, -10, -47, 6, -21, 25, 30, 10, -53, 27, -25, 7, -35, 1, -45, 41, 44, -42, 34, 26, 27, -21, 46, -43, 26, -12, 6, 18, -24, -27, 5, -48, -28, -22, 42, 1, -39, -33, -3, -52, -37, -29, 28, -26, -28, -25, -48, -21, 41, -1, 37, 39, 35, -23, -49, 8, -3, -36, -53, 24, 20, -36, 33, -4, -30, 38, 49, -30, 3, -17, 29, 41, -7, -50, -28, 32, 13, -27, 47, 2, 26, -24, 41, -45, 11, 7, -3, 43, 0, 26, -43, 32, -15, -4, 45, 2, 1, 36, -15, 2, 45, 28, -11, -11, -28, -18, -26, -20, 45, -49, 12, -54, 55, -29, -27, -24, 8, -20, 35, 2, -41, 57, -4, 27, 1, 46, 51, 3, -33, 29, 50, 28, -31, -36, -26, -5, -17, -33, -17, -38, -36, 42, 37, -44, -28, -6, 24, 3, -39, -19, -19, 12, 4, -30, -47, 55, 7, 6, 1, 21, -10, -7, 30, 1, -50, 41, -23, -36, -30, -40, -8, -25, -12, -56, -44, 9, 56, -6, 27, 18, 30, 50, -43, 15, -20, -32, 39, 24, 22, -17, 39, -13, -47, 24, 7, 7, 25, -17, -12, -12, -37, 28, -33, -17, 31, 49, 2, -34, 19, 20, -35, -22, -13, 12, -2, -14, -26, -22, 18, -23, -22, 22, 16, 6, -31, 22, 3, -6, -14, 10, 6, -25, -28, 10, -22, 13, -11, 12, 15, -37, -20, 18, -2, 32, -27, -5, -17, -19, -1, -26, -27, 0, -1, -25, -13, 6, 3, -27, -34, 21, 38, 6, -13, 8, -18, -10, -22, 34, 6, -18, -15, -23, -6, 4, -30, 8, -28, -35, -43, -12, 9, 6, -3, -23, -10, 20, 10, -13, 17, 14, -16, 8, 20, -36, -16, 16, -31, 34, 16, 1, 29, -13, 5, -10, -20, -19, 18, -5, 28, -6, -11, 4, 18, -12, -18, -10, 7, -3, 6, 33, -5, -5, -4, -25, -6, -20, 34, 2, 19, 9, 22, 0, -19, 11, 8, -2, -36, 10, -13, -3, 20, 20, 24, 3, -12, -12, 7, -23, -14, -6, -20, 6, -7, -24, -30, 39, -12, 4, -12, -26, 26, -21, 26, -4, -24, -8, 17, -28, -8, -32, 10, 24, 14, -13, 13, -34, -17, -8, -22, -30, 27, -6, -2, 0, -1, 30, -16, 17, -25, 28, -16, 6, 26, -27, -27, 13, 25, 1, 5, 24, -25, 29, -17, -32, -23, 6, -14, 31, 10, 11, -12, 16, 23, -37, 13, 15, 0, -22, 4, 12, 16, 30, 12, 27, 26, -23, -12, 30, -27, -32, -4, 2, -24, -24, 6, -5, 23, -11, 19, 19, -7, 9, 29, -27, -1, 18, 28, 18, 11, 12, -16, 7, 17, -27, 23, -20, -24, -19, 25, -9, -6, 22, -25, 24, -10, -18, -21, -22, 13, -1, -9, -31, -20, -31, -6, 19, 21, -3, 34, 0, 13, 21, -6, -15, -9, 6, 12, -21, -7, 32, 8, -6, -13, -33, 12, -11, -36, -28, -39, -30, -9, 28, -14, -4, 10, -13, -18, -34, 29, 15, -21, -33, 11, -23, -7, 19, -7, -28, -10, 25, -4, -4, -15, 27, 8, 4, -19, 29, -28, 36, -31, 12, 23, 22, -34, 20, -7, -8, 2, 1, -3, 7, 32, -24, 13, 7, 17, 42, -18, 39, 31, 1, -23, -14, 32, 10, 15, 18, 8, -12, 30, 39, 30, -12, 10, -19, 27, 2, 25, 29, -19, 35, -29, 39, 13, -36, 25, -31, -6, 21, -22, -1, 40, 47, 37, -9, -12, 25, -6, 32, -4, 0, -8, 38, 17, -5, 16, -38, -7, 3, 30, 25, 0, -12, -19, 2, 47, 18, 1, 13, 8, -12, -9, -16, 15, 1, -27, -18, -10, -14, -15, 33, 23, -11, -10, 26, -5, 27, -11, -6, 0, -5, -25, -8, -28, 21, -33, 9, 1, 32, -12, 24, 29, 33, -13, 35, -38, 15, 31, 19, -32, -19, 14, -36, -20, 21, -22, 0, -26, 2, -30, 2, -13, 22, 12, -25, -29, 15, 27, -13, 29, 19, -28, -25, 35, -8, -30, 2, -22, 17, 20, -36, 42, -8, 24, -9, -8, -15, -17, 5, 16, -39, 35, -23, -23, -4, -26, -27, 6, 40, -43, -5, 13, 10, 23, 2, -13, -20, 21, -20, -33, 22, 5, 9, 11, 38, 14, 38, -6, -41, -7, -13, -41, -18, 5, -2, -50, 27, 18, -32, -3, -30, -12, -45, 4, -27, -11, -27, 16, 14, 34, -7, -36, -36, -11, 14, -28, -3, 13, -17, 15, 30, -29, 22, -17, 15, -7, 23, -15, -26, -36, -16, 12, 2, -18, 10, -15, -31, -1, 25, 21, -10, -25, 28, -16, -18, -9, 19, -7, -44, -32, -39, 5, -26, -6, -13, -31, 31, 27, -26, -15, 9, 8, -11, -1, 27, 35, 16, 32, -15, -3, 21, 15, -23, -15, -16, -5, -8, -1, -27, -4, -31, -4, 31, -20, -1, 3, -25, -3, 5, 5, 34, 33, 16, 31, 0, 0, -23, -33, -14, 1, 17, -36, -33, 5, 11, -24, 32, 34, 23, -30, -10, -22, 22, -25, -1, -26, -1, 14, -9, 6, -25, 33, -23, 12, 8, 8, -30, 20, 25, -4, 23, 28, 26, -19, -30, -8, -12, -9, 14, 1, 38, 21, -31, -10, 12, -23, 9, 13, -1, 29, -8, 22, -2, 5, -1, 0, 13, -31, -34, 11, -26, -15, -5, 2, -16, -18, 22, -12, -13, 15, -17, 20, 28, -20, 38, -30, -1, -16, -16, -6, 7, -25, -3, -18, -35, 25, 28, -6, -10, -29, -29, -25, 17, 2, -5, -8, -15, 1, -34, -7, 24, 20, 7, -23, -35, -25, 4, -19, 25, -16, -21, -7, -1, -19, 31, 2, 16, -11, 23, -12, 15, -5, -35, 0, 7, -27, -7, -32, 27, 2, 1, 23, 25, -26, -31, -15, 5, -14, -40, -3, -29, -5, -28, -25, -1, 32, -8, -12, -31, -26, 5, 13, 9, -8, -21, -4, 13, -31, -14, 23, 8, -13, -22, -5, -7, -38, -25, -38, 17, -16, 36, -4, -3, -24, 43, 5, 5, -7, 10, -9, 34, 9, -23, -36, 19, 6, -29, -1, -28, -32, -27, 10, -2, 7, 21, -6, -15, -15, 20, 3, 2, 27, -9, -25, -14, -26, -2, 17, -2, -23, -4, 31, -4, 15, -22, -11, 1, -23, -7, -24, -35, 17, -17, -20, -37, 0, 20, 20, -10, -2, -10, 13, 26, -32, -35, -20, -24, -12, 19, -7, 36, -26, -43, -27, -5, -38, 33, -20, 30, -26, -1, 26, -2, 26, -24, 14, -12, -25, 12, -30, -23, 11, 0, -32, -7, 3, -7, -6, -33, -3, -23, 43, -1, -32, -42, -41, -12, -25, 25, -5, -8, 2, -41, 12, -12, 31, -4, -24, 20, 21, -22, -33, 44, 20, -33, 32, 36, -22, -17, 23, 24, 30, -16, -18, 40, 8, 39, -38, -18, -11, -6, 28, -2, -34, -15, -25, -26, -12, -38, 30, -12, 9, -26, 15, -24, -31, 2, 18, -29, -10, -38, -1, -6, -31, -32, 23, -38, -8, -13, 18, 8, -24, -50, 15, 10, 37, -18, -34, -16, 21, 28, -18, -27, 16, 1, -27, -35, 39, -17, 21, -27, -31, -20, -10, 20, -17, 7, 24, 15, 34, -3, 32, 37, 0, 29, -48, -38, 3, 39, -37, -34, 44, -18, 16, -4, 16, 43, -3, -11, 17, -16, -32, 30, -39, 37, -18, -27, -22, 7, 2, 5, 32, 22, 39, -16, -31, 11, -18, -23, 26, 26, 36, 37, -32, 44, -27, -34, 5, 20, -37, -32, -26, 8, 17, -5, -19, 13, 34, 28, 38, 5, 16, 5, -37, 35, 39, 3, 32, -52, -14, 8, 26, 9, 22, 21, 22, 37, 1, 0, -30, 4, 33, 22, -1, 13, -23, -47, 24, 6, 8, -7, -33, -34, 30, 9, 36, -30, 20, 11, -6, -23, -32, -55, -5, 11, 16, 38, -1, 13, 27, -16, 33, 39, -7, -29, 39, -14, -26, 4, -18, 10, -11, -28, -4, -7, 30, 35, -14, 27, 38, 28, 0, 25, -39, 10, -7, -2, -1, -25, 32, 26, -25, 15, 32, 19, 22, 19, -4, 24, 35, 7, -47, -9, -6, -36, 12, 42, -20, -29, -20, -16, 36, 3, -48, 48, 46, -45, 41, 39, -26, 21, 43, 40, -51, 23, 42, 13, -8, 10, -34, 2, -2, 32, 25, 31, -14, 18, -37, 44, 38, 18, -20, 12, -28, 14, -44, -6, -24, 28, -26, 8, 38, 13, 17, -29, -21, 7, 22, 40, 7, 7, -43, 16, 20, 19, -12, 8, -32, 18, 11, 8, -34, -12, -32, -16, -21, 24, 44, 18, 35, 43, 7, 13, -12, 47, 35, -2, 33, 21, 21, 45, 19, -5, 26, -41, -25, 2, 37, 21, 32, 2, -30, 49, 7, -4, -18, 26, 13, 13, 9, -39, -3, -46, 40, 31, 3, 48, -31, -2, 32, 8, -14, 19, 7, 13, 5, 19, 39, -8, 43, 37, 40, 11, -49, -25, -14, -15, 37, -28, 27, -40, -28, -7, 37, 4, -42, -36, -15, -12, -10, -25, -14, 40, 7, 9, 33, 27, 34, 27, -24, 44, 31, 22, -15, -44, -5, 0, -20, 12, -1, -21, 49, -32, -32, -50, 6, 16, 35, -41, -9, 18, -14, 37, 37, -36, 10, -40, -33, -3, 26, -3, 5, 21, -21, 4, -34, -9, 14, 24, -5, -36, 28, -32, -32, 31, 23, -3, 7, 39, 12, 1, -43, -30, 8, -20, 14, 32, -2, 33, 30, 9, 41, 20, -28, -5, -47, -21, 21, 35, -43, -4, 29, -47, 4, 27, -7, 42, -33, -18, 32, 3, 14, -12, -22, -1, -37, -13, -13, 13, 4, 2, -13, 30, -14, 15, -20, 23, 38, 29, -53, -7, 33, -12, 34, -3, 34, -30, -19, -14, 29, -30, 27, -43, 21, -39, 10, 26, -6, 20, -23, 32, -20, -27, 0, 6, -31, -2, 37, 17, -43, 0, 31, 34, -9, 49, 15, 13, 27, -33, 11, 16, 17, -32, 35, 34, -5, -1, 10, 0, -29, -20, -33, -7, 0, 19, 11, 26, 10, 45, -6, -39, -35, 11, 15, 13, -36, -16, -12, 27, -15, -36, -11, -21, -2, 38, 5, -27, 28, 35, 2, 33, -33, -6, 28, 26, 6, 17, -37, -23, -15, -31, 11, 16, 33, 10, -19, -29, 20, 32, 11, 14, -27, 6, -14, 31, 11, 28, -25, -41, 25, -7, -6, 20, -14, -9, 37, 14, 6, 26, 22, -33, -1, 26, -27, 16, 29, 13, 12, 19, 9, -30, -3, -22, -41, -22, -9, 10, -14, -15, -38, 9, 8, 44, 18, 21, -11, 17, 35, -7, 9, -22, -13, 31, 2, -17, -29, 6, 39, -7, 40, 9, -2, 8, -20, 1, 11, -15, -29, 15, -35, 26, -3, -34, -13, -29, -12, 2, -22, -9, 4, -14, 6, -13, -1, -23, -32, 40, -13, -5, -35, -38, -8, -31, -26, -25, 38, -22, -6, -13, -4, -21, -24, -41, 0, 18, 25, -22, -28, 37, -17, -11, 11, -7, 33, -16, 31, 11, 28, -5, 8, -22, -13, -37, 32, -31, -30, 37, 31, 20, 40, -17, 37, -4, 26, -31, -8, 36, 27, 24, 5, -26, 9, 40, 22, 36, -6, -28, -35, 29, 18, 3, -25, -35, -34, -9, -36, 20, -12, -6, 27, -18, -7, -24, -7, 8, -30, -39, -34, 1, -1, 40, 21, -10, 13, 28, -17, 23, 22, 20, 3, 30, 17, 8, 29, -20, -36, 32, -19, -4, -20, -15, -28, -37, 28, -29, -5, 4, -8, -4, 40, -9, 28, 36, -37, -8, 3, 38, -22, 35, 14, 37, 17, 24, 17, 47, 29, -20, -14, 17, 16, 10, 7, -25, -35, -5, 37, 23, -20, -37, 15, 47, 1, -33, -10, 16, 16, -31, 4, -33, 30, 5, 28, -25, -2, 24, 16, 0, -11, -26, 3, 49, -10, -10, -17, 11, -29, 31, -35, -17, 4, -13, -28, 31, -32, 34, 24, 33, 8, 28, -10, 7, -26, 7, -32, -15, 30, -29, 13, 6, 10, -20, -17, -18, 28, 27, 10, -20, -33, 26, 22, -35, -14, -7, -9, 20, -24, 12, -32, 31, 35, 32, -20, -28, 18, 5, 18, -29, 16, 0, 36, 15, -24, 10, -31, 29, 14, 15, -27, 1, 8, 20, 21, 13, -14, -30, 22, 43, -2, 30, -24, -18, 5, -21, -34, 10, -33, 10, 41, 6, 0, 39, -18, 33, 20, 45, 23, -4, 15, 29, 3, -30, 10, 1, 4, 38, -25, 39, -12, -31, -18, 40, 9, 21, -30, 8, 29, 11, 17, 1, -18, 15, 24, -19, 18, -15, -5, 31, -12, -11, -6, -25, 12, -29, -3, -30, 26, -18, 1, -17, 22, 2, -33, -6, 36, -5, 29, 11, 19, -25, 28, 5, 40, -14, -41, 33, 26, -10, -7, 30, 28, 39, 24, 24, -33, 1, 3, -27, -2, -5, 40, 27, -17, 32, -29, -21, -2, -22, 11, -29, -19, -22, -3, -36, -9, 32, 27, 29, 5, -34, 5, 28, 34, -24, 18, 18, -33, 37, 18, 36, -35, -4, 19, -37, 27, 30, -8, -17, 15, 4, -35, -7, -31, -15, -8, -22, 10, -6, -6, -8, 13, -2, 39, -32, 4, 7, 20, 23, -6, 37, -2, -23, 36, 37, 18, 13, 12, -24, -27, -6, 24, -1, 33, 15, -9, 10, -29, 40, 39, 10, -32, 4, 9, -22, 44, -14, -17, -21, -22, -21, -21, -14, 44, 17, 27, -27, -23, 9, -25, 8, -5, -28, 21, -29, -29, 2, 34, 30, 41, 20, -23, 16, -31, -29, -5, -3, -4, 4, 41, 8, -6, 11, -42, 5, 20, 13, 20, 37, 36, -33, 29, -27, -4, -48, 25, 9, -36, -34, -32, -5, -40, -13, 50, -3, -26, -20, -33, 29, -15, 36, -11, -24, 10, -24, -14, 16, -8, 29, 13, 31, 36, 6, -33, -35, -35, 12, -2, -31, -45, 22, 26, 18, -27, 13, 13, 20, 4, 14, 16, -15, 33, 15, 8, 18, 31, 19, -7, 7, -30, 1, -38, -17, 10, 30, -36, 38, 15, 13, 17, 4, -7, -27, 0, 5, 18, 22, 5, 23, 24, -33, 25, 11, -4, -13, 17, -9, 20, -34, -42, -6, -45, 30, 40, 17, -2, 48, -19, -7, 20, 22, 16, -33, 35, -12, -28, -39, 0, -26, 27, 40, -47, 7, 6, 32, -33, 16, 6, -22, 21, -21, 5, 30, -13, -21, 12, 12, 4, 22, 22, -17, -12, 10, 25, -14, -7, 8, -9, -28, 22, -15, 6, 33, -31, 2, -17, 44, 19, -39, -42, 23, 34, 34, 15, 30, -11, -43, 25, 24, 4, -4, 26, 30, 16, -10, -27, 27, 16, 18, 9, 5, 41, -33, 26, -26, -18, -13, 31, -5, 7, -20, 35, -36, -17, 1, -39, 9, 20, -45, -38, -19, -31, -20, 37, -23, -8, -31, 4, -28, -24, -45, -2, -22, 22, 25, 39, 37, 23, -38, 8, 48, -50, -32, -25, -48, -30, -24, -37, -36, -23, -17, -28, 36, 16, -26, -9, 3, 34, 24, 21, -31, 22, 12, -34, -21, -17, -28, -37, 6, -6, -36, -1, -20, 19, -37, -11, -7, 30, 3, -15, 12, 45, 23, -10, -9, 20, 18, -16, 39, -31, 12, -37, -4, -2, 6, -36, 11, -37, -25, 24, 15, -45, -10, 40, 32, -14, -30, -16, 6, -6, 5, -34, -18, 19, 1, -44, -34, -35, 5, -18, -19, 38, 43, 17, 5, -8, -1, -10, 13, -35, 45, -37, -8, -34, 16, 35, 2, -44, 28, -28, -28, 4, -26, 31, -24, 37, 29, -5, 1, -20, 2, 38, -4, -31, 30, 38, 9, 9, -8, 34, 8, 45, 26, 5, 9, -15, 17, -35, -5, -31, 12, 42, 34, -6, 20, 17, -20, 22, 14, 33, 17, 36, -18, 34, 16, 20, 36, 24, 16, 9, 34, 2, 23, -20, 10, 0, -9, -39, 33, 31, 8, -15, 36, -21, 38, -18, 15, -45, -34, 46, 41, -43, 24, 31, 37, 35, -26, 2, 8, 34, 17, -41, -34, 35, -7, 9, -16, -44, 22, 3, 18, -21, 8, 35, 13, 21, -35, -23, -5, 21, 10, 23, 7, -3, -36, 24, 9, -12, -1, -12, 34, 15, -12, -36, -4, -36, 32, -23, 21, 21, 38, 10, -1, -23, 14, -2, 34, 41, -15, -18, -30, 13, -5, 43, -36, -21, -12, -17, -21, -9, 17, -15, -3, 10, -21, -12, -14, -1, -32, 27, -9, 27, 38, -7, -6, 9, 24, -21, -19, 13, -5, -17, 15, 2, 42, 36, 12, 38, -14, 6, 32, -15, 19, 28, 14, 22, -27, -17, 47, -18, 14, 3, 41, -13, 28, 17, -15, -1, -28, -31, 26, 46, -2, 23, 40, -41, 42, 31, -25, -4, -40, 13, 1, -3, 22, 33, -34, 39, -28, -3, 38, 27, 16, -35, 44, 3, 46, 36, 11, 1, 30, -29, 36, -16, -11, 20, 8, -10, -9, -10, 4, -17, 40, 36, -26, 27, -25, 24, -13, -4, 45, -18, -6, 47, 45, 8, -21, -26, -31, 30, 32, -6, 46, 9, 26, -26, -32, -19, -39, 17, -24, -7, 39, -1, -32, 17, 11, 9, -24, 11, -15, -12, 23, -35, 47, 17, 7, -24, 38, -1, -31, -28, -34, 34, -8, 30, 38, 15, 35, -42, -7, -8, 25, 1, 22, -19, 40, 10, -25, -35, 24, 14, -33, -32, -23, 15, -2, -26, 10, 18, 14, -12, -44, -20, 39, 24, -3, -11, -33, 37, -35, -19, -30, -28, -21, 10, -3, 21, -1, 40, -19, 6, 19, 17, -22, 2, 12, -39, -44, 13, 5, -21, -45, 29, 31, 14, 15, -30, 47, 34, 7, 24, 0, 25, 43, -5, -43, 21, 2, 13, -21, -4, -32, 35, -32, 20, -30, -21, 4, -11, -12, -20, -13, 13, 16, -2, 25, -14, -14, 14, -23, -10, 29, -40, 12, -5, 15, 0, -32, 22, -39, -9, 5, -10, 4, 2, -32, 10, 35, 22, -40, -12, 25, 13, 5, -37, 43, 19, 12, 31, -24, -9, -30, 24, 0, 10, -36, -38, -34, -23, -10, -12, 8, 8, 40, 12, 40, -4, 34, 10, 35, 11, 13, 36, -18, -11, -37, -20, -19, -27, 3, 44, 14, 22, -10, 32, -22, -11, 13, -35, -41, -27, -6, -25, 33, -23, -1, -22, -32, -15, -18, 28, -17, 46, -19, -27, -34, 42, -1, 12, -41, 38, -30, -19, -8, -2, 14, 16, 37, 54, -32, -2, 22, 36, -22, -1, -16, -2, -41, -10, 26, 17, 5, -24, 31, 47, -22, 41, -17, -27, -7, 27, -36, -32, -30, -17, 4, -37, -26, -9, 19, 24, -7, 38, -38, 10, 5, 19, 25, -18, 10, -10, 22, -33, 1, 34, 28, 37, 19, 32, 21, -28, 4, 28, -33, 2, -27, 19, 13, 31, 16, 28, 20, -6, 11, -7, -13, -22, 27, 16, 32, 29, -28, -7, -23, -12, -38, 37, -37, -10, 11, -35, -19, -21, 29, 18, -39, 28, 13, 13, 19, -29, 5, -10, 1, -27, 8, -12, -8, 2, 22, 16, 33, -23, -9, 14, -3, 4, -1, 36, -23, -28, -10, 17, 19, -39, 14, -17, -29, -28, 27, -7, 29, -7, 13, -34, -2, -25, -21, -6, -23, 3, 25, 15, 4, -26, 26, -36, -13, -38, 32, -12, 27, 22, -22, 14, 1, 5, 34, -35, 4, 19, 36, 35, -9, 36, 25, 31, -26, 42, -25, 24, 25, 17, -19, -34, -23, 41, 5, 16, 42, 29, -37, 18, -11, 31, -7, -26, 14, -27, -3, 30, -16, 15, 29, 19, -23, 35, -22, -1, 22, 5, -11, -19, -21, -28, 35, -22, -34, -14, -24, -28, 38, 13, 5, 24, 25, 3, 31, 2, -3, 24, 43, -9, 23, -4, -31, 27, -22, -11, -10, -7, 18, -8, -16, -12, 30, 38, 12, 11, -23, 15, -22, -27, 22, 28, -4, -33, 30, -3, 12, 25, 38, -30, -18, 31, -5, 6, -9, -24, -17, 2, -27, -30, 27, -32, -4, 21, -11, 19, 25, 13, 0, 41, 33, -21, 19, 30, 8, 5, -20, 20, 2, 29, 33, -33, -7, 4, -24, -30, -19, -12, 7, -25, 22, 29, -13, 8, -14, 2, -2, -28, 32, -18, -8, 26, -32, -7, 18, 2, -21, 12, -17, -24, 13, -10, 17, 26, -11, -12, -31, 32, 10, 43, -21, -16, -28, 8, 3, 12, 16, 27, 37, 10, -25, 40, -12, 37, 27, -21, 1, -3, 33, 16, -36, 13, -9, -42, 36, 14, 21, -23, 26, 31, -36, -7, 24, -30, -20, 0, -16, 14, 22, 21, -23, -11, -13, -16, -18, 15, -18, -1, -6, -8, 35, -8, -31, 28, -26, 29, -19, 25, -25, -2, -3, 32, 34, -16, -33, -17, 33, -5, -18, 10, -23, 29, -37, 13, 33, -33, -3, 21, 4, 11, -25, -17, -15, -9, -12, -22, 30, -30, 19, 19, 34, 24, -25, -24, 13, 4, 4, -5, 9, 13, 31, -8, -24, 14, 33, 17, 26, 11, -9, 35, 19, -17, -4, 7, 31, -21, 2, -7, -31, -9, 19, -34, 0, 5, 6, 15, -31, 29, 39, -9, -40, 39, -28, 30, -30, -17, -28, 0, -4, 32, 3, 15, 4, -25, -10, 1, -10, -36, 3, -37, 23, 25, 16, -29, -30, -37, -34, 11, 30, 12, -40, -6, 42, -8, -30, 27, -35, 25, 10, -1, -32, 28, 25, -37, 41, 12, -38, -5, 15, 38, -13, -17, 35, -32, -9, -27, 5, 18, 14, -24, -5, 39, -31, 28, -5, -4, -3, 19, -28, 13, -7, 19, -23, 14, -8, 9, -4, -27, 15, -21, -20, 4, -35, 41, -12, -32, -3, -23, -16, -6, 7, 35, -21, -2, -7, 10, -17, -37, -5, -24, 23, -27, 19, 17, -16, -21, -1, -13, -10, 7, -35, -14, 23, -21, -6, 20, -22, 8, -36, 26, 8, -26, -5, -18, 38, 33, -33, 14, 14, 4, -10, -6, 31, -8, 37, -22, 31, 13, 13, -43, 16, -12, 29, 25, -7, -6, 25, 21, -18, -19, 1, -33, 38, -10, 7, -5, -40, 14, 12, 22, 36, -7, -7, 20, 39, 21, 12, 30, 5, -42, 33, -39, -32, -8, 37, 5, 26, -9, -2, 22, -12, -26, -6, 0, 21, 11, -33, 35, -30, 3, 21, -46, -4, -46, 5, 28, 8, -13, -20, -2, 15, -21, 2, 3, -46, 1, 25, -20, -25, 10, -19, 32, 23, 28, -26, -37, -6, -24, -1, -23, 10, -3, 15, 25, 28, 19, -33, 48, 40, 19, -27, -10, 50, 10, 9, 0, 27, 13, -27, -40, 50, -16, 31, -13, 19, -22, -33, -29, 31, 36, 5, 22, 16, -30, -3, 21, -16, 9, 4, 51, 32, 36, 5, -13, -42, 33, -1, 35, 28, -3, -35, 46, 15, 32, -16, -3, -40, 8, -15, -19, 37, 38, -5, -8, 7, 51, 18, -17, -26, -28, 31, -23, 26, 37, -19, -15, -17, -20, 23, 2, -8, 19, -22, -9, -29, 4, 7, -10, 48, -41, -27, -6, 10, -29, 26, -36, -12, -3, -38, -9, 2, 15, 9, -12, -19, 31, -13, 1, 1, -3, 20, 31, -19, -28, 30, -15, -31, -10, 36, -13, 19, 42, 30, 11, 15, -5, 38, 35, 41, -47, -46, -1, 7, -27, 18, -24, 33, -33, -7, -31, 36, 16, 31, 18, 11, -2, -8, 14, 21, 1, -2, -19, 26, -6, 23, -26, 38, 28, 36, 5, 4, -1, -4, 3, -17, -21, 17, 16, 28, 45, -5, -27, -41, -40, -7, -21, -5, 29, 39, 5, 27, -25, -40, -3, 10, -29, -13, -24, -19, 14, -35, -20, -9, 28, -9, -28, -7, -2, 34, 3, 32, -41, -25, -44, -12, -5, -19, 32, 14, -16, -31, -17, 43, 11, -11, -7, 34, 35, -31, 35, -19, 1, -28, -37, 17, 36, -3, -29, -15, -3, 13, -17, 50, -39, -25, 6, 4, 7, -44, -36, -5, 24, -3, 20, 25, -23, -25, 36, 32, -12, -32, -27, 14, -10, 30, -4, 39, -31, 9, 22, 34, -3, -21, -7, -28, -35, 14, 6, 32, 30, -18, -2, 9, -29, -26, -14, -4, -42, -45, -12, -16, -25, 4, 6, 28, -10, 14, -19, 37, -29, 30, 6, -33, 32, 30, 25, 32, -10, -47, 26, -28, 40, 39, -3, -13, -25, -21, 29, 4, 36, 12, 11, -36, -40, 17, 23, 23, -22, 25, -30, -33, -17, -14, -23, 36, 10, 6, -2, 23, -25, 25, -28, 19, 30, -15, 24, 31, 38, 6, -28, 18, 21, 17, -25, 35, -28, -10, -8, -29, 18, -27, -15, -16, -30, -38, 40, -9, 22, 12, 13, 18, -7, -40, -17, -12, 15, 22, 34, -5, 12, 7, -6, 34, -17, -8, 11, 35, 13, 49, 18, -11, -26, 26, 20, 47, -32, 42, -20, -26, 10, 45, -45, -38, 6, -24, 24, -52, 39, 18, 26, 13, 29, -7, -6, -19, -9, 4, 12, -1, -9, -34, 7, 11, 45, -6, -41, 6, -18, 31, 36, 18, 36, -43, -43, -37, -2, -35, 2, 4, -17, -27, -33, -7, 40, 42, 5, -29, 5, -25, -36, 42, 33, -21, 38, 32, -25, -39, 13, 26, 13, -19, -32, -9, -11, 18, 24, -4, 18, -20, -14, -30, -35, 19, -29, -30, -16, 18, -21, -37, -35, 14, 3, -4, 18, -29, -17, -8, -6, -11, 0, -5, -15, -30, -15, 30, -4, -8, -13, -20, -28, 11, 3, 36, -28, 35, -22, 36, 14, 21, -4, 23, 30, 33, -13, -11, -30, 10, 40, -23, 36, 2, -35, 0, 17, 43, 34, 31, -25, 27, 29, -14, 25, 2, -2, -9, -24, 17, -22, 22, -16, -31, 13, -5, 14, 36, -17, 7, -9, 6, 25, 21, 7, -22, 4, -38, 34, 24, 16, 12, 13, 23, -38, 11, -13, 16, 14, -23, -12, -21, -5, 20, 11, -15, 38, 18, 16, 5, -2, 11, 26, -1, -18, 19, -23, -25, -38, 34, 7, 14, -38, -39, -18, 29, 0, 7, 9, -9, -33, -19, -24, -21, 34, 21, -21, 28, 19, 5, -9, -16, 15, -33, -4, -29, 21, -17, -10, 16, 37, 8, -32, -33, 8, 4, 25, -26, 12, 13, 9, 27, -10, -12, 20, 8, -32, -27, 20, -27, 14, -2, 30, 36, 19, 9, 5, -11, -5, 18, 1, 14, 32, 8, -16, -9, 10, 27, 23, -24, 2, 32, 15, -32, 26, -14, -15, 8, 23, 10, -21, 9, 21, 23, 26, -22, -5, -22, -7, 10, -24, 1, 11, -23, 10, 17, 4, -31, -5, 5, -16, 15, 31, -26, 24, 9, -14, -18, 29, -14, -24, 14, 30, 18, 22, 2, 1, 9, 31, 21, 10, -30, 5, 20, 8, -14, 28, -18, -20, -33, 2, -8, -29, 10, 41, 17, -4, 28, 8, 32, -7, -26, -11, -14, -10, -24, -11, 1, -16, 37, 22, 28, -20, -14, -31, 1, -20, 15, 31, -31, -29, 13, -24, -9, -24, 17, -12, 36, 33, 27, -5, 16, 20, -8, 22, 3, 20, -4, 23, -27, 6, -6, 12, -17, -8, -18, 24, 1, -29, 14, -20, 27, 9, -25, -26, -40, 17, 17, 16, -13, -1, 20, -19, 33, -1, -35, -1, -26, 30, -23, -21, 16, -33, -31, -12, 4, -14, 17, 13, -5, -28, 3, 23, 16, -17, -19, 13, 21, -14, -11, 26, -3, -17, -11, 26, 11, -22, -6, 32, 21, 11, -29, -34, -20, 15, -9, 15, -33, 11, 10, 4, 36, -27, -14, 22, 20, 1, 27, 13, -17, -42, -27, -27, -12, 25, 24, 9, -52, -18, -12, -4, 44, -15, -34, -28, 38, 45, 19, 45, -1, -13, 19, -4, -29, 14, 19, 41, -23, 13, -45, -19, 28, -46, -42, 12, 36, 21, 33, -36, 13, 10, -17, 0, 26, 11, -15, 16, -5, -6, 27, 22, -5, -5, -30, 29, -36, 48, 29, -33, 54, 5, -28, 35, 3, -16, 47, -25, 36, -23, -26, 4, 3, 33, 20, -5, 33, -24, -34, 24, -16, 35, -17, -37, -38, -7, -13, 19, -35, -47, 38, 10, -20, 21, 23, -26, -10, 10, 45, -40, 10, -4, 36, 14, -44, 3, 23, 19, -4, 12, 9, 5, 1, -19, 15, -15, -4, -22, 37, -5, -31, 48, -5, -32, -13, -44, 18, 15, 43, -9, 42, -10, -21, -13, 2, 5, 13, 38, -8, -11, -27, -33, -40, 10, -47, -4, 49, 27, 42, -29, 24, -45, 25, 34, 18, -10, 59, 15, 49, -29, -27, -14, 28, -41, -50, -11, 4, 30, -6, -12, 28, -18, 49, 4, 28, 29, -11, -23, 6, 24, -42, -33, -28, 12, 34, -25, 18, 5, 22, 13, -1, -13, 7, -25, 37, -40, 24, -29, -23, -18, 10, 29, 36, -5, -3, 0, 21, -21, -40, -15, -25, 24, -41, -31, -12, -44, -46, -29, 10, 31, -10, 6, -39, 24, -9, 6, -34, -30, 44, -28, -16, -19, 35, 12, 11, 7, -8, -19, -48, 27, 19, 18, 21, -48, 26, 1, 28, -40, 6, -9, -40, 13, 52, 4, 35, -34, 4, 8, 44, -11, 3, -13, 4, -35, -5, -40, 7, -56, 9, -67, 41, -60, 39, -54, -49, 12, -64, 59, -35, -60, 29, 20, 6, 19, 40, -58, 38, -9, 39, 21, 18, 52, 39, -42, 65, -45, 33, 58, 30, 38, 46, -47, 10, -11, -35, 1, -65, -16, 27, 56, 28, -40, -13, 66, -15, 42, 3, 57, -61, 62, -27, -55, -28, 17, 3, 16, -47, -39, 41, -15, 1, -45, -8, -19, -61, -45, 36, 57, -12, 36, 60, 32, 7, -46, 41, -30, -27, 43, -17, -21, -51, 8, -52, -21, 36, 10, 26, -40, -54, 45, -4, -24, 26, -15, 16, 9, -34, 17, 24, -19, 52, 13, 14, -3, 21, 14, 9, 54, -13, 25, -61, -31, 47, 42, 35, 42, -8, 3, 59, -21, 54, -50, 9, 18, 57, 29, -48, -56, -16, 30, -35, -37, 37, -35, 26, 15, -49, 33, -55, 64, -26, 23, 59, 53, 19, -44, 1, 47, 34, -12, -3, -43, 56, 40, -50, 61, -46, -26, 41, -40, -53, -30, -33, -18, -20, 43, 58, 42, -18, 51, -4, -18, 5, -38, -36, 53, 20, -19, -7, -50, -4, -5, -33, 13, 4, -8, 19, -10, -27, -21, 54, 11, 9, 11, 19, -8, -6, -46, -15, -40, -50, 46, -22, -42, -15, 29, 5, 21, -49, 16, 35, -15, -38, 7, -62, -57, 21, -58, -80, -18, 34, 6, 17, 33, -49, -21, -27, 11, -71, -23, 59, -19, -4, 39, 8, -35, -59, 56, 43, 12, 11, 24, -22, -11, -9, -2, -13, 49, -21, 52, -59, 60, 62, -61, -20, -66, 46, 44, -56, -24, -19, 65, 60, -27, 57, -29, 53, 35, 65, -36, 17, 41, 4, -41, 28, -33, -32, 4, 73, -26, -24, 27, -33, -17, -19, 28, 16, -1, 8, 1, -28, -34, -11, -10, -8, -26, 26, -10, -34, 34, -4, 22, -28, -24, 9, 8, 29, -25, 5, -21, 3, -17, -1, 9, 27, 24, -16, -36, -1, -23, -30, -25, -5, 20, 13, 26, -24, -15, 8, -25, 9, 14, 22, -1, -20, 2, 22, 30, 13, -22, -14, -12, 21, -34, 3, 14, -19, -1, -27, -23, 15, 29, 24, -24, -12, 8, -3, 0, 20, 7, -19, 12, -1, 0, -12, -5, -9, 23, 4, -17, 2, -7, 8, 22, -27, 21, -9, 19, -6, 24, -32, 19, -1, 8, 4, 20, 7, -13, 29, -2, 0, -23, -7, -18, -18, -17, 30, 19, -15, 14, 6, -36, -5, -2, -8, 13, 34, 14, -8, 11, 12, -14, 0, 19, -22, -24, 18, 28, -30, 6, 9, -13, 4, -13, 2, -4, 19, 11, 20, 13, 1, 13, 18, 31, -15, 2, -6, 33, 30, 6, 34, 12, -22, -29, 3, -9, -33, 7, 18, -28, -26, -12, -1, -28, 8, -5, -23, -7, -19, 4, 7, 20, -13, -29, -10, -37, 17, 9, -26, 9, -15, -22, -23, 3, -2, -16, -28, -13, 25, -32, -31, -21, 20, -12, -15, -31, 8, -37, -23, -30, -26, 0, 29, 14, -22, -25, -14, -6, -1, 29, -13, 10, -2, 21, -8, -25, -6, -9, -11, -17, -18, 28, 19, 14, 16, -36, 16, 18, -16, -20, -11, 18, -9, -7, -31, -4, 5, -11, -25, 29, 18, 3, 14, 17, 21, 13, -10, -37, -19, -28, -21, 23, 27, 23, -12, 12, -14, 8, 20, 11, -18, 2, -31, -28, -25, 13, -3, -15, -1, -24, -17, -36, -18, 14, -17, 17, 17, -33, 30, -2, 19, -8, -22, 1, -7, -4, 6, -20, 32, -23, 17, 30, 25, 28, -10, -8, 22, 29, -43, -23, -16, -8, -37, -22, 43, -17, -34, 25, -42, 25, -35, 18, -26, -21, 29, 7, -31, 7, -20, 23, -20, 13, 13, 8, -9, 32, -21, -27, -14, 37, 26, -32, 19, -40, -23, -31, -39, -27, -42, -28, -42, 14, -34, -29, 42, -11, -12, 15, 10, -21, 0, 16, 10, 22, -6, 28, 2, -16, -22, 36, -32, -19, 21, -35, 18, -26, -9, -38, 29, -30, -24, 19, 33, 5, -24, -16, -18, -9, -8, -39, -6, 41, 33, -29, 33, 33, -16, 32, -9, 38, -18, 18, 8, 3, -47, 23, 8, 3, -24, -42, 30, -25, -34, -8, -18, -21, -10, -18, -11, -34, 0, -6, -1, -25, 19, -32, 29, 22, 21, 41, 2, 21, 26, 41, -33, 5, 26, -9, 20, -17, -20, -34, -31, 7, 32, 0, -38, -19, -14, 36, 15, 32, 18, -8, -24, 28, 30, -10, -23, 6, -14, -23, 4, -10, 21, -1, 28, -29, 22, 28, -23, -17, 28, -44, -37, -33, 28, 29, 28, -1, 3, -9, -38, 9, -19, -3, -10, 27, 15, 6, -43, -45, -39, 33, -25, 2, -30, -7, 0, -11, 15, 40, 29, -21, 18, -32, 34, -26, -15, 13, -43, 11, 38, -12, -50, 22, 7, -35, -28, 29, -4, 24, 39, -19, -6, -13, 21, 33, -7, 19, -25, -37, -9, 27, -30, 11, 48, -23, 30, 22, -26, -18, -17, -22, -23, 39, 14, 27, 15, 4, 1, -32, -40, 7, -31, 13, -32, -38, 4, 16, 25, -15, -26, -6, -30, 7, 42, -31, -28, 30, 22, 22, 36, 37, -14, -6, 15, 39, -7}

#define TENSOR_CONV1D_11_KERNEL_0_DEC_BITS {9}

#define TENSOR_CONV1D_11_BIAS_0 {-21, 5, 29, 20, 6, 19, 9, -14, -25, 1, -50, -20, -32, 77, -37, 49, -3, -28, 29, 47, 23, 6, 35, 22, -13, -25, 13, 21, 21, 37, 13, 64, 8, -60, -10, -38, 8, -67, 17, -36, 0, -10, -4, -11, 0, -14, 38, 38}

#define TENSOR_CONV1D_11_BIAS_0_DEC_BITS {6}

#define CONV1D_11_BIAS_LSHIFT {7}

