#include "nnom.h"

/* Weights, bias and Q format */
#define TENSOR_CONV1D_20_KERNEL_0 {-13, 15, -26, -27, -33, -8, -32, -2, -2, 17, 4, 9, -9, -17, -33, 17, -22, 26, 6, -27, 12, -17, 22, 27, -33, -23, -27, -4, -4, 5, -33, -16, -29, -13, -13, -26, 0, -15, -26, 15, -21, 0, -17, 2, -8, 2, -24, -22, -18, -9, 19, -24, 17, -5, -5, -21, 38, -3, 27, 25, 36, -27, 29, -12, -19, -19, 8, 35, -8, 30, 37, 3, 29, 20, 25, -23, -2, 13, -32, 25, 9, -6, -29, -20, 16, -3, 13, -6, -20, 5, -25, -1, 30, 3, -13, -2, 30, -36, -21, -6, -32, 16, -13, -22, 14, -7, -20, 10, -25, 14, -5, -61, -18, 50, -28, -10, 40, -2, 58, -50, -38, -6, 8, 46, -11, 8, 29, 69, 10, 41, -33, -64, -15, 64, -31, 26, 23, 9, 26, 12, 18, 21, 4, 26, 15, -18, -4, -4, 12, -10, 8, -18, 19, 12, -14, 19, 18, 18, -12, -5, -1, -18, -16, 4, 6, -21, -11, -14, -18, 7, -3, 12, 21, -20, -23, -18, 7, -9, -3, 12, 10, 8, 17, -15, -11, 18, 6, -22, 10, -8, 23, 6, 4, 19, 17, 2, 24, -5, 16, -14, -19, 17, -22, -21, 23, 17, -18, -19, -4, -14, 14, -10, -6, -8, 10, -9, 9, 7, -11, -2, -8, -24, 21, 12, -4, 17, -16, -15, 22, 20, 12, 11, -20, -5, -7, -6, -20, 1, 3, 6, -18, 3, -2, 19, -17, -31, -9, 0, 1, -4, -10, 26, -2, -6, 26, -20, -10, 31, -13, -20, -8, -31, 25, 4, 23, 10, 31, 18, -27, 4, -16, 25, 0, -20, -4, 16, 7, 26, -27, -3, 10, 17, -15, 31, 2, -23, 23, 20, -6, 2, 20, 2, 23, 18, 18, 33, -14, -29, 0, 13, 13, 20, -10, -22, -30, 26, 20, -15, 12, 21, -17, 25, 14, -21, -2, -31, 29, 5, -23, -30, 37, 9, -29, -19, 37, 39, 26, -17, 36, 4, -14, 20, 17, -30, 40, -12, 0, 14, 11, 11, 41, 15, -20, 26, -22, 27, 23, 29, 28, -28, 8, -27, -6, 9, 29, 25, 53, -3, 5, -34, 29, -30, 53, 6, 8, 43, -3, 32, 10, -39, 47, 0, -21, -38, 6, 0, -45, -40, 22, -22, -69, -35, -37, -77, -45, -52, 60, 47, 37, -62, -27, 7, 21, -1, 55, 41, -56, 65, 11, -48, 31, -49, 45, -12, -5, -40, 18, -46, 12, -83, 27, -35, 29, 51, -1, -88, -79, 19, -12, -35, 4, -55, -82, -85, 60, 10, 20, -73, 30, 52, 29, 42, 20, 24, -1, 36, -28, 11, -8, -5, -27, 27, 27, 34, -28, 7, -23, 9, -31, -32, 28, 25, -21, -9, 10, -6, 3, -5, 28, 79, -79, -21, 54, 49, -80, -38, 12, 74, -89, 55, 103, -45, -55, -73, -13, 16, -40, -5, 58, 19, 69, 82, 60, 21, 30, 44, 37, 1, -20, 5, -7, -1, 16, -3, -11, 10, 2, -5, 23, 20, 1, -21, -25, 9, 26, 33, -23, -34, -9, 15, 15, 8, -16, -33, 15, 16, -34, 2, 31, -36, -10, -22, 0, -45, -33, 44, -6, -37, 24, 34, 17, 44, -3, -15, -23, 31, -8, 46, 31, -1, -19, -2, -5, 7, 32, -1, 4, 5, 8, 10, 15, 15, -9, 12, 31, -18, -11, 8, 2, 11, -24, -18, -20, 2, -29, -30, 10, -5, 21, 18, 20, 21, -26, -4, 28, -6, -18, -21, -34, -1, 19, -12, -5, 5, -9, 18, 29, 7, 11, 30, 18, 17, 26, 2, -35, 39, 31, 27, 5, 31, 23, 39, 18, -55, -46, -19, 32, 11, 0, 7, 8, -4, -58, -53, 18, 15, 3, -9, -27, 39, -6, 33, 18, 30, -15, 14, 27, -4, -13, 33, 17, -30, -7, 34, 8, -24, 17, -7, 37, 24, 39, 41, -24, 38, -6, -27, -31, 14, 12, -6, 3, 19, 0, -8, 1, 14, -12, -10, 11, -9, 3, -13, -12, 17, 25, 2, 11, 14, -2, -15, 7, -16, 12, 13, -3, -19, -37, -13, -12, -7, -18, -3, -30, 30, 27, -6, 1, 33, 23, -35, 22, -7, -35, 5, 20, -9, -6, 6, 23, 39, 35, 14, -29, 8, 39, -16, -43, -34, -28, -29, -9, -41, 19, -27, -50, 2, -49, 21, 22, -26, 32, -40, -13, 34, 50, -43, -21, 29, 54, -34, -4, 26, -12, 7, -1, -31, -32, 9, 14, 32, 31, -27, -1, 15, 7, 21, -18, 30, -7, -34, -4, 2, 15, -9, -25, -5, -23, -27, -22, -19, 23, -35, -16, 17, -24, -28, -7, -11, -8, -6, -3, 17, -24, 11, -32, -25, 15, 33, 27, -14, -33, 5, -17, 9, -18, -28, -36, -58, -55, -14, -20, 31, 11, -34, -18, -36, -49, 53, 31, 14, 37, 30, -9, -16, -23, -29, -1, 26, -1, 18, -26, -6, 14, 16, 19, 23, -9, 28, 45, 2, -5, -12, 6, 42, 34, 1, 33, 10, 19, -4, -21, -9, 24, 21, 19, -8, 4, 3, -3, 12, -10, -2, -3, -10, -11, -10, -6, -16, 10, 2, -9, 16, -16, -4, 12, -15, -15, -13, 3, -13, 3, -9, -7, 10}

#define TENSOR_CONV1D_20_KERNEL_0_DEC_BITS {19}

#define TENSOR_CONV1D_20_BIAS_0 {-86, -82, -17, 5, 13, 41, -72, 3, 46, -58, -50, -66, -15, -24, -44, -60, 51, -16, 38, 36, -67, 16, -90, -9, 21, 52, -47, -81, -47, -53, -11, -107}

#define TENSOR_CONV1D_20_BIAS_0_DEC_BITS {10}

#define CONV1D_20_BIAS_LSHIFT {1}

#define CONV1D_20_OUTPUT_RSHIFT {8}

#define TENSOR_CONV1D_21_KERNEL_0 {-43, 4, 51, -5, -13, 10, -7, 10, -41, -62, 28, 21, -52, 58, 42, 52, 33, -8, -66, -1, 18, 26, -49, 5, -65, -34, -37, -59, 16, -37, -38, 37, 33, 54, -52, -41, -53, 32, -1, -49, 43, -28, -74, -13, 53, 37, 21, 69, 60, -57, 23, -23, -66, -32, -54, 77, -60, -67, -32, -45, 58, 33, 20, -1, -69, 65, 42, -56, -16, -27, 29, 35, 9, 56, 43, -66, -56, -39, -20, -3, 31, 25, -43, 3, -9, -36, -58, 46, -8, -55, 1, 24, 7, -46, 3, 2, 11, 11, 62, -53, 36, 20, -32, 12, -74, -35, 53, -31, 29, 5, 39, -23, -28, -58, 31, -63, -52, -17, 41, 79, -20, -72, 72, 45, 4, 36, -7, -40, -2, 0, -45, 36, -32, 20, -50, -4, -68, -36, 39, -59, -12, -55, 20, 55, -74, -33, -55, -74, -15, -34, 47, 12, 9, 15, 32, -2, 13, 27, -71, 15, -78, 90, 60, 85, 36, 6, 59, -36, -88, -54, 59, 60, 67, -5, -29, 52, 55, -15, 23, 2, -44, -3, -51, 38, 56, -95, -38, -39, 59, -74, 63, -10, 81, -11, -79, 80, -53, 71, 61, 47, -15, 27, -83, -2, 95, -73, -37, -69, 51, 4, -76, -30, -1, -81, -88, 88, -71, -9, -33, -42, -46, 50, -11, -24, 21, -59, 56, -50, -12, 8, -47, 74, 5, -38, 66, -6, 57, 63, 34, 62, -9, 45, 15, -75, -55, -45, -22, -11, 18, 54, -28, 28, -24, -64, 74, 60, -12, 70, 71, 10, -108, 75, -13, 86, 47, -18, -72, -41, 86, 33, -42, 43, -19, -31, -20, -87, -50, 59, -9, 90, -35, -38, 16, -16, 61, -13, -48, -88, -86, 83, 80, 70, 56, 6, -15, 54, -22, -12, -39, -60, 50, -57, 47, 54, -79, -2, -66, 22, -11, -7, -56, 53, -73, -69, -66, 32, -61, 60, -61, 6, -87, -40, -78, 55, -86, -10, -60, 66, 89, 2, -57, 82, 27, 68, -49, 49, -62, -66, 94, 75, -81, 22, -3, 87, -49, -49, 76, 24, 74, 56, 32, -5, 12, -73, -18, -5, 10, 79, -71, 29, -78, 5, -9, -22, -39, 44, -9, -35, -55, 33, 5, -74, 81, 25, 59, -59, 71, 5, 6, 49, -4, 21, 40, 41, 46, 23, -32, -63, -50, 63, -75, -85, -30, -60, 9, 82, 37, 42, 36, -82, 54, 60, -26, -64, 75, 69, 62, -62, 77, -4, -22, -13, 81, 43, 15, -42, -15, -55, 88, -3, -15, -50, -10, 56, 77, -17, -86, -66, 42, 56, 64, -35, 51, -54, 42, -38, -62, -9, -57, -8, -42, 49, -10, 71, 28, -68, 98, -80, -33, -87, -36, 67, -1, 94, 50, -3, 16, -42, -50, 10, 57, -39, 66, 34, 18, -51, -42, -27, -31, 66, 5, 88, 63, 74, 54, 16, 5, -27, 31, -49, 8, -35, 2, -31, -32, -35, 37, -16, 24, 38, -31, 39, 26, -9, -18, -42, -33, 12, 20, -46, 18, -5, 8, -29, -17, -36, -21, 28, 23, -34, -5, -37, 25, 5, 12, 20, -21, -27, 22, 10, 37, 9, 21, 48, 22, 22, -15, 37, 31, 25, 16, -10, -9, -47, 36, -35, 52, -29, 18, 1, 9, 33, -17, -16, -1, -12, 9, -2, 7, 48, -20, -24, -5, 57, -28, -6, 17, -29, 22, 38, 4, -22, -34, 9, 57, 37, 23, 23, -17, -35, 33, 42, -8, -3, -18, 45, 4, -32, -29, 15, -41, -36, 9, 17, 32, -14, 29, -20, 4, -21, -45, 26, 9, 13, -17, 2, 5, -39, 41, -30, -17, 12, -21, 33, 23, 5, -11, 10, 2, 35, 28, 9, -41, -8, 23, 3, 8, 53, -30, 34, 45, 39, -37, 5, -35, -35, -15, -19, -15, -15, 44, -8, 22, 34, 20, 48, -15, 8, 43, 14, 25, -11, 44, 38, 64, -29, -11, 5, 24, -75, -44, -17, 4, -24, 77, 27, 46, -25, 26, -29, 2, -41, -2, -33, 19, 14, 12, -56, -2, 37, 46, -48, -50, -58, -11, -21, 41, -40, 39, 10, -38, -63, -11, 39, -45, -55, 52, 17, 53, 19, 57, 1, -30, 62, 66, -15, -29, 44, -41, -28, 22, 46, 45, -54, -36, 23, -5, 49, -1, -9, -20, -31, 40, -75, -13, -35, -30, -3, 28, -36, 50, 38, 59, -1, -73, -24, 54, -13, 63, -25, 49, 32, 31, 1, -15, -57, -73, 25, -2, 55, 54, 19, -27, 12, -21, -16, 12, 49, -1, 5, -10, 11, -16, 18, -38, -41, 48, 32, -41, -28, -36, 75, 0, -60, 10, 34, 32, -68, -70, -34, -41, 15, -24, -49, 9, -42, -52, 50, -13, -43, 14, -65, -15, 49, 27, -52, -41, -40, 11, 63, -55, 6, -13, -45, 22, 43, -26, -64, 15, 18, -34, 0, -64, 51, 64, -11, -25, -41, 90, 34, -7, -73, -73, -9, -17, 85, -61, 15, -15, 24, -43, 88, -27, -50, -62, 34, -95, -51, -69, -74, 40, -61, -72, 43, -19, 64, 20, -31, -65, -78, 19, -1, 80, 11, 58, -83, 2, 25, -43, 73, -80, -68, 53, 43, 52, 84, 68, -51, 83, 50, 31, 19, 70, -77, 65, 27, -5, 96, -33, 66, 51, 0, 55, -15, 10, 43, -36, -35, 34, -61, -59, -10, 78, -75, 56, -65, 49, -18, -28, 45, -78, 39, -105, -76, -40, -55, -28, -83, 47, 81, -63, -12, -82, -16, 92, 70, -58, 29, -25, 24, 22, -9, 78, 80, 85, 15, -22, 42, 24, -28, -86, 40, -86, -8, -93, 18, 4, -58, 53, 65, -30, 59, -32, -11, -64, 65, 31, 62, 69, 58, -76, 4, 16, -26, -70, 34, 78, -81, -53, -61, 49, 17, -86, 62, -67, -70, -6, -51, -26, 19, -71, 30, -6, -111, 33, -88, -38, -59, 95, 43, 7, 76, -58, -9, -61, 72, 9, 71, 22, -58, -20, 71, 56, -83, -70, -46, 40, 16, -82, 28, -49, -5, 10, 115, -51, -15, -9, -92, -11, -57, 73, 74, -25, -99, 56, 32, 47, 113, 3, 70, -38, -14, -101, -62, 3, -2, 57, 14, 33, 65, -75, -52, -73, 38, 46, 112, -9, 72, 62, -12, -23, -53, 74, -47, 30, 16, -51, -54, 14, 56, 78, -3, -63, -20, 70, -80, 56, -21, 24, 52, -57, -35, 26, -93, 9, -50, -104, 21, -72, -8, -79, 13, -82, 7, 103, -54, 80, -35, 94, -82, 46, 1, 64, 42, 59, 29, -74, -24, 67, -84, -28, -77, -96, -92, -37, 43, -27, -17, 4, -4, 75, -19, 32, -30, -45, -89, -81, 32, 34, 27, -86, -59, 19, 42, -2, 61, 50, -108, 56, 19, -11, -4, -74, -1, 56, 5, -74, 85, -4, 43, -65, 38, 23, -24, -33, 25, -2, -59, -23, 8, -40, 98, 78, -13, -56, 77, -84, -77, -8, 42, -67, 52, 2, 16, -20, -81, -44, -53, -60, 73, -6, -13, -82, -75, -24, 32, 19, -19, -37, 63, 13, -47, -56, -15, 31, 71, -4, 34, 20, 62, 54, -52, 52, 13, 68, 30, -86, 31, 37, -1, -100, 48, -67, 0, 16, -44, -17, -20, -66, -67, 61, -43, 69, -21, -18, -30, -33, -3, -31, 22, -43, -74, -87, 36, -73, -3, 19, 8, -6, -89, -78, -77, 45, 86, -40, -63, 27, -54, 13, -17, 17, -29, 56, -4, -72, -90, 15, -69, -81, 28, 15, -68, 25, 27, 23, -41, -38, -9, -60, -44, 23, 49, -41, -28, -51, -48, 46, -1, 66, 9, 43, -40, 44, 12, 18, -38, -62, -77, 13, -7, -3, -67, 31, -48, 5, 6, -45, -55, -19, 61, 19, 7, -38, 5, -1, -15, -10, -28, -20, 16, 23, -5, 26, 18, -54, -44, 62, 2, -1, 5, 6, 56, -48, 48, -40, 29, -58, -43, 32, -51, -38, 49, 1, -61, 43, -15, 42, 34, 59, -28, 27, 7, -11, 70, 69, -18, 38, -59, 74, -18, 6, -57, 13, 45, -15, 66, -53, 62, -14, -31, 68, 8, 49, 49, -57, 27, -45, -55, 10, 79, -56, 27, -22, 49, 30, 75, 61, -29, 29, 5, -33, -8, 43, 58, -60, 20, 45, -6, -24, 49, 65, -71, 19, -27, -46, -8, 17, -20, -18, -32, -37, -15, -55, -64, 19, 33, 48, -46, 10, -13, -12, -50, 15, 43, -19, -65, 10, 39, -14, -23, -48, 36, -20, 42, 76, -17, -29, 14, -27, -76, 8, 27, 54, -12, -10, -4, 10, 67, -70, -65, -78, -40, 9, -17, 32, 3, 13, 15, -12, 26, 68, 58, -57, -51, 57, -54, 77, 93, 10, 64, -52, 45, 30, -40, -60, -13, -56, -16, 66, 9, -23, -3, 17, 51, -16, 36, 31, -30, -48, 13, -38, 63, -13, -16, 31, 29, -65, -19, -30, -73, 61, 18, -32, 47, -31, 24, -38, 39, 25, -40, 31, -35, -26, 35, -30, -45, 13, 19, 20, -67, -5, 59, -30, 38, -11, -26, 33, -10, 6, -33, -9, 11, 31, 42, -47, 56, -64, 29, 19, -19, 60, -17, -25, -53, -29, -36, 58, 28, -3, -4, 22, -14, 8, 44, 0, 17, 39, 45, 59, 32, 27, 36, -37, -51, -23, -30, -43, -57, -4, -40, -4, 38, 16, 7, 53, 38, -26, 6, -25, 22, -56, 34, 40, -53, 14, -18, -12, 52, -46, 54, 19, 50, -2, -42, -67, -53, 40, -41, -22, 17, 45, 22, 46, -6, 41, -1, 5, 56, 11, 4, 14, 11, 29, 13, 38, 19, 21, -50, -6, 25, 40, 1, 28, 7, 5, 17, -54, 34, -50, -39, -15, 30, -41, -64, -29, -50, 28, -47, 62, 43, -26, -12, 20, 27, -12, -24, 37, -40, -79, -7, 63, 45, -20, -8, 32, 48, -64, -22, -76, -23, 65, 12, -18, 79, 43, 8, 26, 27, 41, -43, -43, -5, 15, 49, 3, -29, -15, -12, 19, -57, -63, 43, -43, 12, 58, 5, -34, -46, -25, -18, -25, -1, 32, 49, -12, -4, 35, -34, -43, 20, 12, -21, -53, 4, 42, 22, -52, -61, 11, 48, 54, -20, 51, 13, -48, -55, -38, 57, 7, -12, -24, -54, 32, 51, 32, -38, -46, 34, -7, 8, 67, 6, 73, -41, 52, 26, 27, -16, 16, -64, 67, 51, 53, 7, 37, -19, 9, -30, -5, 15, -2, 38, -49, -19, -33, 19, 4, 42, -15, -15, -35, -50, 28, 49, 29, -63, 7, 45, -38, 25, 52, -1, 8, -36, -36, 5, -11, -17, 7, 12, 67, -55, -3, -32, -49, -30, -58, -29, 40, 30, 36, 13, -35, 8, 41, 0, -7, -54, 9, -48, -31, -38, 54, -11, 40, -3, -53, -48, 20, 2, -56, -21, 47, -14, -49, -71, 10, -35, -9, -65, 9, -48, 1, 23, 36, 13, 55, -28, 4, -31, 47, -19, 31, -19, 55, -38, -75, 39, 24, 54, -17, 40, 12, -41, 34, 31, 46, -41, 48, 34, 55, -20, -6, 40, -55, 53, -62, 41, -16, 38, 5, 32, 25, 21, -32, -53, 35, 57, -7, -42, -37, 35, 45, 53, 39, 64, 62, 48, 6, -48, 41, -72, -31, 50, -29, -18, 6, 10, 9, -25, -56, -43, 40, -72, 29, 30, -34, -39, 20, -1, -60, -50, 2, 34, -8, -2, 8, -22, -11, -39, 35, -12, -51, 22, -71, -20, 2, -5, 21, 25, 18, -27, -41, 46, 26, 54, -2, -46, -48, -8, 32, -12, -63, -59, -10, -31, 8, -59, -19, 65, 63, 26, -28, -24, -25, 55, -42, 32, 14, -9, 9, 4, 15, 31, -37, -56, -78, 46, 26, 8, -4, -72, -70, -84, 78, -102, -6, -73, 14, -111, 99, -46, -94, 18, 89, 40, -80, 2, -28, 127, 78, 52, -46, -114, 92, -72, -7, -84, -59, -14, 70, 17, 11, -79, -64, -108, -71, 80, 59, 89, 45, -105, -61, 7, 2, 86, 19, -100, 50, 39, 12, 50, -13, 6, 93, 85, 71, -76, 31, 10, 49, 76, 92, -7, -54, 96, 30, -50, 87, 47, -48, 98, 79, 34, -108, 93, -16, 41, 29, -32, -49, -50, -35, 107, 78, 118, 38, 83, 23, -41, -33, -55, -52, 82, 78, -97, 118, -21, 7, -43, 6, 76, -30, -89, -95, -9, -83, 60, 103, -90, 70, -67, -84, -66, -50, -103, -15, 7, -28, -73, -79, 78, 24, 48, -85, -9, -40, 65, 125, 8, 43, 104, 42, 40, -9, -68, 38, 111, 3, -70, 15, -72, -23, 66, 57, -62, -36, -63, 41, -4, -83, -62, 104, -115, -81, 55, -92, -16, -125, 127, -48, -34, 0, -34, 7, 59, -51, 34, 7, -10, -3, 47, -40, -10, 23, -8, 45, 6, 30, -9, -30, -21, -61, -26, -36, -15, 3, -7, 12, -48, -34, -27, 0, 49, 2, 47, -57, 21, 28, -21, -37, -2, -37, 45, -21, -15, -25, -33, -9, 26, 29, 44, -57, -36, 17, 55, -17, 3, 1, -7, -27, 37, 73, 13, 19, 31, -31, -21, -48, -4, 13, 13, 42, -47, -39, 24, -45, -7, -16, 34, 29, 34, -51, 22, 28, 37, 31, -10, -27, 30, 33, 23, -46, -26, -16, -39, 6, 51, -32, -50, -40, 33, 17, -32, 27, -22, -9, 4, -18, -28, 14, 41, 49, 38, 28, 42, -58, -2, 44, -34, -45, 7, 40, -56, 14, 0, 10, -45, -22, 2, 27, -12, -5, 19, -21, 49, 44, -44, -13, -38, -4, 28, 30, 12, -3, 11, -22, -45, -48, -11, 18, 40, 37, -27, 18, 32, -18, -45, -7, -58, -48, -37, -54, -60, -46, 5, -52, 37, -48, 57, 1, 14, -8, 6, 4, -31, -11, 10, 2, -75, 39, -38, 44, 65, -40, -49, 16, 36, -43, 60, -49, -33, -42, 1, 0, 42, -38, -8, 32, -50, -39, -43, -37, -4, 6, -6, -20, -48, 34, 37, 40, 1, 10, -12, 9, -57, 55, -42, -72, 30, -66, -31, 18, -45, -49, -71, 38, 36, 7, 2, 11, 3, -54, 13, 15, 19, 7, -20, -40, 29, 29, -10, 24, 40, -21, 13, -29, -27, -18, 33, -5, -11, -14, 8, -58, 36, -28, -27, 1, -18, 27, -40, -42, -21, -78, -10, 0, 19, 24, -8, 26, 7, -13, 12, 56, -45, -20, -29, -5, 56, -74, 15, 11, 33, 8, -13, 19, -60, 19, -29, 12, -42, -52, 36, -20, -61, -74, 64, -57, -14, 67, 53, 0, -45, 15, -56, -24, 63, -49, 24, 48, 4, -41, 64, -6, -56, 28, -27, 54, -3, -28, -45, -39, 42, -42, -3, 52, 29, 29, 7, -56, -51, -48, 30, -5, 64, 21, -29, 16, -8, -43, 35, 34, -16, 53, 35, 2, -48, 55, 9, -61, -54, 45, 53, -41, -61, -12, 42, -17, 13, 47, 29, 33, 10, -41, -48, -17, 52, 18, -37, 26, -32, 46, -44, 27, -21, -59, -2, 21, -4, 29, -15, -55, 45, 7, 19, -16, 29, 10, 31, -44, 27, 28, -55, 28, -15, -31, 6, 50, 11, -29, 33, -23, 36, 39, -38, -29, 10, 48, 20, 61, -58, -49, 39, -51, -22, -10, 35, 33, 27, 52, -62, 34, -20, -48, -27, 60, -23, 65, -45, 18, 11, -19, -34, -1, -71, 38, 38, -23, -42, -54, 38, 29, 45, 51, 49, 52, -31, 4, 15, -25, 7, -45, 20, -25, -73, -32, -30, 50, 3, 21, -23, -34, 13, -51, -49, -17, 31, 48, 54, -1, 37, -32, 11, 28, -56, -8, -20, 19, 1, -74, -68, -1, 31, 38, -10, 20, 85, 17, 61, 73, -69, -32, -63, -38, -22, 45, -8, 30, 66, 59, 29, 19, -52, 34, -24, 35, 20, 17, 23, 50, -51, -6, -50, -33, 56, 45, 11, 18, 26, -53, -43, 64, 50, -56, 30, 10, -17, 77, 6, 78, -47, 42, -14, 54, 79, 69, 78, -12, 44, 6, 62, 25, 59, 65, 45, 34, 32, 70, 58, -23, -51, 34, 32, 74, -28, 6, 42, 42, -64, 27, -62, 36, -69, -43, -22, -37, 71, -63, 7, -59, -60, -50, -61, -52, 3, -19, 8, 9, -14, -47, 31, 53, -23, -63, -34, 56, -33, 5, 66, -65, 60, 83, 12, 8, -39, -61, 3, -43, -29, 79, 64, -85, -40, 46, -8, 18, -11, 39, 10, -17, -31, 45, 1, 32, 30, 24, -13, 43, 59, -63, 42, -73, -49, -2, -67, -28, 28, -48, -14, -65, -14, -75, 22, -56, 65, -80, 40, -62, -53, 42, 83, 50, 76, -26, -12, -12, 30, -67, -49, 50, -49, 56, -83, 78, -18, 65, -64, -57, 45, -73, 44, 63, -64, 37, -41, 19, -35, 80, 70, 57, 15, -74, 76, -18, 71, 83, -44, -45, 78, 44, -16, -17, -29, 72, -44, 32, -8, 23, -19, -41, -37, 29, 56, -1, 43, 23, 86, 12, 51, 49, -58, -43, 33, -53, -46, -72, -69, -69, 64, -7, -13, -39, -29, -10, 12, 30, -72, -58, -7, 80, -23, 28, 37, -34, 27, 58, 48, -65, -36, -10, 39, -30, -11, 2, -21, -11, -70, -78, 59, -2, 45, -2, 29, -42, -52, 37, -27, -59, 57, -54, -52, -71, -42, 7, 5, -72, -22, -11, -58, 14, -20, -48, 49, -8, -33, -33, -47, -63, -51, -25, 12, -72, -57, 12, -82, -66, 66, 59, 63, -68, 16, -7, -16, 22, -56, -5, 13, -7, -94, 55, 37, -27, -7, -18, -31, 35, 47, -87, -56, 43, 15, 1, -3, 36, -25, 46, 16, 52, -23, -11, 46, -6, 42, -3, -8, 51, -34, 8, -35, -3, 57, 15, 10, 1, 29, -12, 39, -53, 40, 9, -47, -38, -3, -27, 29, 45, -36, -36, -8, 30, -41, 40, 7, -4, -5, 32, -37, 9, 53, 60, -37, 0, 60, -13, -31, 43, 38, -19, -33, -3, 0, -14, 8, -13, -26, 14, 8, 29, -31, 43, 0, 13, -50, -48, 11, -26, 26, -44, 44, 19, -3, -41, 47, 2, 3, 0, 5, -16, 30, 45, 16, 29, 43, -31, -41, -39, 34, -36, -44, 23, -3, 29, 0, 26, -19, 2, -2, -2, 13, -23, -21, 43, -8, 45, -29, -42, 45, -46, 5, 16, 34, -41, -55, -37, 9, -22, -36, 21, 8, 29, -5, 17, 44, 5, 3, 28, 44, -9, -32, 20, -38, -41, -39, 40, 10, 56, -19, 10, -33, 21, -23, 22, -28, 37, 25, -8, -63, -37, -46, -57, 49, -68, 24, 90, 14, -56, 18, -39, 28, -68, 8, 32, 39, 25, 51, 78, -31, 47, 80, -52, 46, -53, -60, -49, 40, -56, -31, 36, -36, -23, 64, -68, -12, -61, -22, 27, 22, 2, -21, -16, 51, 30, -69, 24, -76, 54, -22, -65, -33, 66, -29, 13, -90, 67, -76, 34, -39, 15, 0, -46, -66, -10, 19, 46, 64, 27, 64, -7, 41, -45, -54, -55, -27, -26, -30, -27, 36, 34, -68, 18, -60, -22, -62, -43, 1, 42, 55, 4, -72, 24, 24, -16, -49, -18, -10, 32, -25, -61, -33, -34, -43, -63, -81, 30, -8, -8, -21, 63, -19, -4, -53, 24, 11, -31, 40, -7, -70, -20, -6, 7, -62, -11, 68, 20, -39, -24, -7, -7, 0, -34, 66, 12, -15, 71, -43, -56, -31, -21, 27, 11, 46, 43, -17, -39, -32, -14, 53, -43, 59, -59, -24, -59, -8, 42, 9, -20, -68, -6, -47, 50, 31, 19, 4, 13, 60, -34, -27, 35, -42, -31, -44, -3, 45, 24, -24, 9, 9, -5, -12, -10, 22, -44, -26, 58, 51, -16, -27, -30, 15, 28, -1, -20, 12, -40, -48, 6, -4, 26, 19, 24, -19, 53, 12, -3, -33, 44, 48, 27, 16, 4, 18, 13, 47, 21, -14, 14, -42, 12, 0, 24, 50, 12, -29, -49, -17, 34, -20, -15, -38, -21, 35, 37, 10, 6, -48, 57, 8, 25, -37, 5, -8, 63, -21, -35, -15, -8, -14, -27, 26, 5, 15, 3, -40, -30, -46, 0, 6, -4, 18, -30, 5, 2, 22, 9, 2, 39, 31, 17, -8, 0, -9, -29, -37, 2, 66, 25, -36, -15, 16, 3, -16, 32, -30, 46, -5, -20, 0, 40, 50, 10, -9, 40, 3, -43, -11, -10, -23, -34, -33, -28, -22, 7, -16, 22, -21, -26, -23, -60, 24, -37, 50, -7, -16, 25, -5, 18, 4, -36, -18, 39, -56, -31, 7, -65, -14, -72, 47, 78, -11, -50, -96, 9, 79, 47, -55, -35, -86, 12, 40, -80, -99, 21, -78, 39, 59, -22, 89, 47, 53, -50, -82, -89, -76, 69, 34, -8, -7, -15, 33, -77, -85, -22, 51, 67, -1, 39, 65, 18, 68, 23, -70, -58, 55, 75, 101, 51, -45, 46, -14, -28, -100, 23, 29, 90, -82, 25, -37, 34, -15, -52, 83, 47, 75, 87, -54, 100, -27, 7, 82, 42, 40, -50, -8, -97, 118, 42, -94, 57, -44, -63, 32, 47, -97, -11, 7, 26, 34, 9, -3, 36, 77, -30, -69, 30, 45, -27, 38, -7, -107, -23, -42, 46, 109, -59, -95, -102, -16, -100, -60, -16, -26, 36, 14, 93, -82, 19, -31, 21, -31, 55, 34, 69, 63, -47, 86, 3, -63, 59, 51, 94, -89, 100, -48, 54, -44, 73, -83, -5, 67, 81, 33, -36, -47, -69, 47, 93, 18, 58, 43, -11, 1, -59, 22, 41, -50, 25, -26, -86, 50, -2, -77, 0, -4, -1, 68, 39, 61, 7, -49, -32, 0, 0, -45, 29, 0, -26, -78, -15, -5, -76, 65, 29, -35, -64, -50, 33, -15, 0, 23, -52, -71, -8, 41, 30, -76, -59, 55, -38, -52, 32, -41, -25, -66, -1, -71, 50, -74, -12, -11, 57, -38, -34, 70, -46, 38, -65, -44, -59, -79, 25, -42, 1, -34, 56, -8, -35, -63, 74, -39, -14, -34, 3, -34, 19, -34, 37, -23, -9, 32, -49, -25, -29, -45, 54, 18, 19, -63, 66, -67, 30, -19, 69, -55, -6, 55, -2, -68, 19, -43, -73, 42, 14, -58, 18, 66, 41, 57, 13, 56, -67, 61, -68, -43, 29, 8, -42, -71, -53, 13, 6, -19, 28, -23, -58, 5, -79, -38, 18, -25, -33, 63, 48, 41, -20, -6, 59, -36, -1, -32, -47, 42, -32, 28, 49, 16, 9, -58, 8, -30, -45, 74, 25, -69, -66, -35, -28, 51, 19, -44, 65, -3, -70, -73, -52, -19, 13, 42, -63, -5, -9, -6, 42, 58, 12, -52, -59, 58, 46, 2, 2, 50, -55, 34, -42, -52, -13, 13, -74, 43, -20, -44, 64, 58, 77, -42, 62, 35, -32, 75, 16, -67, 46, -14, 38, 59, 12, 69, 53, 50, -61, 26, 26, 26, -38, 12, -23, -54, -70, -57, -2, -77, -8, 69, 11, -71, 3, -21, 15, 70, -75, 40, -30, -93, -36, -66, 16, -18, 37, -20, -46, 56, 1, -69, 43, -35, 11, 13, 70, 45, -85, 47, 17, 47, 20, -10, 23, -35, 69, -6, 28, 41, -25, -2, -38, -87, -32, -20, 47, -20, 61, 12, -21, -39, -10, 31, 55, -35, -17, 55, 9, 52, -81, -46, 36, 32, -13, 54, -58, -31, -35, -14, -64, -27, -77, 31, 27, -48, 40, 2, 79, 51, 23, -50, 46, 64, 47, -44, -29, -20, 58, 47, -68, 27, -33, 74, 48, 49, -16, 56, -6, -36, 53, 51, 22, -48, 65, -41, 32, 64, 14, 47, -33, 10, 15, 35, -54, -34, -4, 13, -33, 46, 3, -10, -62, 19, -23, 32, 26, 49, 33, -29, -57, -5, -55, 12, 1, 60, -1, -13, -21, 48, -8, 56, -41, 57, 0, 17, -57, -14, 6, -7, -26, -23, 52, -40, -22, 55, 18, -34, -5, -46, 53, 22, 56, -7, 36, 3, 45, 60, 62, -37, -52, 28, -23, -21, 34, 58, 45, 61, -34, -52, -52, 17, 27, -41, -27, 27, 28, -49, -38, 13, 9, 64, 8, -39, -63, -62, -52, 7, 39, -5, 30, 61, 12, -5, 21, -27, 52, -38, 47, -6, 24, 3, -16, 36, -7, 12, 51, -8, 28, -44, -5, -7, -20, -26, -13, 4, -4, -14, -18, -64, 12, -7, -50, -17, 22, -53, -66, 28, -27, 42, -3, 12, -32, 9, -28, 16, 46, -52, 34, -6, 45, 52, -19, 35, -38, -36, -34, -9, -2, 30, -17, -17, -52, 49, -64, 52, -47, 19, -14, -8, 19, 5, 41, 31, -16, -60, -62, 28, -24, 42, -33, 44, -39, 52, -28, -63, -54, 23, 59, -7, -18, 52, 11, 52, 78, 5, -25, 0, 47, 75, 43, -63, -40, 43, 21, 59, 68, -17, -25, 71, -24, -45, 64, 53, -49, -51, 19, 61, 44, -53, -16, 69, 69, 0, 41, -61, -27, -34, -32, -39, -50, -24, -11, 47, -58, -4, 23, 60, -28, 61, -21, -56, -48, 47, -41, 16, -53, -42, 23, 61, -27, 51, 40, 54, 18, 68, -66, 78, 53, 36, -63, 18, 67, 77, 36, 55, -2, 19, 49, 43, -60, 48, -51, -16, -55, 7, -61, -4, -22, -29, 57, 30, -42, 59, 23, 32, -15, -24, 62, 18, 1, 54, 6, 17, 33, 70, -15, 10, -15, -52, -23, 9, 58, 17, -68, -67, -35, -44, -13, 20, 15, -17, -55, -59, 16, 56, -11, -17, -1, 72, -9, 71, -23, 24, -30, -46, -68, -19, -57, -4, -77, 31, -13, 2, 81, 52, 36, 82, 19, 30, 71, 85, -6, 45, -52, 29, 67, 12, 14, 44, -59, 44, -11, -1, 4, 62, 19, 54, -61, -70, -48, -23, -11, 3, -21, 52, 3, -69, 62, -70, -3, 73, 65, -50, 4, -53, 29, 12, -16, -44, -104, 2, -73, -55, 27, -37, 80, -55, -57, 25, -49, -73, -82, -22, 16, 25, -14, -67, 7, -71, 4, -17, -44, -40, -48, 7, 35, 37, 16, 32, 23, -23, 20, 82, -28, -49, -52, -23, 57, -89, -80, -35, 47, 43, 36, -71, -56, -13, 2, -91, 77, -44, 55, -8, 60, 48, 26, 19, 56, -2, 33, -13, -54, 17, -41, -59, 51, 49, 2, -13, 2, -28, 22, -60, -64, -17, -76, -15, -82, 41, 44, 7, -32, -77, -1, 66, -20, 26, -26, 34, 22, 4, 11, 5, -58, -8, 0, 45, 2, 19, -8, 7, 9, -66, 28, 57, 26, -15, -48, 13, -42, -21, -52, 33, -70, 4, 11, 34, -72, 16, 22, -71, -16, 33, -58, 18, -4, -47, 28, 5, -38, -33, 26, -63, -37, 17, -51, -38, 52, -64, -55, 10, -41, -30, -17, 16, -17, -9, -36, 19, -63, -22, 10, 46, 49, 30, 11, -41, 7, -16, 34, -23, 27, -27, -40, 5, -12, -76, 43, -57, -46, -35, 10, 36, -20, -39, 31, -15, -60, 49, 34, 15, -68, 24, -58, -64, -59, 18, -10, -16, -49, -64, 1, 2, -60, 1, 54, -35, 14, -58, -75, 7, 42, -65, -44, 48, -6, -18, -26, 38, -12, 39, 6, 38, -48, -8, 43, 3, -37, -10, 41, -36, -8, -64, 7, -1, 27, -45, -65, -12, 36, 38, 28, -44, -44, 39, 20, -57, -20, 48, -24, -4, -38, 24, -37, -41, 9, -40, -42, 9, -55, 41, -28, 40, 50, -14, -56, 27, -48, -33, -29, -35, -46, 0, 11, -51, -40, 4, 26, -57, -3, -3, -7, -44, -45, -18, -74, -21, -52, -47, -22, 13, 17, 27, -54, -44, -34, -33, 34, 1, 55, 49, 11, 4, -72, 4, -4, -6, -59, -32, 52, 6, 34, 17, 22, 6, -14, -15, -5, 6, 17, 25, -32, 43, 36, -44, 40, -48, -44, -59, 38, -45, -48, 31, -56, 49, -18, -18, 21, 17, -29, -49, -34, 17, 9, -44, -40, 48, 28, 42, 8, 56, 34, 54, 18, -12, -14, 22, 64, -34, 32, 26, -54, 44, 25, -35, 55, -16, -7, -22, -58, 3, -7, 47, 37, 27, 6, -49, -23, -41, -16, -13, -3, -40, -7, -13, 4, -16, -35, 38, -53, -34, -52, -35, -51, 6, 27, -40, -27, -58, 18, -19, 31, -48, -31, 29, 47, 29, -25, 10, -5, -63, -33, -10, 3, 31, -8, 22, -10, 8, -11, 46, -65, -20, -36, 37, -12, 7, -54, -27, 48, 21, -40, -36, -48, -16, 45, 5, 22, -50, 20, 17, 40, 8, -3, -25, 6, -4, 4, 13, -60, 3, -29, 41, -25, 9, 36, 44, 38, 42, 16, 12, -51, 47, -29, 15, -31, -50, -9, -48, -12, -55, -23, -8, -61, 32, 14, 8, 2, 12, 47, -5, 35, -59, 1, 54, -27, -4, 0, -48, -58, -42, -45, 59, -10, -12, -16, -27, 44, 6, 29, -51, -46, -27, 25, 2, -39, 16, -48, 30, -13, 10, 8, -58, -41, -25, 16, 40, 48, 19, 23, -28, -15, -33, -30, 39, -22, 7, -22, 13, 25, 49, -61, 29, 38, -54, 46, 37, -57, -32, 22, -46, 28, -46, 9, 32, 27, -53, -28, -23, -40, -30, 17, 27, -27, -30, 2, 40, -25, 28, -45, -20, -2, 4, 7, 29, 1, -47, -16, 18, -15, -14, -51, -14, -45, 49, -7, -44, 27, -2, 45, 29, -6, -40, 14, -43, 64, 34, 56, -33, 18, 55, 15, -57, 20, 43, 39, -41, 51, 58, 8, 4, 18, 36, 12, -17, 15, -44, -54, -40, -44, 4, 50, 3, 33, -15, 45, 32, 29, 54, 32, 26, -34, 38, -20, 58, -49, 32, 23, -32, -12, 28, 16, 26, 18, 46, 14, 7, 37, -40, -18, 50, 43, -33, 3, 5, 40, 44, -48, -44, 47, -15, -53, 50, 8, 62, 14, -1, 33, 35, 23, -37, 61, 2, 4, 28, -18, 35, 38, -38, -32, 45, -16, 27, 41, 54, -29, 0, 22, -24, -4, 57, 66, 50, -52, 0, -14, 10, 55, -18, -34, 19, 56, -47, -8, 63, 60, 42, -31, 32, 1, -50, -6, -52, -52, -3, -22, 57, 18, 17, 26, 17, 37, -35, 0, 29, 57, 65, 15, 12, -47, 2, -49, 6, 60, 10, -36, 42, -39, 27, -24, 59, 36, -11, -40, 32, -25, 6, -54, 23, -33, 43, 33, -38, 12, 22, 33, 37, -36, 0, 35, 54, 16, 23, -56, 33, -4, 19, 13, -56, -5, 39, 31, -26, -47, -31, 48, 7, -32, -43, -33, -21, -22, 36, 55, 32, 21, 29, 41, -40, 1, -61, 17, 1, -1, -22, -25, 14, -4, 27, 23, -56, -29, 44, 3, 9, 35, -5, 29, -67, 21, -42, -34, 3, 72, -39, 41, 18, -21, 6, -64, 19, 18, 0, 52, 12, -46, -40, -41, 6, -66, 0, 28, -15, 47, -13, -61, -38, -53, 57, -27, -18, 58, -36, -6, 29, -11, -43, 29, 54, 7, -10, 42, 15, -33, 58, -3, 27, -4, -14, -17, 5, 19, -28, 50, 44, -29, 23, -58, -1, -50, 38, 53, 44, 48, -13, -39, -6, 79, 23, 16, -39, 35, -56, -51, -28, 82, -50, 20, -16, 56, 0, -39, -23, -35, -45, 33, -18, 43, -18, 34, -45, -13, 37, -45, 17, 51, -23}

#define TENSOR_CONV1D_21_KERNEL_0_DEC_BITS {9}

#define TENSOR_CONV1D_21_BIAS_0 {48, 9, -25, -22, 12, 18, 30, 69, -23, -9, -3, -1, -5, 20, 54, -6, -32, 37, -14, 54, 3, -33, 75, 14, -18, -41, 40, 76, 43, 39, -76, -5}

#define TENSOR_CONV1D_21_BIAS_0_DEC_BITS {6}

#define CONV1D_21_BIAS_LSHIFT {6}

#define CONV1D_21_OUTPUT_RSHIFT {9}

#define TENSOR_CONV1D_22_KERNEL_0 {30, -40, -17, -29, 44, 32, -17, 31, -26, 10, 24, -26, 15, 4, -33, 27, 8, 25, 11, 9, -8, 11, 32, 14, 5, -3, 0, 40, 40, -32, -16, -16, 33, 10, 5, -23, -3, 20, 22, -22, 10, -40, 3, -24, -17, -30, -6, 24, 18, 23, 13, 25, -27, 14, -39, 6, -22, 33, -9, -35, 2, 30, -14, -10, 6, -35, 8, -33, -26, -31, -18, -27, 34, -24, -23, 31, -37, 2, 1, -21, -26, -22, -27, 20, -25, -18, 36, -14, 29, -21, 0, 6, -35, -25, 7, -40, 7, -1, -12, -6, -10, 6, -29, -18, 15, -39, 1, 27, -27, 43, -23, 20, -5, -16, -31, -20, -27, -42, 18, 28, -11, -8, -5, -33, -26, 42, 46, 0, -29, 2, -17, 40, 25, -28, 48, 3, -7, 26, 8, 16, -33, -14, -45, -28, -48, 37, -4, 30, -14, -11, -9, 41, -29, 11, -44, 15, 18, 36, 44, -32, -11, 37, 5, -8, 8, 37, -32, -25, -42, 42, -8, -18, 35, 5, 20, -40, -10, -11, 3, 1, 13, 34, 8, -11, -24, 24, 18, -22, 8, -1, 57, 7, 38, -30, 13, 3, 41, -39, 8, 27, -12, 11, -20, -16, -1, 38, 25, -35, -2, 15, -38, -20, -28, 35, -50, -18, -4, 0, 7, 41, -22, 32, -26, 9, -27, 9, -38, -48, -7, -35, 10, -24, -46, -33, -31, 14, -14, -23, -40, -12, -41, 19, -32, 26, -29, -35, 32, 27, -19, -7, -29, 37, -32, -43, 42, 13, -25, -40, 2, -36, -9, 2, 33, -16, 39, 18, -11, -29, 20, -22, 32, -29, -21, 42, 6, 43, -45, 47, 9, -18, -27, -26, -35, 17, -19, 14, -40, 9, 37, 39, -51, -30, 30, 42, -51, -6, 44, -3, -28, -18, 32, 1, 66, 5, 25, -44, 18, 50, 0, -25, 35, 0, -15, 18, -14, 27, 57, 56, -19, -17, -45, 40, 54, -10, 3, -45, -39, 19, -4, -21, 13, -21, -51, 54, -51, -33, 3, 8, 14, 5, 14, 5, 57, 25, -51, -36, 2, -28, 27, -4, 58, 30, 25, 17, -31, -42, 46, -53, -53, -37, -39, -15, 28, -45, -50, 12, -15, 34, -36, 1, -52, 54, -31, -57, 1, 5, 49, -9, 32, 35, 56, 34, -45, 37, 12, -6, -15, -34, 30, -14, 32, 16, -26, 39, 37, 38, -8, 27, -34, -13, -32, 18, 20, 20, 39, -36, 0, -30, 1, -35, -15, 43, -35, 30, 35, -3, 28, -11, -28, -23, -1, 22, -4, -21, -21, 20, 29, 4, -37, 23, 27, -30, -29, 20, 33, -10, -32, -9, 13, 8, -39, 0, 8, 9, 9, 38, 12, 11, 36, 0, 33, -13, -15, -22, 10, 7, 28, -30, 20, -36, 21, -4, -34, 25, -16, 14, 16, -5, 20, -6, -16, 3, 36, 36, -39, -31, 32, 28, -3, 16, 39, 18, -3, 41, -18, -42, -42, 11, -6, -9, -45, -33, 28, -38, 7, -27, -43, -15, 36, -48, -17, 5, -15, -2, 5, -11, -5, -21, 25, -12, -28, 37, -19, -22, -22, -43, -51, -4, -33, 26, 39, -13, 14, 6, -18, 6, -12, -4, 26, 38, 27, -30, -9, 17, -45, -29, -7, 19, 2, 27, -43, -3, -34, 18, -13, -11, -9, 26, -2, -7, -7, -46, -31, 18, 7, 13, 9, -19, -14, 11, 34, -29, -1, -43, 34, 34, 39, -35, 1, 29, -25, -33, 13, 6, -40, 27, -5, 57, -47, -24, 24, -54, -33, -32, -9, -11, 43, 16, 46, 60, -57, -2, -60, -43, -50, -21, 1, 64, -35, 4, 68, 15, -36, -46, -2, 5, 9, -35, -65, 22, -21, 53, -66, -69, -19, 48, 52, 22, -33, 51, 26, -47, 65, 58, 11, 11, 19, 46, -26, 67, -33, -21, -42, 21, -18, 49, 64, -36, -30, -46, 11, -14, 39, -56, 36, 44, -52, 38, 7, 43, -35, -48, -10, 22, -38, -48, -52, 22, -33, 35, 23, 52, -68, -35, -37, -60, -60, -26, 48, 57, -26, 15, -28, 0, -38, -33, -19, -19, -34, 0, -31, -37, -9, -39, 31, -22, -27, -11, -4, 19, 9, -26, -8, -25, 0, -4, -3, -21, 3, -19, -34, -17, 20, 11, 35, -13, 9, 20, -19, 4, -1, 34, -3, 22, 20, 12, 9, -5, 12, -23, -33, 20, -8, -29, -12, 22, -10, -8, -1, -16, -22, -35, 4, 21, 22, -9, -17, -11, -32, -26, -7, -30, -12, -15, -28, 22, -18, 22, -34, -24, -17, -23, -35, -20, 6, -1, 3, 5, 3, 20, -27, -18, 36, 1, 11, 16, 20, -28, -12, 34, 12, -29, 50, 24, 41, -44, -54, 49, 19, 49, 12, 47, 28, -47, 41, 38, -26, 9, 32, -43, 23, 21, 38, 17, -17, 9, 25, -51, 54, -41, 26, -24, 8, 48, -37, -25, -16, -2, -1, -44, -16, -30, 40, -24, 5, 24, 36, 18, -31, -6, -54, -10, 33, -8, -8, -50, 38, 16, -14, -5, -7, 41, -45, 9, 7, -45, 20, -24, -48, -46, 43, -39, -11, -51, 49, -40, 41, 21, 23, -9, 50, 22, 41, 26, -44, -56, -35, 30, 5, -13, -15, 39, 44, -1, 20, 26, -26, -17, -18, -23, 5, 0, 18, 25, -17, -32, 17, 20, -24, 18, 33, -13, 34, -16, -2, -26, -2, 35, 5, -7, 5, -22, -2, 19, -34, 8, 24, -18, 32, 29, -12, -19, 20, 19, -25, 6, 36, 30, -33, -4, 27, -23, 4, 28, 8, -8, 19, -31, -31, -7, -19, 18, -29, -7, 3, 26, 33, 38, 10, 27, 4, -14, 12, 35, 2, 28, -1, -31, 19, 27, -15, 28, 20, 25, -28, -28, 15, -3, -14, 31, 25, 24, -9, -27, 13, -23, 25, 36, 15, 13, -56, -27, 41, -52, 0, 61, -33, -31, 38, -23, -69, 51, -29, -62, 53, -24, -29, 49, 55, -6, -13, -50, -14, 43, -6, 54, 3, -28, 57, -18, -46, -24, -3, -38, 32, 45, -56, 48, 24, 3, -30, 35, 34, 65, -50, -56, -72, 33, -56, -33, 14, -46, 54, 13, 53, -7, 57, 44, 20, -34, -31, 1, 28, -53, 27, 20, 39, 34, 23, 11, 28, -25, -26, 55, 32, -36, 17, -9, -52, -53, 30, 27, -45, -31, -6, -49, 17, -28, 27, 54, -25, 4, -16, 11, -43, -29, -5, 47, 2, -5, -21, -16, -30, -44, -36, 12, 18, 43, 37, -36, 47, 26, 46, 46, -25, 5, 23, -46, 3, -2, -48, 0, 38, -19, -21, -21, 4, 31, -15, 26, -22, 29, 28, -7, 22, -51, -42, -26, 40, 2, 7, 20, -29, 43, -41, 43, 28, -10, 30, -31, 37, -49, -29, -28, 34, -2, 4, -39, 42, -48, 52, -39, 3, -49, 32, 17, -23, 34, 22, 34, -38, -44, 35, 8, 37, 8, 42, 40, -36, -7, -37, -36, -25, -40, 34, 40, 3, -23, 40, -51, -41, -58, -63, 16, -19, -31, 28, -44, -13, 51, -51, -36, -13, 35, -2, -18, -56, -36, 52, 31, 38, -45, 2, -46, -8, -53, -21, 18, -22, 3, 46, -12, -41, 21, 40, -12, 22, 11, 38, 3, -7, -31, 6, 8, -16, -37, 25, 46, -26, -53, -54, 41, 18, -33, 36, -4, -25, 21, 40, 41, 26, -4, -25, 27, -45, -25, -44, -54, 25, 8, -5, 36, -56, -59, 2, -63, -27, 26, 46, -30, 53, 12, 11, -13, -14, -30, -57, 14, -53, 6, -42, -29, -10, 13, 11, 38, -12, -17, 30, -33, -51, 8, 9, -27, 25, -22, 58, 9, -3, -52, 14, -51, -12, -31, 43, 47, -19, -12, 20, -24, 8, -66, -5, -42, -13, -56, -6, 6, 8, 1, -38, -57, -45, 61, 8, 40, 14, -44, -15, 25, 14, -6, 8, 55, 14, -13, -40, -38, -18, -41, -41, -11, 56, -10, 5, -5, -23, -2, 56, -15, -62, 42, -17, -35, -55, 56, 12, 10, -52, -41, -42, -45, -40, 17, -54, -15, -37, 33, 49, 30, 16, 0, 41, -22, -26, -62, 31, 49, 7, 0, 30, 36, 26, 14, 37, -38, -1, -24, -19, 7, 49, -21, 22, 22, -49, 42, -27, -43, 22, 28, -24, 31, 38, 16, -45, 26, -33, 50, -32, 36, 32, -52, 36, -40, 49, 13, -17, 57, -9, -8, -26, 27, -49, -29, -30, -15, -16, 10, 28, -54, 1, -9, 31, 20, -30, 50, -4, 45, 8, -51, -44, -22, 43, -9, 35, 44, 51, 8, -2, -43, -4, 45, -20, -47, 31, 43, 22, -30, 26, -35, 17, -31, 37, 28, 17, -26, 5, 28, -24, 49, 12, 15, 22, 9, 21, -26, -1, -12, -33, 36, -26, 18, 9, 22, -17, -31, 21, 22, 44, -16, 36, -37, 26, 21, 8, -18, 34, 4, 46, 27, 1, 28, 13, -15, 27, -17, 14, -30, 10, 29, -35, 0, 9, -19, -25, -10, -31, 18, -11, 15, 19, 6, -9, -9, 20, 36, 40, -21, 11, 20, -24, -28, 27, 32, 16, 1, 10, 16, -21, 35, -31, 34, 30, 24, 17, 31, -31, 4, -6, -24, 19, -2, 35, 18, 4, 41, -18, 43, -25, 32, 26, -16, 15, 21, 34, -35, -36, 1, -6, 22, 47, -4, -6, 11, 26, 29, -9, 23, -12, -21, 43, -47, 11, -14, 30, -30, 25, 9, -19, 2, -20, 29, -24, -23, -38, 31, -11, -6, -19, -34, -49, -4, -17, -2, -15, -41, -14, -31, -24, 11, 25, -15, -21, 25, 0, -42, -25, -25, -37, -26, -4, -24, -32, -42, -13, -24, 8, 3, 8, -38, -40, -1, -27, 27, -37, 33, 34, 21, 38, -30, 43, 6, -39, -13, -24, -33, 16, 21, 9, -4, -18, 16, 27, -32, 20, -29, -2, -30, -37, 3, 36, 12, 1, -25, -37, 35, 33, -18, -1, -23, 16, 8, -7, -53, -20, -53, 27, 64, 30, 55, -24, -7, -33, -36, 43, -12, 68, -55, -58, 14, -38, -3, -32, 64, -44, -48, -9, -36, 32, -48, 52, -36, -36, 18, -31, 14, -28, -4, 51, -54, 9, 58, 19, 29, 3, -45, 63, -3, -30, -30, -62, -13, -8, -47, -54, 73, 26, -10, -64, 61, 69, -43, -54, 63, -45, 52, 33, 17, 69, 20, 17, 13, 35, 45, -37, -45, 73, -53, -31, 35, -9, -1, 38, 63, -41, -55, 13, -41, -42, 51, -3, -12, 3, -42, 40, -1, 49, -34, 40, -8, -25, -13, 8, 0, 42, 2, -33, 0, -30, 25, 33, 35, -26, 18, 5, -42, -27, -24, -11, 36, 38, -44, 19, 22, 2, -18, 19, -9, -25, 2, -10, -1, -42, 28, -26, -28, -39, -11, -4, 14, -36, 11, 9, 26, -17, -13, -5, 0, -7, -24, 28, -33, -37, -45, 16, 14, 33, 42, 12, 4, -38, 0, -14, 24, 12, 21, -36, 10, 26, 34, -15, 33, -21, 4, -34, 24, -8, 25, -42, -12, 15, -44, 5, -11, 11, -7, 11, 5, 12, -6, 14, -39, -45, -23, 32, 58, -28, -50, -44, 54, -18, -18, -53, 3, -46, 22, 29, 11, 34, -3, 2, 47, -3, -6, -70, -12, -57, 54, -11, -12, 65, -34, -11, -53, 50, -13, 35, 16, 62, 53, -34, 45, 57, 42, -24, -25, -13, 46, 0, 7, 6, 25, -10, 24, -13, -36, 55, 22, 50, 58, -54, 28, 44, -58, -37, -50, -1, -42, 54, 30, -26, 25, 15, 41, -56, 38, 31, 58, 8, -57, 46, -5, -20, -15, -29, -12, 3, -2, -58, -27, -50, -19, -39, 30, -49, -29, 38, 16, -9, -50, 36, 58, 47, -48, 25, 64, 11, 10, -46, 56, -1, -60, 26, -48, -4, -34, -49, 49, 48, 65, -19, 18, 60, -9, 32, -56, -49, -65, -55, 47, -18, 16, 35, -55, -36, -25, -44, 56, 54, 47, 8, 19, 47, 24, -20, -1, -15, 21, -52, 51, -9, -33, 62, -11, 23, -2, 7, 60, 56, -34, 65, -35, 54, 42, -39, -52, -43, -38, 34, 42, -26, 4, -1, 59, -18, -38, -41, -46, -8, -43, -11, 22, 27, -49, -54, 17, 47, 42, 39, -6, -35, -44, -41, -32, -32, 52, -46, -3, 26, -46, -13, -54, -40, -30, 9, -39, -49, -17, 17, 43, 20, -42, 27, -2, -44, -33, 32, -28, 32, 31, 9, -44, -10, 0, 2, 45, 11, -44, 2, 15, -46, -17, 41, 36, -25, -38, -5, 5, -25, 45, -47, -55, -48, 3, -29, 37, 27, -29, -23, -44, -52, -14, 36, 46, 1, 19, 8, -8, -3, -1, -29, 13, 8, -20, -1, -24, 39, -8, -26, -15, -4, -14, 27, -47, -9, -33, 32, -44, -43, 45, 3, -23, -45, -47, 12, -43, -41, 43, 32, 42, -51, 22, -9, 11, -36, 31, 23, 14, -49, 23, -43, -16, 12, 47, 12, 40, -21, -13, 49, -36, -15, 50, 18, 37, 35, 37, -38, 18, -37, -4, -33, -41, 41, -21, 24, -21, -9, 29, -43, 2, -35, 20, -5, -20, 10, -45, 41, -26, -32, 39, -51, 44, -33, -27, -14, 57, -45, 25, -10, -46, 26, 1, 50, 31, 38, -55, 32, -6, -14, -42, 40, 59, 7, -12, 1, 47, 4, -35, -23, -17, -39, 7, 4, 46, 3, -17, 49, 51, 26, 57, 24, 4, -49, -4, -42, 42, 48, -46, 33, 34, 20, -48, 8, -7, 36, -31, -32, 29, 1, -61, 49, 36, 36, -42, -43, -1, -6, 28, 8, 14, 35, 36, -10, -3, -41, -10, -6, -25, 15, 0, 50, 17, -34, 43, 28, 24, 20, 30, -37, -24, 5, -9, -42, -37, -19, -32, -38, -30, -35, -16, -19, 19, -62, 6, -23, 40, -45, -56, 45, -11, -4, -18, -36, 29, -18, 39, -16, 35, 42, 1, -44, -57, -31, 25, 4, -33, 13, 33, 44, -30, -9, 47, 17, 16, -31, -47, 19, 50, -8, -34, -21, -33, 1, 6, -3, -13, 19, -23, 34, -13, -5, -14, 9, -17, -9, 17, 1, 44, 0, -35, -51, 7, 11, -14, -3, -14, -24, 42, -23, 18, 0, -30, -37, -3, 12, -21, -49, 41, 52, 47, -64, 50, 28, 23, -17, 38, 46, 20, -17, -28, -20, -35, 40, 40, -35, 13, 31, -40, 48, -23, 21, -21, -50, -27, 21, 13, 31, -35, 11, 26, -20, -26, 46, -26, -46, -51, -38, 9, 17, -5, 43, -46, 36, -50, 49, -15, 11, 32, 29, 47, 40, 37, 29, -17, -49, 11, -42, -29, -49, -12, 50, -67, 41, -44, 68, 78, -29, -36, 75, -2, 77, 34, -66, -68, -55, -30, 87, -53, 23, -4, 16, 13, 44, -82, 64, 18, 45, 43, 23, -7, -27, -74, 40, -68, 1, 36, 76, 59, 36, -37, -6, -22, -67, 74, 66, -63, 7, 96, -28, -3, 21, 58, -99, -51, 47, 42, -34, -59, -64, 60, 7, -24, -31, 21, 6, -20, 14, -24, 36, -64, -7, -3, 62, -79, -73, -54, 9, 52, -97, -8, -74, -92, -86, -50, -98, 37, -21, 41, 6, 23, 66, 73, -73, 27, -47, 91, 1, -54, 53, 9, -63, 24, 43, -39, -2, -9, 41, 53, 27, 27, -32, -62, -4, -50, 44, 42, -41, -38, -39, -17, 24, -9, -18, 42, -36, -39, -18, -21, 10, -3, -19, 32, -55, -11, -34, 39, -51, 34, 38, 38, 2, 34, 23, -50, -16, -23, -9, 23, 16, 25, -45, 23, 15, 3, 14, -7, 44, 22, -16, -13, -24, -21, -30, 31, -9, 56, -21, 35, 45, 5, 40, 27, 16, 10, -23, 8, 27, -37, -18, 5, 16, 20, 50, 20, -2, 9, -48, -32, -31, -50, 15, -38, -15, -11, 34, 30, -10, -39, -3, -7, 40, -39, -5, -37, -17, -34, 23, -25, 42, -22, 26, -23, 21, 30, 26, -44, 39, 24, 7, -15, -32, -19, -16, -32, 19, -10, 43, -17, 37, 0, -39, -39, 27, 2, 18, -49, -42, -27, -24, -28, -9, 13, -21, -24, 18, 28, 6, -16, -20, 39, -13, -45, 32, -36, 2, -29, -28, -49, 16, 4, -20, -41, -7, 25, -33, 31, -36, -19, 17, 13, 27, -27, 25, -37, -8, -22, 14, -27, 43, -42, 4, -25, -16, 32, 27, -37, 38, 11, 44, 16, -18, -32, -64, -26, -27, -15, -48, 0, -63, -39, -1, 36, -40, -4, 26, 32, -26, -50, 2, -30, -28, 4, -13, 64, 39, 6, 9, -21, -10, 28, 19, 11, 11, -35, -31, 17, -14, 71, -16, 31, -32, -13, 12, 36, 26, 14, 36, -58, 40, 6, 12, 15, -33, 54, -7, 64, -45, -17, -46, 2, -23, -16, 0, 22, -20, 21, 29, 9, 42, 55, 40, 60, 52, -32, -4, 48, -19, -51, -3, 57, 60, -38, 36, 56, 23, 5, 59, -12, -45, 32, -40, -14, -10, -31, -1, 52, -56, 0, -14, -5, 21, -31, -30, 13, -54, 29, 12, 7, 6, -6, 22, 33, 15, 7, 12, 57, 33, 28, -6, 46, 1, -56, -18, 60, -34, -36, 25, -38, -17, 18, 27, 21, 30, -12, -37, -40, 32, 15, -27, -12, 16, -29, -17, -46, 1, -31, -41, -20, -26, 20, 49, -8, -42, -39, -34, 14, 51, 14, -22, 24, 15, 25, -7, 42, 11, 12, -8, 54, -30, -9, -56, 34, 22, -37, 51, 21, 31, 56, -22, -15, -32, 2, 35, 52, 52, -38, 11, -9, -24, 31, -7, -19, 1, -11, 7, -33, 38, -21, -8, 16, 49, 44, -29, -40, 1, 33, 39, 18, -29, -8, 17, -37, -8, -31, 46, -28, 28, 40, -1, 29, -39, 34, -32, -32, -2, -6, 38, -47, -6, 5, -25, 18, -23, -25, 26, 27, -35, -3, 42, 5, -9, 33, -6, -9, 33, 15, -32, 7, -1, -2, -12, 30, -30, -1, 39, 27, 37, 32, 14, 0, -26, -5, 30, -22, -18, 38, -13, -22, 8, 9, -16, -25, -25, 32, 34, -9, -23, 6, -30, -30, -22, -14, -6, 3, 19, 28, 49, -3, 9, -46, 19, -5, 1, -50, 34, -28, -20, 49, -31, 32, 57, 41, 46, 5, -33, -30, -17, 24, -16, 11, -57, -65, 48, -3, 12, 9, -43, -29, 16, -36, -18, 61, -35, 52, 17, -43, 26, 51, -45, 53, 44, 42, -21, 10, -39, -2, 10, -46, 3, 24, 37, 53, -47, -45, 45, 1, 61, -35, -33, -6, -44, 49, -36, -33, -8, 31, -7, 53, -8, -33, 51, 31, 45, -22, 48, 54, 4, 24, -1, -30, 13, -26, -54, 33, -1, -30, -45, -12, -22, 19, 53, -15}

#define TENSOR_CONV1D_22_KERNEL_0_DEC_BITS {8}

#define TENSOR_CONV1D_22_BIAS_0 {25, -2, 54, -2, -20, 45, 24, 68, -21, -39, 9, -1, 49, 52, -24, -62, 67, 4, 29, -1, -10, 71, -22, 16, 2, -2, 2, 41, -18, -8, -2, -15}

#define TENSOR_CONV1D_22_BIAS_0_DEC_BITS {6}

#define CONV1D_22_BIAS_LSHIFT {5}

#define CONV1D_22_OUTPUT_RSHIFT {8}

#define TENSOR_CONV1D_23_KERNEL_0 {35, 22, -2, -36, 24, 35, -30, 8, -24, 15, 8, 6, -26, -26, 48, -33, 23, -7, 4, -14, -38, 0, 1, 20, -1, 30, 43, -25, 33, 34, -37, 7, 27, -15, -34, -9, 1, 17, -20, 26, 15, -10, 30, -32, -11, 5, 10, -29, 36, -16, -24, 35, -23, -28, 24, 17, -21, 17, 20, 6, -17, -14, -16, 21, 17, 13, 27, -13, -35, -24, 6, 2, 15, 12, 29, 1, 16, 7, 19, -33, -26, -4, 20, 17, -25, -1, -7, 27, 21, -3, -46, -25, -4, -30, -24, -34, 16, -9, 2, 2, -8, 27, 2, -5, -32, -3, -16, 26, -6, -28, 12, 26, 9, 12, -14, -34, 22, -10, 20, -4, -45, 17, 4, -31, -16, 35, 11, -23, -34, -18, 20, 9, 30, -10, -28, 47, -3, -31, 7, -22, 8, -21, 20, -45, -7, -28, 24, -18, -7, 23, -17, -4, -28, -27, -10, -43, -30, 33, -29, 37, -33, -43, -9, -16, 16, -21, -40, 7, 3, -25, 30, -8, -19, 33, 26, 9, -40, -35, -14, -33, 2, -38, 1, 24, -47, -39, 24, 4, 2, 33, 34, -38, 5, 1, -36, 15, 28, 8, -21, 27, 1, -5, -28, -34, 8, -20, -11, -5, -15, -13, -10, 24, 3, 14, -13, -14, 0, 19, -29, -8, -11, 23, -24, 31, -39, 28, 21, 19, 31, -14, -16, -13, 3, -49, 8, 12, 40, 29, -42, -38, 20, -42, 31, 17, 1, 5, -32, -23, 13, -27, 42, -13, -7, -24, 30, -8, -41, -9, -28, 17, -13, 4, -38, -25, 27, -32, -21, -12, -27, -9, 7, -6, 29, -39, 21, 15, 12, 0, -15, 36, 14, -43, -34, 6, 10, -13, -3, 13, -21, -23, -23, -31, 16, -23, 4, 20, -9, 11, 12, -23, 11, -12, 2, -8, -3, 25, 11, 20, 22, 3, 39, 21, -40, -1, 31, -5, -5, -32, -13, 7, -9, -9, -12, -12, 17, 7, 18, 24, -2, 24, -23, -36, -15, 33, 25, -14, -8, -17, -24, 5, -15, 5, -40, -22, -34, -20, -39, -6, 0, 22, 2, 26, 3, -33, -25, -18, 4, 11, 28, 17, 4, -37, -21, 27, 24, 24, -23, 13, -33, -23, 22, -2, -7, -41, 24, -18, 26, -5, 11, 21, -16, 31, -11, 16, 23, -19, 25, 20, -7, -15, -10, 12, 8, 10, 12, -11, -19, 27, 6, 0, -26, 10, -32, -18, -17, -21, 26, -2, 7, 0, 32, 11, 29, -31, 0, 12, 23, -26, 8, -25, -15, 5, -5, -27, -18, 1, -1, -28, 0, -11, 27, 12, 25, -30, -28, -29, 19, 27, 16, -18, -35, 7, 31, 26, -34, 33, 21, -18, -31, 6, -31, 18, -6, -28, -6, -33, -15, 15, -31, 7, -2, -4, -24, 4, 15, -23, 5, -12, -5, -7, -20, -28, 22, 6, -9, -21, -8, 22, -19, -2, -24, -20, 3, -8, -24, -3, 34, 28, -5, 27, -7, -31, 17, -7, 33, 3, -15, -7, 15, 27, -11, -21, -10, -5, -29, -19, -22, 6, 16, -7, -15, -31, 19, 23, 5, 16, -21, -6, 20, 24, -24, 27, -15, 13, 26, 13, -10, -31, 27, -24, -7, -14, -11, 13, -23, 32, 25, -23, 8, 3, -7, -2, -6, -16, -32, 4, -39, 2, -2, 27, 8, 6, -16, 15, 3, 29, -22, 19, 6, 26, -17, 21, -8, 10, -30, -17, -22, -11, -2, 21, -28, 9, 12, 19, 17, -27, -44, 0, 5, -8, 12, 19, 33, -35, -37, 16, -36, -2, -3, -20, 28, 5, 20, -18, 17, 34, 36, -17, -12, 6, 41, 27, 16, 18, 1, -51, -11, -24, -25, -45, -23, -5, -5, -30, -15, 19, -10, 8, 16, -21, -1, -21, 36, -34, 10, -22, -12, -22, 3, 5, -2, 41, -21, -9, -5, 31, 39, 23, -44, -13, -43, 17, 18, -8, -21, -14, -12, 10, -17, -30, -7, -49, 21, -34, -11, -15, 3, 37, -28, 16, 19, -32, 13, -6, -19, 1, -11, 3, 23, 25, 13, -18, 19, 21, 4, 9, 42, 31, 12, 4, 29, -15, -7, 8, -19, -15, -32, 13, -24, -8, 0, 32, 28, -14, 22, 2, 39, -8, -21, 29, 37, 19, -11, 11, -14, -23, -25, 20, -16, -14, 29, -16, -10, -17, 25, -32, 11, -25, -20, -8, -28, 15, -28, 23, 10, 35, -33, -24, 24, 6, -18, 26, -22, -7, 9, 23, 14, -36, -32, -16, -1, 28, -2, 11, -20, 32, -42, -22, -34, 3, -12, 8, 40, 18, -22, 31, 10, 35, 31, -27, 10, 7, 31, 14, -1, 2, -35, 24, -24, 32, 33, -30, 22, 18, 2, -36, -29, -25, 18, -28, -21, -29, -37, 31, 43, 28, 11, 14, 36, 21, -12, 15, 17, -36, 22, 16, 1, 4, 32, -27, -3, 9, -9, -37, 33, -14, 14, 8, 0, -37, 12, 22, -16, -33, 33, -30, -2, -42, -40, -4, 32, -6, 13, 36, -12, 34, -10, -20, 20, 39, -22, 11, -29, 33, -34, 25, -14, 8, 13, -34, 41, -28, 7, -26, 31, 25, -44, -6, 24, 27, 34, 15, -12, -14, -19, 46, -20, 35, -31, -34, -4, 40, 24, -36, 22, 28, -27, -32, -25, -40, -39, -19, -9, 37, -30, -38, 44, 6, 15, -46, 44, 33, 32, -12, 42, 26, 4, -9, -20, -19, -41, -4, 9, -3, -30, -28, 19, 3, -45, -15, -51, -4, 15, -11, 31, -13, 15, -33, 13, -52, 42, 34, 32, -14, 9, -12, 29, -27, -39, -40, -7, 14, 36, -9, 41, 4, -4, 2, -24, 31, -46, -31, -39, -5, -1, 6, 40, -34, 17, -19, -23, -12, -10, 31, -18, 5, 33, 3, 1, 28, 19, 20, 18, -18, -29, -16, 36, -30, -21, 16, -31, -8, 17, -36, -47, 24, 0, -27, 17, 4, -32, 7, 3, 1, 25, 4, -7, -44, -18, -15, -13, -50, -26, -42, 33, -19, -34, -10, -32, -6, 33, -4, -25, 12, -8, 6, 11, 38, -3, -3, 37, -19, 36, 0, -37, -14, 26, -4, -22, 38, -32, -42, 4, -29, 4, 51, -2, -33, -25, 37, 27, 17, 35, 8, 17, -30, 17, -14, -39, 34, -15, -37, -15, 33, -12, -34, 9, 0, 4, 11, -39, 29, -20, 34, -12, -10, -28, -10, 9, 0, 32, -8, 10, 20, -6, 17, 24, -30, -4, 36, -8, -10, -1, -34, 12, -27, -22, -12, -3, -10, 0, 40, -1, 8, 47, -39, 20, -52, -26, 6, -29, 31, 20, 22, 34, 3, 1, 20, 44, 11, -44, -2, 28, -1, 18, 20, -27, -7, -47, 26, -5, 0, 40, 33, -7, -59, -12, -9, -20, 24, -30, 19, -25, -8, 45, 29, 9, 35, 33, 4, -3, 34, -20, 16, 9, 33, -6, 42, 15, -26, -39, 36, -5, -5, 18, 45, 36, 40, -30, 3, -28, 17, 41, -2, 8, 22, -41, -11, -28, 26, -6, 26, 12, -33, -4, -19, -13, -5, 17, 16, 16, 9, -24, 11, -28, 21, 16, -12, -29, 21, -30, -21, 8, 17, 36, -38, -35, -16, 26, 25, 27, -13, 8, 4, 23, -16, 35, -25, -24, 6, 29, 32, 3, -29, 12, -25, -7, -12, -15, 7, 36, -3, -4, -11, -24, 42, -13, -8, 17, -24, -22, 6, -34, 19, 0, -8, -25, 22, -5, 10, 11, -11, 17, -39, -35, 12, -5, 10, 11, 8, -7, -7, 1, 6, -4, 28, 19, 26, -19, -35, -4, -33, -34, -19, -32, -7, -11, 21, -8, 17, -17, -36, -5, -26, 24, 9, -6, 23, -14, 23, 11, 29, 29, -8, -13, -16, -4, -7, 4, -23, -24, 4, 9, 30, 4, -17, -39, -7, 14, 21, 5, 10, 37, -30, 12, 26, 25, -1, 10, -27, -32, 15, 0, 6, -1, 20, 10, 22, -13, 7, -21, 23, -18, -1, -31, 25, 17, -3, -28, 25, 10, 22, -36, 16, -14, -31, -29, 14, -36, -14, 2, 10, -15, 28, -5, 0, 6, -9, -32, 0, -27, -26, -19, 8, 17, -36, -28, -6, -29, -20, -28, -25, -26, 6, 12, 11, -22, 14, 9, 10, 3, 23, -17, -22, 8, -4, -33, 7, -4, 15, -11, 27, 11, 26, 2, 27, 36, -29, 28, 12, 7, 27, 21, -33, 2, 3, 4, 19, 18, -14, -34, -31, -25, 7, -13, -24, 5, 19, 31, 19, -30, -8, 30, 22, -20, -19, 17, -12, 1, -2, -16, -17, -28, 11, 6, -7, -7, -24, -3, 11, 2, 15, -16, -21, 22, 15, 10, -7, -14, 21, -16, 1, -8, 5, -19, 16, -15, -4, -26, 24, -2, 10, -25, 27, -26, -32, 22, 9, 26, 14, -1, -32, 28, 43, 17, 41, -43, -7, 25, 37, 33, 36, 14, -27, -30, 29, -7, 13, -40, -36, 24, 31, 28, 4, -47, -11, -26, 32, 17, -19, 8, 17, -28, 21, -25, -35, 9, -6, -20, 34, 32, -12, -33, -22, 14, 47, 4, 6, -32, -26, -20, -26, -28, -8, -14, 30, -2, 17, 13, -24, -27, 23, -27, -1, -13, 6, 21, 1, 29, 13, 34, 3, 25, -15, -6, 13, -3, 27, -22, 26, 13, 13, 12, -26, -10, 8, 15, 18, -7, 24, 15, -23, -4, -19, -5, -16, -27, -5, -35, 19, -14, 16, -21, 34, 8, 12, 43, -32, 10, 21, 5, -37, 1, -2, 17, -17, -14, -38, -29, 29, 22, 9, -25, -5, -25, 21, 20, -40, -28, -24, -20, 33, 3, 22, 5, -5, -37, 20, 38, -4, 9, 6, 25, 21, 9, -29, 24, -13, -10, -27, -2, 1, -5, 29, -32, -20, 10, 24, 1, 1, 35, 26, 16, 1, 25, 1, 15, -28, -8, -30, 40, -30, 18, -30, -23, 37, -4, -33, 32, -37, -8, -9, 46, -25, 24, -26, 23, 18, 24, -12, -23, -6, -39, -28, -4, 41, -27, -25, 21, -18, 48, -20, 16, -29, 27, -29, -41, -28, -32, 1, 22, -19, -5, 16, 0, -44, -4, -2, -37, -6, 31, 29, -8, -23, 13, 33, 2, -9, 31, 6, -29, 20, 8, 34, 19, 19, -16, 44, -40, -25, 23, 14, 27, 7, -14, 25, 29, 30, 3, 9, 3, -29, -11, 0, 43, 8, -10, 8, 34, -8, 35, -12, 10, -13, 10, 11, -1, 4, -33, 30, 4, 19, 9, 16, 15, 20, -28, 14, -36, -7, 10, -34, 13, -4, 10, 45, 17, 3, -8, -21, -13, -19, 29, -2, -41, -25, -40, 9, 3, -25, -17, 31, 19, -35, -28, 26, 31, -23, 10, 11, -22, 24, -1, 12, 16, 28, -18, 24, 24, -31, 22, 15, -4, -35, -24, -19, -20, -22, 18, 8, -7, -24, 23, -24, -6, -2, -37, -26, 24, -5, 31, -38, 1, 24, 20, -21, -19, 33, 0, 40, -14, 16, -8, 13, 14, 26, 19, 12, -27, 35, 30, -34, 2, -8, -2, -12, 5, -15, 9, 15, -9, -14, -26, 29, -33, -29, -26, -13, 18, 23, 8, 17, -33, -22, -13, -17, 36, 11, -25, 16, -12, -33, 11, -8, 8, 11, 26, -13, 10, -8, 22, -15, -2, 27, 34, 32, 5, 7, 15, 10, -12, 3, -33, 23, -3, -21, 21, 27, -24, 28, -18, 9, 21, -16, 5, -26, -3, -20, -10, -16, -7, -7, 16, -9, 6, 9, 23, 14, 33, 30, -17, -17, 29, -26, 0, 16, 19, -13, -25, 16, 17, -15, -4, 31, 27, 30, -25, -25, 27, 4, -14, 11, -7, 31, -3, 34, 5, 10, 21, -15, 32, -2, 0, 14, 9, -4, -23, -17, -29, -1, -25, 21, 15, 5, -29, -24, 1, -12, -9, -8, -2, 21, 24, 27, 27, -28, 10, 22, 19, 22, 10, 14, 11, 2, 17, 14, -11, 12, 18, -3, -36, -18, -12, -17, -47, 21, -15, -26, -3, -7, -29, -34, 32, 12, 4, -8, 43, 25, -2, 9, -3, 11, 31, 13, 20, -26, -3, -11, 31, 17, -3, 9, 4, -17, 19, 26, -35, -12, -19, 39, 26, 26, -22, 8, -5, 10, -3, 2, -17, -5, 23, 9, 15, 4, 23, 18, -29, 10, 12, 6, -18, -25, 2, 10, 10, -10, 4, -45, 26, 13, 17, -29, -21, -20, -37, 30, 33, -22, 13, 14, 5, -15, 11, 29, -14, -2, 7, 39, 24, -26, 25, -22, -3, 30, -26, -30, 17, -1, 3, -20, -6, -30, -13, 1, -40, -4, -7, -9, 15, -23, 24, 26, -16, 41, -45, -5, -34, -36, -11, -25, -38, 0, 38, -13, -37, -34, 11, -22, -16, 37, 24, 18, -25, -24, -14, -33, 33, 24, 14, -12, 26, 11, -15, 39, -2, -5, 10, 4, 16, -28, 20, -18, -21, -34, -28, -16, 14, 41, 20, 20, 13, -20, 22, -37, -24, -5, 0, -21, 5, 3, 7, -18, -3, 24, -25, 28, -11, 24, 44, 35, 16, 34, 29, -35, -37, 10, 3, 25, 12, 27, 43, -7, -7, -6, 31, -13, 25, 34, -9, 20, 4, 35, -4, 44, 35, 10, -14, -19, 25, 45, 4, -23, 13, 34, 31, -16, -15, -9, -30, -8, -3, -4, -36, 14, 41, -26, 32, -16, 27, 17, 9, -2, -4, -24, -30, 33, 33, 40, -14, -5, -21, -16, 25, -18, 22, 30, 8, 35, 8, -1, -14, -6, 24, -7, 28, 13, -4, 33, -33, 39, 17, -28, 4, -8, -23, -32, 40, 25, -13, 26, -28, 25, 16, -16, -22, -16, -35, -19, 24, 12, -24, 6, -18, -7, -7, 12, 15, -11, 12, -1, -9, 0, 19, -6, -4, -19, 9, -22, 13, 24, -25, 6, -17, -23, 14, 13, 25, -16, -8, -1, 21, -32, -26, 20, 31, 55, -31, 22, 10, 1, 10, 21, -28, -7, 1, 15, 40, -14, 31, 23, 16, -19, 25, 5, 12, 31, -9, 31, -4, 4, -39, -18, -38, -23, 12, 4, -8, -33, -40, 6, -28, -22, 1, 25, -8, -7, 36, -35, -12, -2, -8, 22, 12, 33, -38, 13, 25, 12, 22, 2, 14, -34, 9, -20, -15, 35, -28, -15, 14, -7, 41, -31, 25, -3, 17, 9, 10, 0, -4, -21, -12, -5, 19, -29, -41, 24, -14, -9, -4, -38, 36, -36, -42, -2, -8, 24, -27, 12, 17, -38, 7, 15, -14, -7, -8, -9, -19, 23, 10, -30, -5, 0, -22, -23, -37, -33, -10, -3, -23, 1, -32, 31, 20, 27, 7, -13, -6, -10, 16, 6, 37, 29, -7, -45, -40, 36, 6, -18, -24, -1, 32, 10, 33, 29, -1, -31, -9, 10, -23, 20, -26, -18, -13, 19, 20, -9, -14, -19, -28, -45, -10, -6, -12, 6, 17, -32, 12, -21, 11, -27, -7, 25, 14, -4, 14, -41, 14, 24, -28, -25, 13, -26, 13, -38, 20, -10, 23, 24, -34, 1, -22, 15, 1, -16, 42, 28, 28, -7, 5, -36, -12, -40, -26, 12, 26, 24, -9, 17, -18, 7, 12, -31, -6, -24, -25, 40, 1, -17, -14, 28, -20, 6, -29, 2, -16, 23, -10, -23, 13, -14, 24, -3, 28, -11, 38, 8, 23, 5, -5, 29, -7, 10, 33, -6, 11, 15, -36, 45, -29, 16, 53, -3, -30, -42, -35, -29, 28, -32, 12, 34, -38, -33, 26, -10, 20, 20, -11, 39, -19, 32, -43, 20, 22, -33, 32, 25, 23, 35, 37, -4, -24, -23, 34, -45, -2, -49, 34, 9, -5, 17, 34, 19, -19, -16, 32, 21, -7, 20, -22, 32, 13, -1, 23, 25, 7, 23, -12, 30, 0, -27, 25, 35, -34, -3, -27, -33, 1, 30, -44, -13, 32, -10, 15, 39, -30, 13, -43, -37, -14, -1, 10, -19, 31, 5, 29, 19, 19, 34, -21, 23, -19, -18, 33, -41, -19, -1, -11, -8, 10, -18, 31, -10, -4, 33, -53, 24, 43, 14, -8, -22, -15, -39, -30, -44, 17, 8, -58, 26, -41, 27, 48, -13, -12, -28, -28, -40, -39, 9, 48, -30, -33, -43, -22, 31, -7, -30, 12, -25, 0, -18, 3, 28, -6, -16, -29, -4, -3, -13, 0, 33, -32, 43, 20, 33, -14, -3, -12, 8, -35, 33, 40, -46, -13, 37, 17, 36, 21, 12, 2, -2, -6, 6, -27, 25, -11, 26, 42, 16, -3, -18, -22, -19, 6, -13, 13, -33, 8, 17, -35, -10, 23, 30, -42, -39, -16, 14, -3, -37, 36, -36, -62, -41, 41, 28, 3, -35, -5, 11, 40, -21, 11, 45, 29, -13, -21, -24, -22, -16, -22, 34, 20, -19, 10, -13, 24, -17, -36, 0, 32, -1, -37, -12, -10, -32, 21, -24, 33, -19, 11, 56, -20, -21, 36, -22, 2, 51, 10, 47, 25, 27, 0, 9, -23, -20, 13, -19, 11, 29, -31, -39, 29, 25, -10, -26, 16, 36, 8, 29, -10, -3, 10, -34, 15, 21, 26, 28, -20, -29, -41, 26, 3, 5, 7, 11, -22, -31, 3, 17, 21, 9, 28, -28, 7, -32, -2, -17, 10, -4, 8, -25, -9, -38, -9, -44, -16, -30, 9, 21, -44, 9, -42, 20, 19, -42, 15, -25, 2, -3, -7, -6, 30, -9, 9, -28, 20, -12, -32, -32, 32, 33, -34, 37, 17, -3, 24, 8, -9, 37, 5, 14, -14, 16, -39, 53, -25, 1, -34, 37, -15, -9, 11, -47, 15, -33, 23, 9, -29, -37, -15, 7, 32, 21, -1, -16, -8, 5, -41, 12, 25, -13, 49, 3, 41, 37, -40, -33, 22, -13, 41, 59, 14, 3, -13, -3, -19, 24, 3, -22, 33, -37, 38, 10, 25, 31, -7, -34, 19, -13, 33, -9, -20, 15, 0, -41, -56, 25, 35, -24, -12, -3, -36, -8, -10, -24, 6, -58, -32, -21, -50, -30, 10, 49, 29, -54, 17, -19, 20, -2, 60, 8, 25, -4, 32, -9, 36, 1, -16, -10, -15, 22, -31, -23, 28, -13, -38, -26, 45, -34, -39, 7, -28, 9, -44, -43, -33, -30, 21, 57, -3, -22, -22, -43, -36, -36, -27, -49, 25, 29, 3, 2, 39, 6, 15, 18, 0, 46, 25, 38, -19, 42, 31, 1, -49, -67, 16, -43, 35, 8, -58, 26, -25, -15, 55, -21, -61, -7, 30, 53, -40, -45, -49, -50, 35, 0, -15, -38, 32, -30, 20, 19, 51, -39, 42, -57, -45, 0, 12, -26, -36, -50, 3, -4, 24, -21, 27, 35, 20, 7, -21, -11, -14, -31, 35, 0, -49, 13, -55, -1, -38, 45, 26, 12, -27, -7, -48, 20, 33, -37, 5, -11, -34, 0, -5, 48, 30, 36, -39, -26, 3, 45, 33, -16, -17, 9, 19, 38, 20, -4, -36, -14, -21, -13, 27, -1, 11, -23, 31, -39, -39, -55, -43, -4, 20, 5, 17, -15, 12, -16, 13, 7, 28, 47, -51, -26, -27, 16, 22, 7, 25, -11, -46, -37, -44, -18, -6, 15, -29, 4, -41, -4, -38, 1, -11, -2, -22, -11, 32, -13, 11, 15, 12, 43, -20, 11, -22, 16, 1, 23, 38, 22, -17, 17, -19, 23, -20, -41, 10, 29, -20, -24, 29, 31, -11, 16, -18, -35, 13, -39, -50, 6, -51, 10, -14, 7, 17, -31, 20, -47, -5, -7, 19, 18, -22, -3, -24, 11, -4, 5, 10, 22, 20, -12, -17, 19, 13, 17, 2, 20, 2, 27, 9, -2, 8, 22, 18, 15, -8, 30, 16, 10, 14, -15, -17, 10, -15, -8, 10, -17, -3, 24, -7, 11, 17, -14, 10, 17, -16, -11, -16, -4, 22, -22, 29, 23, 10, 19, 17, -22, 0, 0, -23, 24, 0, 1, -21, -3, -1, -23, 11, -16, 20, 11, -13, 17, -19, 0, 20, 25, 0, -26, -5, -4, 2, 9, -1, 27, -4, 10, -25, 27, 5, 24, -4, 23, 1, 17, 18, 4, 10, -24, 19, -5, -10, 30, 25, -1, 19, -4, -25, -11, 14, -18, -26, 8, -25, 20, -1, 12, -17, -16, 5, 21, -1, 17, 26, -9, 23, 16, -16, -3, 16, -15, -23, 12, 13, 3, 20, -4, 12, 2, -6, 15, -13, -13, -11, 11, 4, -5, 30, -12, 17, -22, 16, 10, 23, -7, -9, 19, 7, 0, -2, -12, -5, 2, 24, -12, -22, 4, -8, 9, 12, 14, -27, -14, -27, -12, -20, -7, 23, 26, -15, 8, -6, -13, 24, 20, -20, -17, 27, 25, -21, 23, -26, 30, 5, 1, 6, 18, 0, -14, 7, -12, 12, 6, 9, 26, -25, 10, 24, -26, -22, 11, 16, 7, -12, -2, 13, 2, -12, -10, 11, 17, -2, 22, 26, 28, 24, -19, 7, -18, -12, 5, -12, 20, 18, 4, -8, 5, 15, 26, 17, 25, -3, 10, 5, 18, -1, 7, -29, -15, 8, 2, -18, 7, -12, 24, 24, 17, 30, 1, -19, 3, 21, 1, -13, 12, 13, -15, 10, -16, -15, 19, -20, 6, 25, -7, 26, 21, -1, -9, -7, 28, -13, -7, -1, 27, 6, -39, -29, 31, 44, -37, -16, -4, -16, 14, -15, -42, -29, -5, -28, 32, -19, 21, 26, -13, 31, 7, 28, 23, 19, 2, -10, -26, -49, -25, 31, -8, 37, 25, 15, 32, 23, -30, -3, -49, 24, 4, -21, 8, 23, -6, 41, 26, 34, 11, -16, -21, -16, -6, 2, 45, -4, 32, 25, -19, -20, -29, -27, 29, -20, -13, -15, 25, -20, 10, 5, 10, -21, 27, 0, -36, 11, 5, -29, -27, -2, -46, 22, -22, -31, 0, -24, -21, -2, 21, 30, 18, 34, -42, -7, -8, 11, -31, -41, -44, 26, -19, 22, -24, 16, -5, 26, -9, -22, -6, -42, 47, -39, -32, 4, 7, 0, -3, -10, -4, 45, -17, 14, -33, -26, 30, 23, -39, -28, 38, 17, 2, -5, -23, 26, 20, 5, 16, 39, 5, 2, -37, 42, 16, -6, -3, -31, 8, -9, -21, 33, -40, -21, -15, 8, -30, -28, -17, -6, -5, 5, 18, -44, 3, -15, -33, -10, -34, 0, -13, -35, 28, 28, 15, 0, 43, -15, 10, 23, -9, -17, -32, -28, -41, -6, -21, -34, -14, 12, 27, 38, 30, 48, 39, -33, 33, -15, -21, 31, -6, -16, 39, -23, -37, -10, -40, 31, -14, 6, 21, -23, -34, 18, -38, 45, -8, -5, -16, 45, -3, -44, 31, -19, -10, -10, 3, 20, 13, -31, 36, -26, -30, 1, -19, -8, 24, 29, 6, 38, 16, -30, 23, 7, 26, -23, -28, -25, 4, -1, 11, 12, -10, -10, -20, 1, 36, -37, -27, -10, 23, -12, -14, -23, -12, 17, 26, 11, 13, -4, -40, -9, 35, 11, 17, -25, -22, 29, -27, 3, -32, -14, 8, -11, -42, 30, -34, -30, 21, 9, 31, -5, -13, 11, -5, -33, -7, -22, 41, 3, 10, 26, -28, -26, 4, 14, -42, -41, -5, 14, -6, -28, 24, -24, -47, 29, -10, 22, -27, -31, -21, 0, 30, -25, 28, -28, -3, 32, 24, 8, -8, 14, -5, 29, -6, 23, -31, 4, 33, -22, -23, -18, 8, -20, -12, -25, -50, 11, 8, 0, 0, 24, -4, -18, 26, -22, 3, 30, -9, -33, 18, -12, 13, -19, -9, -8, -2, 28, -38, -32, 22, -38, 19, 30, -32, -30, -17, -31, 17, -9, 21, 12, 14, 8, -17, -1, -2, 17, 27, 5, 41, -35, -1, 13, 8, -9, 18, -12, 2, 4, 12, -35, 12, -35, -5, 32, 44, -13, -31, -29, -15, 13, -36, -38, 16, 29, 25, -40, 34, -32, 40, -20, -38, -24, -21, -22, 26, -24, 35, 30, -31, 33, 7, 31, 14, -16, 37, 7, -9, 13, 8, 37, -10, -17, -28, 24, -30, 0, 17, -13, 35, 20, -8, 9, 9, -4, 6, 1, -29, -8, 22, -8, 14, 36, -26, 0, -7, -12, 30, -24, -19, -36, 40, -34, -2, 37, 17, -24, 9, -9, 35, 32, 8, -11, -38, -1, -31, 21, -19, 27, 15, -30, 29, 13, 2, 11, 2, -38, 26, -21, 27, 14, 35, -2, 9, -42, 18, -26, 16, -10, -23, 18, 18, -35, 43, 4, -30, 34, -1, 28, -28, -31, 21, -16, 1, 1, -44, -35, -30, 19, -27, -10, -8, -28, -27, -2, 19, 21, -2, 6, 19, 4, 19, 26, 32, 36, 17, 34, -11, 18, 26, 12, -44, -29, 9, 19, -23, -19, -13, 5, 9, -33, 31, 19, 24, -28, 35, 29, 5, 8, -16, 26, 29, 14, 27, 7, 1, 2, -25, 16, -3, 4, -6, -20, 13, 16, 6, -31, 27, 45, 27, -12, -19, -7, -14, -19, -4, -13, 20, -24, -22, -34, -33, -20, 29, 26, 11, 13, -42, 33, -9, -43, 32, 10, 41, 21, 2, -32, 40, -5, 3, -36, -17, 3, 24, 3, -36, 10, 5, -28, 9, -25, 29, 15, 11, -33, -30, 31, 27, -4, 33, 37, -21, 32, 26, 7, 6, -23, -7, -28, -13, -18, -13, -43, 3, 39, -27, -21, 11, -32, 21, 31, -29, -21, 18, -3, -1, -11, 32, -28, -8, -40, 35, -35, -32, 14, 20, 6, -11, -27, -28, 8, 19, 35, -18, 28, 13, -45, 24, -32, -24, -34, -14, 6, 15, 16, -32, -10, 13, -21, 12, 14, 42, 31, 16, -19, 28, -15, -3, 35, -10, 3, -19, 15, -21, 39, 42, 9, 40, 40, -17, -2, 32, -20, 8, 3, -22, 16, 9, 19, 43, -12, -49, -9, -10, 40, 34, -33, 47, -25, -25, 28, 41, -23, 6, -12, 10, -20, 31, -16, -35, 4, -11, -10, -30, -37, -13, -31, -24, 24, 19, 17, 6, 15, 34, -5, 51, -17, -28, 12, -17, -18, -9, 6, 27, 3, 26, 26, -8, -9, -7, -20, -14, -1, 37, -22, 3, 3, 32, 16, -25, 4, 15, 13, 5, 14, 6, 30, -22, -37, -13, -21, -35, -11, 44, 41, -14, -19, 2, -18, -22, 28, 29, -1, 29, 40, -27, 9, -21, 23, -32, 14, -36, -27, 35, -25, 17, 16, -37, -29, 29, -5, 28, 15, -28, -26, 12, 32, -30, 5, -25, -17, -16, -17, 37, -6, 29, -22, -21, -25, -1, -23, 12, 4, 38, -14, -9, 26, -35, 1, -6, 30, 14, 3, 33, -14, 47, -40, 32, -21, -1, 16, -48, -34, 50, -35, 17, 8, 8, -4, 27, 12, -29, 31, -40, 33, -14, 18, 19, -2, -28, 48, -26, -37, 23, -33, -22, -21, -3, 39, -26, -43, 10, 37, 39, -43, -2, 9, 31, 34, -7, 37, 21, 18, 14, -4, 11, 10, -4, 37, 34, 19, -47, -10, -11, -19, 30, 27, -11, -14, 27, 44, -52, 16, -22, -55, -22, 24, 18, 17, 10, 4, -2, 14, -19, -38, -30, -17, -26, 38, -18, -26, -28, -45, 35, 24, -35, 13, -44, 26, 0, 2, 49, 35, -36, -20, -31, 50, -28, 14, 20, -3, 18, -7, 33, 4, -4, -45, 16, -22, 23, -18, 26, 5, -22, -10, -36, 8, -39, -30, 12, -26, 4, -31, -21, 14, 37, 33, -33, 16, 29, 11, 27, 0, -30, -9, 10, 29, -16, 36, 1, 31, 53, 23, -12, 8, 29, 5, 15, 29, -13, -2, 4, -49, 19, -6, -34, 3, -51, 29, -9, -26, -38, 33, 24, 0, -25, 22, -3, 10, 32, 7, -12, 11, 22, -19, -24, -33, 45, -49, -28, 39, -37, 25, 29, 11, -7, 12, 9, 5, -2, -30, 4, -10, 1, 19, 32, 13, 22, -32, -11, 34, 1, 9, -27, 3, -24, 5, 8, -19, 47, 9, -16, -34, -36, -39, -40, -1, 35, -49, 10, 31, 24, -10, -6, -9, -1, -32, -20, -28, -11, -17, 13, -6, 40, -28, -42, 10, 53, 25, -42, 32, 16, 10, 5, -22, -17, -37, -2, -16, 46, 26, 6, -4, -4, 22, 25, 14, 42, 0, 19, 24, -14, -34, 35, -30, -9, 2, 39, -38, -39, 12, 8, -14, 9, -2, 16, 5, -31, 5, -4, 14, -40, 34, 5, -39, 5, 32, 23, -2, -5, 40, -10, -1, -19, 14, -20, 34, -2, -6, 10, -10, 2, -13, 5, -37, 36, 26, -28, 7, -22, 24, -6, -8, 19, -28, -29, 39, 3, -1, -26, 6, 28, -11, -50, -18, -28, 32, 8, 33, -30, -33, 10, 24, 11, 37, 33, 42, 37, 45, 27, -14, 17, -2, 32, -10, -32, -13, -43, 21, -32, -13, -2, -22, -39, -10, -20, 32, -19, 7, 33, -38, 32, 7, 28, 9, 17, 7, -31, -2, 2, -13, 27, 15, 23, -26, -20, 6, 36, -31, 32, -28, 9, 37, -12, 33, -22, -2, -28, 6, 48, 29, -5, 14, 12, 20, 17, -33, -34, -31, 43, 4, 35, 31, -42, 15, -28, 32, 7, 20, 49, 11, 22, -36, -21, 41, 4, -13, -20, -4, -31, -14, -36, -24, -37, -25, 11, -18, 4, -33, -23, 16, -41, 8, 10, -19, -41, -17, 8, 5, 24, 7, -19, -28, -44, 4, 22, -35, -20, 22, 27, 5, 22, 34, 0, 26, -31, 4, 3, 8, -12, -32, -10, 30, 21, -6, 43, 16, -16, 27, 24, -25, -22, 5, 38, 18, -27, -11, -11, 24, 14, 16, 31, 24, 17, 35, -5, -5, 0, -6, 5, -37, -33, -20, -13, 6, -15, -15, -3, 19, 22, 18, -18, -5, 19, -16, 11, -25, -35, 9, -34, -7, 14, -44, -31, 6, -19, 22, -25, 14, 28, -1, 11, -29, 32, -19, -24, 5, -39, 27, 27, 23, -26, 19, -15, -33, -7, 9, 38, -36, 21, 41, -38, 24, -40, 5, -31, -21, 26, 0, 10, 42, 44, 13, 11, 26, 28, -21, 4, 34, 29, 27, -20, -28, 25, 3, 39, -11, 39, -1, -24, 35, 6, 44, 2, -8, -17, -32, 2, 56, -12, 32, -48, -24, -20, -30, 43, 17, 19, -15, -11, 53, -13, 5, -33, -22, -15, 58, 1, -40, 37, -32, -4, 40, 57, -42, 32, 38, -48, 25, -43, 12, -24, -29, -41, -25, -9, 53, -15, 34, 7, 44, 20, 30, -27, -52, -9, -5, -29, 38, 31, -2, 22, -33, 1, 41, 12, 44, 4, -31, -41, 38, 43, -62, 48, 17, -7, -56, -41, 54, 17, -60, 40, 27, -5, 25, -45, 36, 23, 21, -42, -11, 22, -5, 41, 8, -31, 34, -10, 48, -7, 15, -22, 8, 11, -42, 3, -3, -45, -16, 24, 43, 20, 38, -41, 15, -51, -43, -45, 14, 16, -32, 12, 36, -57, 11, -24, -18, -51, 41, -20, -9, 45, 26, 7, -43, -45, -24, 12, -53, 28, -59, 31, 2, -40, -1, -43, 44, 17, -25, 31, -44, 2, 41, -5, 24, -56, 6, 29, 25, -21, -24, -7, -17, -38, 24, -16, 20, 46, 19, 33, -1, 22, 34, -8, 23, 7, -4, 18, -47, -16, 27, -5, 27, 45, -27, 2, 25, 11, 8, -1, -14, -37, 17, 8, -12, 0, 48, 27, 38, -18, 14, -53, -39, -39, -21, 9, -51, 31, 54, 41, -21, 12, -12, -2, -20, 14, 5, -27, -26, 5, -45, -57, 31, 31, -41, 17, 25, 5, 53, 29, -26, -63, -17, 29, 37, -38, 38, -34, 13, -23, -28, 29, 31, 2, 36, -10, -43, 38, 5, 16, -26, 22, -49, 8, 16, 1, -42, -44, 14, 26, 51, -41, 16, -16, -28, 27, -20, -58, -40, -12, -24, -45, 2, -54, 38, -18, -4, 20, -13, -1, 12, 42, 9, -43, 2, -33, -25, 24, -18, -47, -30, -48, 34, 12, -20, -35, 19, 18, 8, 30, 6, -31, -2, -3, 1, 48, 6, 13, 51, -36, -35, 42, 36, 22, 32, -22, -30, -34, 33, 37, 34, 42, 15, 22, -2, 48, 5, -17, 51, -2, -4, 20, -13, 8, 69, 30, 32, 44, 1, -15, 46, 4, -22, 41, -24, 12, 42, 42, -21, 20, -43, 56, -37, 40, 6, 17, -48, -24, 13, 22, -59, -45, -16, -54, 34, 16, 60, 23, -59, 53, 28, 54, 56, -5, -27, -33, -12, -27, 46, 39, 0, -46, -25, 36, 53, -38, 31, -9, 4, 51, 21, -44, -2, 11, 12, -43, 20, 5, -5, 30, -52, 55, -35, -18, 21, -1, 29, -41, -17, 27, -20, -31, 9, -19, -5, -10, -61, -48, 44, 44, 36, -4, 35, -9, -55, -17, -21, -36, 26, -29, -43, 13, 31, 15, -15, 46, -43, 11, -2, -40, -10, -47, 40, 45, -34, -22, 31, 28, -16, 40, -41, 14, 27, 17, 8, -8, -13, -31, -36, -39, -24, 29, 17, 18, -12, -55, -52, -31, -10, -9, -4, 53, 2, -1, -9, -34, 0, 43, -40, 40, -49, -1, 25, -13, -8, 9, 0, 31, 23, 25, -50, 42, 13, -3, 43, -30, -38, 0, -26, 2, -18, -4, 12, 51, -39, -23, 41, -67, -52, -26, -21, 43, -9, -15, -7, -42, 2, -39, 1, -1, -26, 43, 19, 37, -31, 34, -46, 24, -43, -35, 19, 42, -45, 33, -11, 14, -27, 8, 0, -27, -39, -13, 33, 34, 35, -3, -5, 10, -21, 36, -37, -15, 10, 13, -7, -31, 27, -18, -25, -16, -32, 23, -41, -20, -25, -57, -7, 57, -19, 28, 26, 6, -6, -33, 1, -28, 44, -75, -33, 13, 32, 10, -20, -13, 27, 28, 59, 33, -39, -2, 23, 45, -41, -28, -26, 10, -42, 0, 23, 15, -58, 13, 28, 33, -43, -39, -51, 43, 1, -41, -2, -5, 51, -72, 23, -47, -12, 0, -8, 48, -14, 23, 5, -40, -38, 0, -30, -8, 40, -42, 34, 36, 9, 58, -6, -21, 53, -14, -28, -4, -7, -43, -57, -21, 13, -43, 27, 24, -21, -57, 12, 14, 12, -41, 65, 9, -12, -50, 21, -23, -31, 47, 47, 48, 29, -26, -29, 54, 35, -30, -22, -34, 50, -44, 41, -37, 16, 5, 25, -30, -31, -45, 40, -9, 50, 38, -45, 12, 8, 23, 11, -8, 45, -33, -50, -70, 21, -35, -9, 54, 32, -59, -46, 47, 67, -2, 6, -42, 22, -27, -42, -28, 48, -18, 17, 62, 23, -60, 21, 0, 21, 48, -54, 32, -50, 43, -12, -21, 42, -29, 23, -14, 30, -6, 41, 47, -10, -16, -8, 29, -34, -50, -28, 48, -63, -38, 32, 30, 49, -20, 12, 6, -15, -12, -26, 52, 24, 3, -53, -4, -20, 47, 58, -30, -30, 18, -22, 33, -40, -21, -33, -29, 43, 29, -4, -36, -25, -9, 47, -26, 58, -12, -62, -56, 15, 69, -16, 45, -27, -63, 39, 15, -33, -19, 39, -34, 7, -37, -43, 20, 32, 43, 30, 22, 15, -29, 33, -1, -14, -14, 55, 10, 24, 17, 33, -16, 18, -8, 30, 33, 34, -57, 16, 7, -51, 3, 8, -13, -10, -43, 6, 16, -11, -49, -53, -49, 48, 11, 12, 42, 15, -3, 25, 2, -46, -6, 41, -18, -48, -2, -19, -18, -39, -30, 20, 8, 45, 4, -35, 14, 19, 22, 50, 36, 18, -42, -42, -27, 26, 19, 7, -39, -2, -24, 12, -33, 3, 37, 25, -10, 39, 54, -52, 40, 3, 17, 17, 15, 26, -13, 34, 8, -22, 20, -28, 23, 4, 33, 15, 20, -58, -30, -5, -15, -16, -21, 5, 30, -27, -31, 4, -50, 43, 33, -17, 50, -35, 9, -40, 43, 17, -43, 30, 17, -7, 30, -47, 6, 15, 16, -40, 3, -35, 25, 30, -48, -10, -19, -50, 36, -39, -33, 41, 8, -28, 13, -11, 24, 17, -14, -40, 14, -33, 35, 38, 23, 24, -7, 21, -26, -23, 43, 29, -35, 28, 5, 12, -23, -18, 21, 29, -38, 27, 33, -3, 6, -25, -20, -39, 40, -41, 5, 11, -2, -21, -41, -7, -33, -25, 35, 13, 30, -36, 44, -20, 37, -51, -5, -28, 43, 23, -52, -33, 21, -21, -2, 30, -40, -32, 53, -7, 44, 18, 12, -25, 2, -4, 11, -21, 18, 43, 33, -44, 25, -34, -21, 19, -27, 8, 7, -30, -25, 17, -9, 23, 30, -5, -45, 24, -20, 14, 10, 38, -15, 29, -25, 3, -31, -8, 15, -7, -13, 39, -7, -14, -9, 23, 29, -24, 0, -43, 37, -34, -55, -5, -30, 27, 26, -33, 30, -35, -29, 24, -2, 20, -43, 21, -21, -19, 16, 40, -8, -22, -55, -17, -37, 13, 25, -7, 32, 32, 31, 41, -29, -33, -3, 10, -33, -8, 29, 18, 23, 28, 7, 25, 20, 43, -4, -6, -55, 43, -15, -21, -13, -21, -37, 47, 40, -21, 38, -33, 13, 6, 7, -8, 32, -1, 21, 8, -12, 4, -9, 33, -2, 15, 18, 41, 39, -7, 2, -20, -23, -7, 18, 4, 20, -26, 46, -9, 27, 54, -31, -6, -16, -45, 3, 23, 34, -24, -31, -16, -10, -23, -23, 42, -32, -45, -42, -16, 38, -31, 36, -20, 24, 25, 16, 16, 26, -26, -42, 17, 3, -32, -26, 32, -11, 28, -34, -26, 15, -14, 41, -23, -21, 9, -39, -26, -14, 25, -33, -15, 49, 16, -47, -7, -19, -7, -1, 5, 30, -25, -15, -47, 4, -32, -4, 28, -26, -35, -8, -2, -34, -27, 31, 11, -39, 28, 13, 24, 21, 8, 1, -36, 27, 6, -2, -24, -3, -24, -36, -10, -13, -34, 13, 12, -16, 29, 0, -38, 26, 30, -28, -32, -2, 24, 11, -26, 6, -17, 0, -15, -12, -32, -7, -15, -31, -37, 1, -18, -40, -22, -8, -33, -39, 20, -16, -30, 1, 25, -5, -16, -10, 6, 19, -9, -12, -29, -32, -5, 26, -7, -37, 31, -6, 25, -10, 28, 1, -19, 26, -29, 2, 18, 29, 11, 27, 21, -44, -28, 35, -17, -29, 5, -18, -30, 8, -7, -37, -34, -32, -29, -27, -26, -1, -26, 31, 11, -18, -30, -18, -39, 5, 32, 37, 12, 33, 17, 20, 3, 25, 9, -10, -20, 20, 33, 35, -37, 37, -27, -31, -15, -15, 23, 4, 20, 5, -26, 11, 32, -15, 39, 0, 15, 32, 3, 15, 7, -29, 6, -9, 26, 37, -3, 41, 12, 10, 33, 3, 19, 37, -14, 27, -2, 6, -18, 17, -18, -24, 35, 28, 17, -3, -22, -27, -16, -27, 10, -16, -12, -35, 25, -17, 33, 20, -31, -32, -5, -16, 3, -11, -24, -11, -33, 3, 18, 11, -32, 24, -5, 29, -32, 15, 11, -19, -38, 13, -39, 12, -4, 32, -40, 34, 13, -26, 0, 32, -24, 19, -9, 22, -9, 0, 37, 35, -21, -17, 9, -25, -37, -13, 15, -21, 5, -43, -31, 18, -13, -30, -5, 26, -29, 12, -31, -1, 29, 13, -39, -4, 15, 21, -9, 33, 45, -5, -39, -49, -18, -31, 27, 6, -29, -2, 26, 32, -15, -60, -16, -23, 25, -3, 4, 25, 24, -37, 54, 9, 28, -38, 24, -48, -29, 22, -25, 31, 21, -2, 40, 2, -17, -25, 8, 29, -5, -8, -18, -11, 31, -28, -7, -24, 4, 1, 25, -15, -20, -23, -21, 2, 25, 0, 37, 13, -12, 34, 15, 38, -24, 0, 21, -3, 29, 20, -28, 19, 32, 42, 0, 40, 40, -22, -5, 27, -41, -34, 14, -41, 15, -13, 4, -28, 2, -25, -8, -19, -36, -23, -36, 31, -1, -45, -8, 29, 36, 1, 40, -1, 28, 27, 10, -28, -10, 1, -40, -40, -18, -28, -52, 8, 52, 18, 9, -26, -12, 41, 30, -18, -5, 13, -15, -25, 34, -20, 23, -51, -25, 40, 38, -12, 15, -14, 39, -11, 24, -20, 3, 17, 22, -8, -2, 38, -33, 39, -38, 54, -7, -25, -6, 27, 26, -9, 29, -8, -33, -1, -19, -21, -14, 5, 8, 39, -8, 34, 29, 32, 12, 22, -17, 27, -32, 12, -19, 26, -6, 12, 26, 42, 2, -38, -10, 9, 29, 17, -46, 13, -40, 30, -37, 31, -37, -33, 43, 39, 33, 6, 9, 2, -23, -11, 6, -1, -7, 28, -7, 42, 28, -33, 39, -43, 14, -14, -39, 12, -42, 43, -2, -9, -9, -39, -13, -5, 22, -6, -19, 30, -2, -5, -40, -40, 34, 32, 22, 16, 13, 1, 1, -36, -39, 32, -44, -23, -37, -12, -33, -25, -37, -2, -36, -35, 55, -38, 36, -13, -2, 23, -40, -58, -48, -19, 13, -48, 5, 16, 2, 49, 14, -13, 31, -2, 13, 48, 19, 44, -7, -33, 1, 43, -7, 11, -46, 24, 5, -19, 36, 51, -1, -11, 6, -20, -3, 21, -44, -14, 13, 12, -20, 36, 46, -35, 8, -28, 30, 5, -46, -44, -21, -33, -34, 42, -45, -18, 32, -28, 40, 22, 40, -39, 35, 8, -8, 10, 1, 9, -13, -41, 16, -4, 22, 22, 9, -31, -28, -39, 36, -21, 30, 30, -21, -33, 36, -23, 6, 37, -6, -38, 37, 12, -6, -48, 23, 37, 2, 9, -56, -31, -32, 37, -9, -44, -66, 9, -10, 27, 0, -40, 33, 36, 21, -1, -47, 20, 39, -30, 16, -18, -19, 26, -4, 2, -22, 32, -22, -38, 13, -28, 49, -1, -33, 40, -2, -54, 23, -39, -22, 6, 19, -32, 26, -31, 29, -34, 33, -45, -13, 3, -20, 36, -4, 24, 36, -30, 34, 9, -26, -27, 49, 0, -17, 23, 9, 9, 53, 42, -37, -27, -38, -6, -15, 16, -9, -31, 30, 3, 44, 31, 43, -22, -41, -10, -39, -22, 2, 27, 31, -1, 14, 7, -9, 32, -18, -17, 50, 25, 43, 32, 37, -31, -34, -11, -24, 12, -23, 28, -36, -6, -40, -54, 31, 32, -24, -54, -3, 8, 24, -31, 21, -9, -39, 9, 7, -45, 20, 6, -57, -29, -4, 1, -24, -30, -12, 53, 24, -41, -11, -20, -47, 16, -43, 34, -52, -1, -50, -1, -9, -1, 22, 38, -58, -37, -28, -4, 37, -48, 14, -18, 25, 0, -9, 26, 40, 34, 15, -5, -6, 37, 37, 0, 35, -49, 30, -16, 18, 38, -31, 48, 31, -37, -15, 14, 22, 10, -2, 10, -13, 16, 14, 23, -14, -6, 35, 17, -13, 11, -31, -29, -17, -12, 24, -8, 17, -24, -19, 38, -27, 4, 2, -6, 5, 14, 26, -20, -14, 13, -1, 25, -12, -27, 29, 14, 1, 22, -14, 1, 15, 32, -3, -7, -29, -23, -8, 15, 1, 32, 8, -12, 11, 19, -17, -12, -23, 8, -34, -3, 19, 18, 28, -5, -22, 8, 25, 8, 9, 26, 0, -25, 17, -23, 12, -20, -12, -15, 11, 17, 16, -30, 21, 12, -1, 26, 17, 19, 5, 1, 19, -18, 29, -29, 9, 11, 26, -20, -8, 23, -26, 1, 26, 26, 15, 9, 19, -11, 28, 25, -3, -9, 3, 22, 39, -24, -31, 29, -5, -13, -32, 23, 31, 18, -14, 24, -30, -4, -29, 10, 6, -6, -3, -16, 0, 18, 23, 26, 12, -31, -23, 14, 17, -15, 36, -20, 1, 10, 10, 7, 13, 9, -24, -10, -27, 7, 1, -27, 4, 28, -18, 38, 3, 19, -31, 25, -9, 29, -25, 27, 40, 26, -5, 36, 17, 33, 29, 4, 31, -23, -25, -22, -26, 20, -25, -9, -6, 6, 10, -26, 27, -34, -13, -10, -27, -2, 28, -18, 23, 18, -13, 31, 16, -1, -18, -13, 14, 3, -25, 11, -7, 28, 19, -29, -25, 2, -28, 0, -33, -26, -34, 26, -30, -14, 6, -2, 1, 28, -30, -8, -27, -1, 15, 1, 11, -25, 34, 30, -6, 2, 26, 24, 25, -9, -9, 0, -16, 28, -15, -18, -14, -12, 12, 28, -25, 31, 22, -4, 7, 24, -29, -13, -26, -22, -20, -17, 2, 5, 16, -1, -25, 23, 6, -7, 36, -24, 25, 10, -28, -12, 25, 2, 14, 26, 12, 33, 14, 37, 36, 20, 5, -31, 43, -2, 20, -27, -12, 13, 24, 46, 34, 10, -28, -27, 26, -20, -30, -23, -18, 25, -6, -19, -24, 33, -13, -10, 41, 26, 38, -7, -2, 4, 17, 41, 15, 36, 3, -7, 25, -4, 30, 23, -18, -8, -36, -34, -31, 8, 30, -1, -13, -11, -12, -26, -24, 12, 6, -10, 8, -26, -34, 23, 29, -4, -6, 9, -26, -11, -12, 28, 18, -30, -40, 36, -10, 1, -18, 23, 11, 26, -11, 41, 23, 24, -23, -15, 8, 40, 28, -19, -25, -4, -3, 4, -35, 0, 38, -41, -31, -20, -36, -31, -30, -6, -41, 10, 32, -31, 13, -3, 29, 26, 21, -33, 14, 26, 18, -41, -34, 4, 36, 30, 49, -31, -1, 14, 42, 39, 5, -39, -53, -12, 9, 3, -31, -7, -30, 39, -17, 7, 21, -6, -7, 8, -35, 20, -13, 36, 1, -45, -38, 22, 8, 6, 17, 5, -3, -8, -21, 9, -36, 25, 26, 33, 50, -20, 31, -9, -22, 34, -20, -8, 5, 24, -29, -23, 30, 32, -18, -15, 11, -27, 32, -37, 8, 33, -32, -6, -10, -13, 4, 42, 24, -2, -8, 3, 22, -38, -13, 1, 22, 17, 21, -21, 7, -12, 49, -1, 10, -21, 24, 26, -38, -32, -40, -26, 18, -11, 3, -17, -43, 25, 33, 4, -19, 3, -13, -3, -2, 39, 17, -35, -9, -22, -24, 12, -17, 12, 25, 4, -1, 9, -24, -15, -19, -6, 30, 14, -22, 15, -8, -6, -5, -17, 25, 30, 33, -21, -37, -34, -7, 23, -12, -17, 4, -25, -33, -24, -39, -36, -3, -35, -41, -1, -8, -12, -30, 16, -25, 23, -9, 17, -28, -24, -31, -4, 9, 18, -6, -10, 12, -37, 16, 3, 33, -34, -15, 25, -38, 4, -19, 11, 22, 19, -1, 11, 22, 22, 23, 16, -12, -19, -20, 9, -15, 9, 11, 10, -27, -11, 8, -4, -37, -7, -6, -9, 26, 2, 31, 42, -8, 18, 10, -6, 18, 31, -30, 23, 22, -30, -13, -12, 14, -9, 24, 1, 17, -34, 11, -10, 29, -9, -5, 24, 9, -8, -16, 5, 22, -11, 17, -31, 1, -4, -1, -13, -25, -29, 2, -31, 29, -30, -22, 17, -9, -23, -13, -19, 5, -21, 1, -33, -4, 38, 11, -8, -24, -9, -22, 30, 4, -14, -20, -29, -7, 3, -33, 23, 20, 12, 8, 0, -29, 20, 11, -1, -13, 34, 17, -25, 18, 5, -21, -16, -17, 19, -14, -25, -20, -24, 31, -1, 6, -22, -10, 41, 20, 9, 25, 0, -21, -26, -5, 9, -35, 11, -21, -1, -31, 14, -18, -11, -37, 6, -8, -31, -3, -25, 24, -2, 9, 22, -7, -12, -30, -3, -4, -3, -26, 30, -5, -10, -6, -16, -34, 14, -9, 4, 26, -20, -23, -20, 10, 8, -2, -29, -14, 33, -9, -15, 5, 19, 17, -17, -24, 33, 32, -29, 22, -15, 12, 26, 7, 26, 23, -28, -3, 37, 21, 1, 20, 24, -1, 0, -25, 7, 28, -6, -24, -5, 0, 40, 27, -5, 0, -24, 11, 5, -15, -24, 21, 3, -12, -15, 7, 27, 19, -22, -34, -24, 18, -31, 5, 28, 10, 9, -27, -29, 10, 20, -20, 28, -17, -31, -22, -13, -5, -35, -17, -3, 1, -27, -8, -25, 1, -22, -9, -5, 2, -23, -21, 37, 5, 2, -3, 17, -5, 13, -17, -10, 19, -13, -4, 25, 10, 0, -33, -9, -24, 13, 6, -7, -15, -20, 2, -31, -5, 9, 14, -26, -30, 28, 33, 25, -5, 20, -26, -9, 4, -12, 13, 18, -4, 4, -25, -24, -17, -28, 26, 7, 34, -7, 16, -20, -13, 11, 7, 19, -10, -15, -20, -10, 1, -20, -17, -15, 32, -28, 29, 16, -15, 38, -28, 29, -5, -26, 0, -19, 18, 38, 26, -22, 0, 20, 17, -10, 21, -8, 16, -15, -15, -28, 10, -4, 17, -9, 26, 23, 26, 19, -24, -10, 0, 11, 18, 29, 3, -20, 27, -10, -14, 10, -23, 0, 20, 25, 23, 24, -13, 18, -19, 29, -5, -28, 24, -31, -7, -27, 6, -6, 38, -41, -10, -2, 5, -2, -7, 23, 7, -2, 16, 30, -22, 20, -13, 7, 14, -17, -8, 10, 40, 27, -39, -35, 24, -16, 9, 14, 16, 10, 18, -28, -17, -8, 16, 34, 0, 34, -9, -17, 7, -24, -19, -3, -33, 32, 22, -7, -29, 5, 22, 19, 30, -15, -28, -19, 20, 18, -6, -15, -4, 14, -28, 9, 2, 11, 14, -18, -9, -27, -17, 5, -4, 25, 11, 14, 23, 26, -30, 4, -15, 8, 13, 39, 3, 2, -17, 30, 19, 18, 21, -1, -32, -22, 32, 4, 11, 8, 2, 13, 19, -32, 21, 25, -12, 33, -25, 12, 8, -10, 4, 7, 13, 13, -28, -22, 8, -7, -38, 16, 10, 32, 24, -32, 24, 22, 1, -22, 17, -15, 19, -23, -5, 28, -31, -24, -19, -6, -3, 0, 2, 20, -4, -29, 18, -7, -10, -32, -32, -13, 20, -19, -17, 34, 16, 26, 13, -15, 21, 5, 10, 18, -15, 19, -24, -13, 16, -8, -32, -35, -27, 2, 9, -10, 33, -30, -11, -7, -8, -21, -14, 23, 6, 12, -28, 18, -13, -37, 23, -28, 5, -15, 12, 19, 0, -9, 2, -5, 10, 34, -14, 25, 4, -10, 6, -1, -18, 20, 5, 23, -5, 34, -2, -33, 38, -21, -26, 6, -42, -14, -14, -31, 15, -15, -10, 9, 15, 2, -12, -27, -29, -22, -11, -10, 30, -35, -27, -24, -33, -13, -30, -32, 14, -1, -3, -34, -41, 8, 9, -40, -18, 18, -31, 22, -23, 7, 29, 2, -20, 11, -25, -15, -20, -5, -13, 17, -36, -30, 29, 25, 17, 3, 16, -41, -1, -4, -5, 18, -19, -31, -1, -19, -20, -16, 43, 9, -13, 9, -19, 4, -19, -21, 28, -26, 17, -32, -10, 36, -6, -21, -7, 36, -17, -11, -35, 3, -20, -8, -3, -28, 23, 2, 24, 28, 2, 7, 21, 40, -13, -17, -15, 26, -2, 11, 15, -25, 30, 17, -25, -14, 30, -28, -16, 8, 3, 0, -4, 3, -21, -9, -30, -24, -3, 14, -5, -17, 15, -1, -17, 11, -18, 23, 6, 21, 4, 11, -21, 13, 18, -16, 2, -4, -22, -29, 3, 3, 15, -13, -15, -1, -10, 15, -10, -8, -5, -17, 10, -25, 3, 17, 31, 1, 27, 34, 6, 27, 9, 9, 9, -24, 30, -9, 25, 21, -19, -13, -17, -12, 8, 22, -30, 9, -6, -4, 18, -8, -25, -16, 14, 14, -23, -22, -21, 24, -20, -4, 26, 1, 11, -31, -4, 16, -13, 30, -37, 21, 27, 30, -29, -7, 19, -22, 12, -31, -22, 10, 17, -15, 28, -16, 28, -1, -32, 6, -15, -22, 1, -13, 17, 8, -28, -18, 6, 2, -31, -2, -13, 17, 31, 42, -38, -10, 23, -4, -6, 29, 31, 8, -14, -4, 27, -19, 13, -35, -27, -22, 18, -15, -34, 10, -28, -5, 31, -12, 16, 27, -38, 19, 10, 25, 42, -8, -29, 17, 25, -5, 2, -23, 31, 19, 20, 6, 9, 12, 10, -28, -5, -37, -25, -25, -29, -26, 2, 36, 10, 30, 14, -16, 0, 22, -3, 8, -4, 18, 19, -3, 3, -11, -13, 24, 28, 36, -6, 20, 18, -4, 20, -6, -12, 28, -26, -2, 27, -15, -11, -5, 2, -19, -1, 40, 1, 29, 41, 32, -4, -28, 29, -3, 33, 24, -18, -18, -10, -1, -38, -31, 10, -21, 7, -17, 30, -9, -20, -14, -1, 9, -20, 2, 46, 14, 31, 4, 32, 6, 33, 36, -8, -9, 23, -19, 40, 9, -38, 2, 5, 40, 18, 18, -9, -8, -19, -38, 7, -40, -20, -18, -26, -14, -3, 12, 15, -13, 21, -32, -23, -17, 35, -30, -2, 29, -22, 26, -22, 14, 21, 7, 6, -5, 19, 29, -21, -26, 39, -30, -10, 18, 38, -27, -30, -8, -23, 17, -12, 1, 22, 34, 5, -23, -12, 12, 33, -9, -31, -5, 34, -6, -28, 6, -3, -21, 5, 14, -10, -4, 5, -32, 15, -12, -4, -29, 4, -2, -8, -12, 13, -23, 7, -11, 15, -38, -21, -23, 39, -21, -27, 2, 38, 28, 20, 22, 31, -23, 11, 9, 8, -20, -33, -33, 25, 12, 27, 9, -29, 9, -37, 38, 26, -31, -4, 24, 17, 31, 8, -6, 24, -36, 12, 7, 42, -16, -25, 13, 6, 1, -14, 8, -11, 25, -27, -7, 29, -22, 43, 24, 35, 29, 29, -6, -10, 19, -25, 1, -27, 1, 12, 1, -28, -30, 6, -28, -31, -28, 21, 11, 20, 20, -41, -9, -22, -4, -3, -24, 27, -31, -6, -40, -34, -6, 22, -23, 35, -9, -32, -26, 28, 0, -5, -18, -2, 0, 5, 1, 31, -29, 22, -31, 4, 30, 14, 35, -1, 7, 14, -2, -37, -11, 21, 10, 29, 10, 20, -4, 0, 30, 23, -15, -4, -23, -23, 41, -4, -10, -6, 24, 3, 34, -23, 3, 12, 26, -23, 13, 26, -12, -19, 22, 28, -36, -37, -9, -29, -19, 16, 30, 19, 10, 21, 35, 16, -10, 1, 22, 20, 5, -3, 12, 35, -1, -32, -31, 20, 2, -25, 33, 31, 13, 9, -11, -5, -11, 0, -19, 30, 33, 38, 9, 29, 15, -8, 20, -29, -10, 26, 20, 35, 10, 3, 30, 28, 33, -27, -35, -26, -16, 11, 34, 17, -12, 14, 27, 9, 22, -23, -9, -31, 37, 16, -23, -16, 24, 35, 9, -29, 4, -28, 44, -29, -28, -25, -13, -24, -15, -26, 24, 16, -33, 9, 1, -20, 31, -9, -2, -4, -24, -32, 18, 10, -24, -29, 20, -30, 25, -8, 39, -8, -24, -13, -4, -25, 20, -4, 29, 3, -14, -31, 33, 1, -3, 29, 4, -21, 3, -14, 22, 17, -25, 24, -3, -15, 27, -3, 29, 30, 23, 7, 22, -34, 31, 37, 11, 19, 27, -5, 0, -18, 29, -23, -16, -25, 2, 6, 18, 32, 19, 3, -10, 22, -12, -21, -31, 5, -8, -24, -41, -6, -13, -19, 1, 31, 26, 31, 4, -2, -12, -6, 25, 15, 18, 9, 9, 27, 24, 27, 2, 13, 38, -3, -14, 20, -22, 12, 22, 17, -2, 5, 37, 30, -6, 19, 15, -1, -32, -20, -8, -8, -17, -27, 20, 34, 9, 47, -20, 35, 14, 5, -25, -30, -33, 3, -33, 4, 23, -33, -6, 27, -9, -43, -18, -5, -20, -17, 27, 14, 3, -9, -31, -4, 44, -14, 6, -9, -13, 33, 4, -19, -9, -13, 44, 31, -35, -2, -11, -3, 15, 26, 2, 5, 12, -10, -29, 18, -15, 37, -6, 30, 27, 11, 33, 2, -44, 11, 22, -2, 1, -13, 24, -38, 11, -10, -14, -19, 39, -10, 23, -7, 11, 44, 9, 10, -14, -28, 2, -10, 15, 32, 24, -16, 24, 17, -10, -12, 3, 23, -8, 38, -28, -6, 31, -28, 13, -27, -13, -9, 37, -3, -10, -4, -39, 20, -11, -3, 31, 28, 30, -24, -29, 16, -11, -6, -30, -24, 20, -30, -8, 34, -38, -25, 20, 33, 10, 14, -8, -32, 43, 33, 31, 25, 26, -4, 1, 0, 10, -27, 10, 8, -16, -11, -36, -6, 38, 14, 0, 33, 26, 15, 4, 17, -17, 4, 31, 7, 1, 39, 18, -11, 27, 11, 17, 5, 34, -20, -4, 25, -26, -26, 22, -22, -16, 23, -34, -30, 36, -41, -7, -24, 12, 16, -15, -17, 16, 6, -27, 9, -10, 26, -42, -1, 13, 10, -19, 14, 24, -21, -6, 35, -41, 33, 25, -38, -29, 0, -33, -37, -31, 35, 11, 42, 6, 37, 8, 21, -21, 12, -21, -15, 26, 25, 40, -20, 1, -43, 17, -11, -41, 24, -46, 10, 3, 29, 37, -41, -5, -6, -15, -24, -23, 0, 5, -14, 26, 48, -19, -19, 38, 35, 4, 20, 1, 1, 17, 27, -13, 22, -13, -30, 12, -24, 40, 9, -9, 41, -20, -19, -11, 1, -21, 23, 32, 20, -24, -21, 19, 40, 26, 11, -5, 4, -10, 17, 29, 8, 40, 10, 2, 16, -15, -24, -11, -11, 24, 22, -22, 27, 26, -8, -13, 8, 13, -12, -32, -16, -33, 9, 29, -6, -4, -6, 6, -5, -7, -18, -7, 22, -29, 34, 23, -20, -3, 25, 32, 10, 0, -11, -20, -19, -6, 10, 26, 41, 0, -23, -16, 11, 20, 12, 21, 13, 24, 19, 40, 35, 0, 18, -15, -39, -30, 4, -5, -19, 6, 36, -6, -7, 6, 0, 30, 34, 9, 0, -21, -8, 0, -7, 0, 16, -6, 19, 10, 41, 24, -12, -15, -26, 28, 7, -14, 15, -18, -24, 15, 11, 10, 24, 7, 11, 27, 8, -5, 40, -14, -13, 0, -32, 22, 26, -29, 24, -25, 11, -20, -3, 10, 7, 8, -35, 17, -24, 1, 17, 17, 44, -9, -25, -3, -29, 3, 12, 23, 17, -17, 30, -14, 18, 11, 36, -24, 7, 28, 23, 31, -17, 13, -10, 21, -5, -12, -30, 5, -18, -29, 14, -16, 22, 29, -13, 17, 18, -24, -36, -21, -31, 29, 22, 25, -7, -5, 6, 16, -14, -11, 29, -4, -16, -24, -12, -11, 0, -29, -18, -10, -7, 2, -35, 30, -23, 5, -16, -12, 14, -19, 25, -30, 11, -26, -14, -36, -30, 9, 25, 15, 8, -25, 16, 3, -16, 15, -11, 38, 29, 34, -32, -26, 26, -36, 14, -5, 7, 2, 26, 25, -18, -3, -32, 34, 5, -13, 31, 10, 17, -9, -32, -29, -7, 15, 8, 20, 23, -32, -2, 15, 18, 17, 12, -17, -30, -33, -24, 4, 33, 14, -31, 24, 8, -10, -19, -19, 4, 24, 16, -5, 20, -19, 18, -24, -34, -33, 26, -3, -17, 2, 49, 14, 44, -1, 33, -19, -20, -34, 24, -39, 28, -1, -4, 1, 23, -9, 21, 27, 26, 38, 32, 3, -31, -5, 34, 20, 6, -30, 44, -25, 11, -30, -2, 1, -23, -27, 31, -10, 43, -31, -36, 8, -2, 25, -14, 2, 38, 37, 5, 14, 3, -28, 25, -10, -38, 15, -42, 3, -12, 26, 9, -22, -23, 30, -34, 15, -18, 7, 41, -24, -16, 11, -13, -27, 5, -11, -5, 45, 14, 19, 23, -23, 18, 15, 18, -12, -23, 37, 14, 12, -35, 36, 34, -20, -21, -37, 43, 33, 20, 19, 38, 5, -5, 22, 44, 10, -4, 10, -20, 6, 46, -15, 42, 13, 14, 29, -34, 13, -2, -38, -9, 42, 35, -11, 9, -42, -39, 19, -29, 16, 1, -46, -29, 12, -30, 27, 0, 29, 26, 29, -26, 2, 15, 39, 0, -38, 29, 30, -36, -7, -27, 28, -24, -30, 8, 41, 33, 41, -32, -11, -23, 21, 40, 16, -30, 8, -25, -4, 24, 23, 3, -32, -30, 37, -21, -16, 26, -22, -37, -19, 12, 21, 20, 5, 22, -27, -24, -21, -14, 23, -46, 45, -37, 11, 32, 10, 4, 13, -6, 30, -19, -42, 41, 1, -7, 4, 25, -13, -14, -36, -24, -39, -24, 1, -38, 12, -21, 36, -21, -27, -31, 25, -17, -5, 1, 21, -20, -2, -4, 42, -27, -8, 13, 14, -16, 10, 17, 16, -14, -2, -29, 27, 4, 21, 5, -26, -3, -31, 33, 36, 48, 30, 4, 12, -14, 37, -37, 22, 12, 38, -6, -22, 5, 17, -35, -30, -15, 7, -22, 1, 0, -35, 22, -32, 11, 7, -36, 20, -28, 2, -12, -2, -3, 32, 31, -5, 0, -41, 20, -15, -35, 36, -44, 46, -44, -14, -12, 33, 5, -40, 5, -26, -42, 13, 38, 23, 15, 8, 21, 24, 9, 31, -13, -19, 43, 7, -17, -17, 5, 13, -52, -41, -37, -23, -53, 16, -51, 15, 16, 26, 3, -29, 32, -26, 33, 36, -43, -2, -26, 24, 18, -7, -19, -26, -43, 43, -25, -15, -14, 23, -2, -45, 24, -2, -32, -43, -44, -12, 38, 17, -28, -9, 36, 25, -17, -8, -50, -38, 32, -13, 2, -4, 36, 23, 18, -27, -35, 23, -6, -34, 31, -29, -17, -17, -28, 20, 42, -22, -50, -9, 25, 0, -34, 30, 13, -4, 19, -9, 14, -3, -27, -26, 17, -25, 37, -20, 19, -9, 32, 19, 33, -14, -38, 21, -32, 29, 41, 34, 3, 24, 6, -3, -30, 53, 0, 25, 12, 28, 7, 31, -21, -41, -27, 25, -2, -22, -29, -38, 19, 37, -22, -18, 1, 42, -17, -30, 24, -50, -41, -17, -3, 11, 36, -48, -32, -8, -17, 32, 11, -25, -8, -40, -11, -14, -29, -39, 9, 16, 0, -38, 5, -10, 17, -34, -34, 31, 5, 17, 1, -29, -9, -22, 10, 22, 32, 19, 37, -34, 28, -6, -10, 30, -43, 42, -31, 9, -1, 23, -40, 16, 29, 47, -31, 39, -46, 2, -18, 33, 14, 14, 3, -16, -30, -15, 1, -13, 36, 0, 32, 48, 14, 7, 30, -11, -17, -26, 0, 0, 39, 21, -35, 49, -31, 6, -21, 44, 38, 0, -23, -23, 32, 46, -26, 2, -29, 43, 27, 43, -25, 8, -21, 33, -2, -39, 58, 30, -43, 41, 22, 5, 0, 33, 13, -32, -13, -38, -27, 11, -7, -12, 26, -31, -16, 24, 43, 4, 28, 47, -51, 7, -5, 43, -21, 20, 22, 47, 2, -42, -41, -42, -7, -53, -53, -23, 12, 4, 12, -6, -28, -50, -5, -39, -4, -27, -20, 35, -5, 27, -14, -58, -19, 44, -39, -30, 28, 18, 24, 5, -6, -8, -37, -15, 32, -33, 41, 27, -19, -15, -29, -20, -37, -44, 57, 45, -37, -4, 14, 34, -34, -4, 7, 49, 34, -15, 27, -38, -29, -3, -34, -22, -51, -2, -9, 25, 40, -43, 15, 44, 43, 21, -11, 20, -3, -30, 14, -35, -13, 22, -43, -11, -1, -28, 11, 34, 33, -50, 13, 45, 11, 31, 15, -3, -35, 14, -21, -59, -28, -37, 41, -36, -38, -26, -25, -7, 9, -20, 14, 48, 26, -19, -35, 6, -27, -33, 1, -9, -38, 18, -9, -29, 28, -14, 38, 27, -16, -45, -63, -45, -27, 29, 25, -9, 38, 16, 40, 32, -12, 1, 6, -21, 39, 13, 36, -35, 16, -14, -37, 34, 2, 26, -29, -29, 21, 26, 35, 10, 22, -12, -8, 29, -45, 14, -10, 35, 10, 35, 25, -24, -15, 21, -25, 0, -17, 43, 11, 54, 54, -6, -8, -46, -8, 10, 33, -27, -27, -30, -43, 54, 44, 18, 12, 28, 28, -29, -42, -11, 21, -34, -27, -47, -26, 11, 16, 22, 32, 37, -20, 14, 9, -33, 26, -49, -52, -45, 22, 26, 5, -3, 34, 22, -33, 38, -20, -58, -19, 15, 14, 32, 24, -40, -28, -30, 0, -26, 45, -5, -5, -3, 44, 38, 29, -39, 22, -5, -32, -21, 42, -12, -42, -6, -47, 28, 36, -7, 40, -25, 35, -3, 38, 23, -40, 46, -40, -22, -26, -33, 3, -3, -8, 12, 8, 28, -19, -8, -35, 22, 12, -36, -10, 30, 32, -31, -5, -29, 16, 22, 33, 20, -1, 16, 15, 6, 9, 3, -16, -24, 4, -47, -12, 2, -32, 29, 21, -4, 12, -42, -12, -1, -9, 28, 32, 24, -8, 31, -1, -22, 16, -9, 4, -7, -14, 25, 46, -7, -9, -23, 8, -26, 2, 20, -32, -23, 31, 15, -27, -28, 31, -8, -36, 31, -27, -32, 21, -27, 18, 4, -18, 21, 24, -8, 38, 37, 22, 9, -39, 53, -14, 48, -2, 26, -20, -37, 5, -6, -29, 15, 46, 29, 7, 21, -40, 34, 34, -2, -12, 30, 23, -3, -29, 16, -24, 6, -25, 31, 40, -28, 4, -25, -6, -2, 15, -13, 1, -21, -30, 36, -7, 7, 5, 3, -8, 28, -17, -13, 0, 22, 30, 20, -13, 26, -19, -31, 40, -32, -49, 40, -34, 14, 42, -37, 45, -10, 34, -3, 21, -22, -4, -11, -11, -29, 9, -25, 0, -35, -2, 35, -5, 20, -11, -21, -3, -8, -11, -2, -20, -28, 3, 20, 3, 7, 9, 38, 17, 42, 15, -4, -25, -8, 29, -34, 21, 29, -13, 13, -3, -1, -14, 39, -10, 20, -33, -9, -1, 16, -4, -25, 1, -33, -11, -34, 25, -34, 19, 2, 26, 23, 17, -27, -6, -34, 2, 41, 12, -26, 7, 24, 6, -21, -18, -35, 0, 12, 10, 29, -2, -29, -13, 4, 16, 8, 15, 38, -16, -15, -31, 22, -30, -18, 22, -24, -34, 41, 37, -19, -10, -7, 10, 11, 2, -29, -17, 23, -27, -31, -32, 23, -43, 20, 14, -3, -27, 23, -4, -3, -26, -28, 14, -35, 28, 39, 9, -12, 26, 22, 12, -30, 35, 35, -24, -3, 30, -4, -28, -5, 10, -3, -19, 15, 45, -11, -2, -27, 15, 26, -10, 30, -6, 9, 15, 9, 13, -31, 28, -20, -10, -29, 42, 3, 0, 20, -11, 8, -17, 38, 9, 18, -38, 20, 27, -1, -5, -14, 0, 32, -35, -43, -12, 39, -41, 12, -5, -27, -9, -10, -43, 57, 47, -38, -11, -47, -16, -20, 21, 28, -15, 7, 48, 14, 3, -4, 2, -32, -24, -37, 14, -13, -44, 18, -5, -23, 11, -24, 17, -28, 31, 36, 29, 8, 46, 39, 16, 25, 19, 40, 23, -26, -45, -29, 33, -16, 4, -40, 27, -15, 28, 25, 38, 23, 4, 31, -31, -34, -16, 0, -20, -52, -38, -22, -26, 2, -4, -31, 10, -10, -26, -22, -36, 36, 26, -25, -26, 36, -15, 37, 8, -30, 10, -38, -53, -14, 14, 32, -26, -37, 33, 14, -47, 8, 5, 38, -40, 52, -22, 1, 36, -20, 22, -25, -34, -43, -42, 6, 16, -23, 40, -35, -43, -8, 16, -33, 2, 4, -3, 2, -44, -52, -26, 12, -43, 0, -16, 15, -14, -8, -3, 32, 10, 20, -23, -45, 17, 16, -47, -49, 39, -30, -12, -10, 17, -29, 36, 15, 34, -37, -9, 34, -35, 1, -5, -31, -28, 5, -10, -36, 28, 12, 14, 48, 23, 12, -49, -27, 20, 10, 24, 18, -16, -9, -28, -14, 33, -40, 1, 1, -15, 13, 7, -39, -19, -28, 9, -33, 32, 25, 3, 31, 33, -22, 4, -28, -29, -10, -10, -1, -9, -22, 14, 13, 26, 27, -44, 33, -28, -28, 23, -25, 14, 25, -6, -26, -36, 1, 7, 27, 7, -14, -45, -26, -3, 25, 33, -11, -12, -29, 16, -38, -28, -39, 31, 36, 6, 42, -14, 34, -17, -32, 13, 13, 41, 13, 5, 17, 44, 3, 38, 12, -20, 14, -29, -36, -2, 20, -21, 37, -23, 32, -4, 30, -11, -22, -14, 6, -35, 17, -23, -6, -37, 26, 8, -20, 8, -14, 31, 25, -25, -33, 4, -9, 30, 10, -34, -10, -33, 15, 2, 4, -2, 21, -15, -8, -25, -10, 8, 7, 23, -37, -9, -8, -1, -3, 27, 3, 9, -5, 22, -10, 38, -32, 25, -8, -30, 41, -34, -14, -4, 36, -22, -20, 22, -42, -28, 8, -42, -31, 29, 35, 30, -21, -38, -27, -35, 32, -37, 5, 43, 7, -21, -32, -1, -3, 9, -17, -8, 31, -17, -3, 38, 0, 2, -26, -15, 14, 20, 38, -1, -14, -26, 13, 40, -20, -19, 0, -20, -26, -30, 5, -31, -19, -33, 33, 20, 2, 27, 4, -4, 15, -12, -8, 27, 39, -19, -30, -14, -27, 17, -8, -31, 12, 27, -28, 16, -33, 16, -11, -32, 28, -15, -27, -10, 42, 32, 25, 29, -6, 2, 9, 39, -12, 15, 12, -5, -23, -35, -2, -18, 6, 31, -6, -16, -3, -37, 14, 11, -25, -24, 14, -13, 4, 29, -4, -28, -19, 22, -14, -29, 11, 1, -26, -45, -19, -22, -34, -8, 28, -42, -3, -17, -2, 32, -18, -5, -21, 27, -2, 32, 30, -37, 1, 14, 7, 33, -2, 22, 39, 16, -14, -1, -20, 36, -19, -15, 33, -34, -27, 11, 49, 3, -23, 35, -6, 31, 8, 34, -22, 7, -26, 33, -38, 31, 2, 3, 21, 14, 25, 30, 33, 21, -10, 17, 22, 4, 24, 19, 28, 38, 20, 21, -14, -26, -20, 14, -1, -4, -20, -17, -38, 18, 21, -52, -7, 47, -44, 6, 45, -3, 23, 10, 33, -10, 12, 21, -32, -39, -34, -49, -7, 46, -2, -49, -12, 49, -3, 51, 7, -51, -42, 10, 30, 11, -16, -42, 41, -33, -26, 1, -26, -40, 51, -13, 48, -9, 3, 17, -28, 40, 5, 11, -21, -36, 3, -33, 37, -17, 22, 6, 14, -5, -21, 24, 38, -18, 2, -31, -9, -29, 23, -28, -18, 28, 42, 41, -15, -17, 43, -30, 7, 27, 32, 13, -1, 50, -18, -25, -12, 15, -40, 15, -41, -35, -38, -46, -16, 13, -21, -23, -32, -25, 37, 6, -5, 46, 20, -4, -21, -32, 24, 18, -30, 3, -31, -4, 25, -4, 17, -49, -32, -41, -2, 12, -47, 35, 33, 42, 23, 43, -32, -14, 19, -28, 13, -28, -15, -38, 8, -15, 36, 19, -49, 38, 20, 15, 15, -20, -45, -39, -34, 24, -11, -31, -11, 32, -28, -22, -36, -18, 39, -5, -30, 22, -41, -33, -43, 24, -11, -33, 21, 22, 36, -12, -4, -30, -30, 33, -15, -38, -26, -37, -34, -6, -2, 56, 35, 39, 10, 49, 10, 11, -7, 42, 55, -26, 13, -26, -36, -3, -25, 43, 47, 16, -15, -13, -27, 42, 11, 17, 39, -23, 13, -16, -28, 38, 34, -5, 18, -11, -33, -6, 40, 38, 17, -25, 9, 31, -53, 24, 21, 18, 41, 12, 20, -20, -33, 6, 4, -9, 30, -8, 2, 27, 42, 6, -32, 41, -18, -9, -29, -16, -26, 17, -2, -42, -26, -7, -45, 15, -30, -40, 28, 40, -37, 53, -16, 53, 33, -16, -32, -46, -6, 50, 8, -38, 7, -39, -8, 24, 18, 17, 14, 28, -38, 43, 42, 29, -44, -19, 11, -2, -17, 36, 18, -40, 39, 20, -8, 54, -31, 42, 22, 22, 7, -5, -21, 45, -17, 34, -21, -31, -11, -10, -43, 41, -38, -46, -21, -14, 1, -23, -9, 5, 4, 47, -8, -19, 9, 11, 28, -4, -11, 30, -22, -29, 26, -24, 31, 7, 21, 32, 39, 22, -32, 38, 18, -41, 47, -47, -22, 8, -37, 1, 44, -43, 17, -24, 32, 25, -11, -34, -12, 11, -47, 23, 10, -6, 38, -24, 33, -2, 36, -59, 41, 16, 24, 59, -10, 27, 32, 23, 30, -34, -40, -6, 40, 45, -15, -29, -23, 28, -6, -16, -8, -11, -34, -41, 12, 28, 29, -11, -32, -30, -45, 3, -18, -23, 27, -17, 4, -9, -17, 10, -22, -24, -14, -46, 13, -30, -24, 55, -49, 5, 25, 23, 21, -19, -18, 46, 13, 2, 14, 21, 48, 39, -2, -13, 2, 6, 19, 7, -43, 39, -2, -25, -19, -39, 46, -26, 10, -33, -31, -31, 8, 8, 32, 42, 30, -32, -48, -33, 19, 0, 24, -26, -40, 44, -34, -45, -12, -16, -17, -17, -33, -14, -34, -28, -38, -14, 42, -12, -1, 33, 8, -12, -43, -1, -24, 19, -36, 45, 13, 43, 26, -46, 48, 0, -20, 40, 25, -42, 32, 18, 18, -42, -12, -30, 4, 15, 33, -25, -40, 5, 13, -19, 39, 11, -33, -17, -19, -15, -36, 22, -22, 15, 13, 30, -35, 42, -13, -30, -43, 43, -12, 32, 18, -25, 42, 25, 29, 6, -8, -20, -29, 41, 39, 29, 23, -5, -21, -1, 45, -48, -34, -42, -29, 0, -8, 19, 39, 50, 32, -7, 28, 19, -13, 13, 40, -36, -12, 10, 6, -41, -8, -27, 51, -24, 1, 6, 2, -29, -16, 29, -16, -38, 42, -44, 35, -13, -13, 33, -34, -26, -21, -19, 0, -36, -14, 2, -23, -15, -13, 26, 1, 33, -21, 27, -24, -38, 24, -19, -37, -47, -7, 9, 14, 8, 25, -34, 42, 0, -21, 31, -42, -34, -38, -1, 25, -42, -18, 5, -10, 19, 7, -24, 10, -20, 43, 37, 12, -5, -13, 17, -27, -38, -16, -30, 14, -51, 11, -18, 3, 41, 14, 18, -43, -9, 37, 0, 15, -41, 8, -33, 6, 20, -26, -41, -24, 2, 7, -21, -32, -38, -34, 46, 14, 14, 34, -17, -14, 29, -34, -7, -47, -7, -4, 10, 43, -44, 52, -26, 5, 14, -35, 46, 17, 44, 3, -29, -15, 0, -1, 23, 6, -30, 25, -35, 3, -35, -21, 16, -14, 26, -2, 30, 6, 2, 23, -38, -30, 5, 39, -25, -3, 26, -36, -11, 28, -27, 16, -8, -31, -27, -14, -37, 40, -48, -48, 17, 11, 13, -1, -12, -9, -55, -22, -44, 12, 9, 22, 21, 25, -17, 33, -7, -26, -49, 35, -10, -16, 38, -41, 40, 0, -43, -37, 29, -19, -54, -38, -13, 16, 41, -4, -31, -27, 26, -29, -35, -14, -26, 19, -1, -2, -50, -38, 23, 1, 38, -6, -27, -28, 15, 15, -27, 39, 27, 33, 19, -6, 29, 0, 37, -10, -32, -23, -16, -16, 44, 18, -6, 29, -50, -8, 25, 21, -29, 8, 30, 33, -21, 19, 14, 0, -23, 15, -7, -50, -22, -42, 27, 30, 30, 35, 24, -33, 45, -12, -35, 30, -20, 43, -12, 4, -19, -21, 21, 18, 6, -8, 22, -48, -35, 3, 17, -2, -25, 23, 22, -8, -16, 4, 3, -28, 3, -36, -13, 15, 25, -16, 24, -7, -34, 37, 21, 25, -17, -8, 22, 9, 0, -19, 23, -6, -7, 4, 43, -10, -11, -27, -32, 3, 24, -35, -29, 21, -32, 32, 1, 15, -18, 0, 9, 10, 21, -8, 18, 15, 7, -17, 19, -22, -15, -14, 33, -6, -13, -22, -24, 3, 22, -31, -22, 20, 4, 26, 8, -34, -25, 12, -31, 2, 13, -14, -14, -19, 14, 20, -43, -28, 25, -26, 25, -1, 17, -13, 17, -10, -30, 20, 17, 9, 11, -19, 14, -15, 8, 32, 13, 7, 33, -13, -16, 0, -29, -12, 24, 14, -6, -6, 24, -29, 30, -21, 18, -9, 7, -7, 1, 22, -6, -27, 27, 32, 4, 9, -2, 2, 32, 3, 37, 35, -34, 32, 12, -23, -4, 0, -11, 25, -16, -24, -23, 10, 31, 12, -3, 27, -20, -25, 3, -43, -12, 6, 16, 5, -28, -4, -23, 29, -30, -15, -32, -29, -31, -24, -16, 33, 27, 11, 24, 24, -19, -27, -36, -27, 28, -10, 14, 11, 19, -13, 30, 16, -15, 24, 16, -1, 1, 5, 21, -20, 3, 27, -27, 10, -12, -45, -7, -33, 36, -6, -30, 25, -17, 12, 13, 29, 0, 31, -13, -12, -1, 22, 32, -25, -6, 7, 34, 10, -20, -30, -31, 17, 16, -39, -21, -20, -36, 25, -31, 35, -14, 29, 2, 8, -5, -16, 41, 12, -16, 10, -25, 4, -18, -27, 23, -1, -18, -40, -20, -5, -17, 17, 33, -21, 3, 28, 6, -16, -9, -14, -37, 36, -40, 9, -15, 17, -27, -2, -4, -36, -23, 31, 36, -29, -8, -25, -13, -8, -12, 36, 10, -17, 13, -22, 18, -7, 29, -1, -44, 24, 38, 12, 6, -4, -30, -26, 1, 6, -23, -17, -8, 5, -23, 8, -44, 4, 33, 26, -13, -21, 13, 14, 42, -29, -34, -44, -23, 28, 17, -6, -33, 25, -49, -14, -3, 9, 20, -34, -44, -17, -14, -31, 0, 31, 12, 34, -18, 38, -3, 15, 18, 2, -15, -22, 6, -28, 9, -25, 7, -11, -2, -34, -27, -27, 38, -7, -1, -3, 17, -19, 16, 33, 13, -33, -6, 1, 14, -29, -15, 42, 2, 28, -18, -24, -21, 4, 9, -23, 11, -33, -6, -42, 24, -10, -33, 28, 19, 31, 0, -34, 30, -44, -25, 35, 8, 25, -22, -29, -13, 26, -5, -5, 4, -48, 29, -27, 18, 28, 39, -11, -7, -25, -20, -27, 4, 30, -13, 29, 10, -24, -24, 14, 8, 15, -16, -36, 18, -18, -20, -32, -13, 29, -7, -3, 16, 40, 1, -53, 29, -6, -2, 5, 0, -27, 11, 27, -2, -3, 27, 45, 40, -2, 6, 26, -24, -3, 15, -20, -24, 11, -1, 36, 29, 22, -11, -31, -12, -34, -24, 25, 4, -18, -18, -5, -2, 31, -15, -32, -16, 16, -16, 31, -15, -10, 11, -8, 7, 26, -22, 0, -18, -12, -34, -16, -4, -4, 26, -18, -6, 0, -28, 19, -25, 11, 17, -21, 23, -30, -48, -33, 11, -29, 32, 15, -44, -32, 8, 12, -35, 29, -18, 4, 0, -32, -31, -6, 34, 34, -19, -10, -17, 24, -8, -47, 45, -24, -22, -19, -5, 25, 10, 54, 2, 23, -42, -21, -17, -39, 30, 6, -38, 9, 8, -16, -18, 37, -24, -8, -1, -27, -5, 37, -6, -2, -41, -6, 33, 22, -8, 40, -19, 7, 32, -33, 29, -8, -19, 48, 5, 20, 24, -13, -39, 30, -23, 33, -37, -20, -32, -25, 14, -14, 29, -21, 15, -5, 3, -1, 32, 12, 28, 6, 29, -47, 11, 5, 18, -40, 9, 22, -24, -7, -27, -15, 25, -7, 14, 14, -25, 18, -24, -9, -8, -30, 17, 23, 36, -20, -9, 22, 13, -11, -34, -50, -23, 3, -30, -10, 16, 28, 9, 33, 27, -34, 13, -22, -41, -34, 31, -31, -28, 3, -8, 9, 4, 18, -27, -28, 24, 11, 12, 28, 18, 13, 0, 14, 28, -47, 16, 33, -12, -25, 7, -21, -39, 15, 5, -18, 33, -33, -24, 32, 24, 34, 2, -4, -27, -28, 10, -5, -31, -10, 19, 34, -25, 17, -17, 10, 50, 16, 12, -12, 19, 4, 28, 23, -7, 41, 37, 11, 3, -42, -19, -17, 5, -30, -32, -35, -15, -6, -23, 38, -26, -2, -16, -20, 30, 19, 19, -7, -9, -36, 10, -43, 3, 36, 18, 44, 23, -30, -5, -31, -29, -46, 28, 19, 30, -32, -28, 0, -7, -22, 18, -16, 1, -26, 30, -25, -38, -28, 7, -44, -22, 11, 35, 14, 25, 0, -33, 34, -15, 27, 12, 10, -6, -8, 9, 39, -17, -41, 0, 15, -19, 39, -20, -44, 27, -21, 14, -4, -4, 21, 10, 27, -13, -28, -16, 11, -4, 35, -49, -11, 37, 30, 21, -11, 0, -11, -29, 32, 8, 6, 27, 33, -12, 4, 21, 34, -26, 50, -26, -34, -34, -11, 10, -37, 36, 28, -35, -38, -4, 23, 41, 33, -15, 17, -5, 4, 9, 30, 2, 29, -15, -14, -34, 16, -26, 13, -10, 41, 8, 5, -33, -2, 29, -32, -13, 3, 6, -6, 36, 32, -19, -6, -19, -13, 38, -17, 17, -26, 39, 42, 10, 2, -56, -1, 13, 5, -14, -23, 21, 37, 0, -38, -37, 14, 46, -15, -28, 31, -2, 34, -9, -24, -48, -11, -39, -14, 33, 34, -16, 33, -23, -38, -31, 34, 12, 6, 10, -6, 23, 19, 13, 40, -22, 46, -5, -15, -17, 48, -34, -46, -6, -27, -24, 34, -39, -33, -42, 22, 16, 42, 14, -24, 2, 33, -2, -5, -20, 27, 40, -9, 30, 5, 32, -18, 44, 9, -17, 27, 41, -3, 20, 26, -37, -14, 28, -15, 34, 39, 23, 30, -49, 32, -27, 25, 17, 53, -6, -9, -14, -17, -15, -6, -41, 33, 40, -12, -33, 29, 14, 29, -41, 21, 17, -25, -36, 27, -41, 18, -33, -51, 32, -49, 25, 9, -19, 25, 7, -27, -20, -22, -41, -30, -14, -7, 41, -26, -28, -31, -57, -29, 23, -4, 25, 41, 12, -35, -28, 31, -11, 51, 28, -28, -24, -18, 8, 10, 11, 40, 6, -34, -32, 21, -4, 1, 10, 0, -11, 12, 18, 18, -29, 43, 25, -26, -21, 3, 23, -26, 8, -6, -30, 18, 18, -47, 40, 28, 6, 44, 45, -19, -39, -35, -5, -29, -25, -33, 21, -24, 15, -12, 20, 53, 32, 57, 44, 2, -3, 38, 44, -11, -12, -31, 4, -28, -26, 38, -11, 3, 15, -52, 30, -15, 6, 31, -27, 35, -18, -38, -38, 38, -53, -23, 31, 29, -53, -44, 39, -10, 34, -6, -9, 39, -20, -35, 25, 13, 26, -40, -44, -45, 26, -31, -28, 7, 37, 8, 10, -10, 35, 48, -45, 13, -41, 36, -4, -6, -10, -46, -45, 13, 32, 4, -37, -44, -7, -50, -2, -29, 3, 29, 9, -11, -12, -37, -12, -18, 2, -19, -1, -1, 5, -10, -16, 5, -29, -1, -1, -10, -1, -13, 17, -26, 13, -31, -26, 31, -25, 42, 32, 7, -18, -25, -12, -15, -23, 28, 3, 17, -36, 2, -38, 2, 30, -9, 18, -5, 4, 39, -14, -24, -6, -33, -1, 21, -25, -19, 31, 9, -21, 39, -22, 12, -6, -26, 9, 2, -19, 3, -30, -16, -17, 35, 29, 15, -14, -2, -36, -21, -36, -26, 16, -15, 8, 7, -21, 20, -6, -29, 0, -11, -3, -25, -17, -25, -4, -13, 9, 2, 18, -40, 21, 41, -20, 36, -27, -3, -17, 1, -5, -9, 24, 14, 17, 12, -17, -16, -40, -29, 37, -32, -28, -7, -21, 22, 4, -4, 13, 7, -11, -30, 34, -18, 2, 10, -31, 38, -32, 31, 0, 5, -3, -24, -28, 9, -1, -4, 32, 7, -3, 45, -2, -11, 14, 15, -30, 0, -28, 31, 7, 24, -18, 25, -29, 36, 15, 25, -9, -36, -4, -27, -12, 20, -4, 29, 8, -35, -41, -39, 8, 19, 25, -9, -8, 27, -14, 28, -28, 29, 18, -13, -42, 10, 11, 35, -39, -14, -20, 22, 16, -2, -11, 25, 0, -23, 8, -27, -21, 19, -7, 39, -24, 36, -19, -20, 41, 24, -45, 26, -24, 8, -3, 0, 31, 30, -5, 26, -12, -21, -12, 4, -27, -20, 27, 35, 34, 4, 9, -5, -37, 26, 38, 12, 5, -45, -45, 35, -26, 24, -25, 30, -14, 2, 4, 14, 33, -25, 3, -34, -18, -14, -15, 11, 19, -39, 30, 9, 25, -19, 23, -2, -7, -6, 15, -12, 14, 13, 1, -29, 2, 2, 13, 17, 8, 3, -17, 10, -36, 9, -37, -47, 27, -9, 20, -42, 16, 26, 39, -25, -21, -33, -44, 9, 1, -32, -24, 31, -3, -38, -4, -16, -11, -45, 25, 16, -5, -8, 17, 45, -24, -31, -32, -15, 32, 11, 11, -15, 6, 23, 17, 2, -1, 21, -2, 19, -3, -11, 34, -15, -23, -19, -6, 2, 22, -7, 17, 27, 39, 26, 31, 23, 42, -5, -27, 5, 25, 45, -9, 3, 15, -20, -7, -5, 37, -19, 29, -12, 16, -28, 21, 8, 23, 17, 43, -33, 29, 13, -2, -26, 26, -27, 13, 8, -30, 19, 29, -16, -4, -2, -44, -20, -43, -36, 34, 7, 38, -41, 10, 8, 36, -21, 1, -44, 17, -13, 22, -48, -6, -24, 12, -1, 14, -43, 0, -35, 4, -27, 37, -14, 26, 33, -25, -12, -35, 9, -36, -7, -24, 19, 11, -30, -39, -37, -14, -32, -37, 15, 26, 4, 16, 22, 2, 42, -15, 2, -38, 45, 5, -39, 25, 38, -13, 29, -24, 33, 39, 8, -17, 1, 10, 27, -25, -10, 16, -19, 47, -42, -36, -17, -14, -28, -14, 0, -37, 16, -10, 38, 23, 18, 31, 38, -27, 9, 41, -27, -33, -16, -30, -41, -26, -22, 14, -42, 11, -28, -52, 22, -35, -30, -4, 24, -32, 36, 10, 15, -17, 45, -12, 32, -39, 27, 18, -29, 48, -33, 31, 27, -21, -11, 26, -12, -4, -36, 31, 43, -17, 11, 38, 38, 45, 47, -23, -36, 34, 39, 10, -24, -4, 19, 9, 18, 37, 15, -14, 16, 31, 30, 27, -23, 33, -24, -19, 37, 18, -37, -22, -23, 21, 5, 38, 33, -20, -25, 11, -14, 35, 10, -28, 22, 7, 36, 6, -5, -5, -22, 37, 27}

#define TENSOR_CONV1D_23_KERNEL_0_DEC_BITS {9}

#define TENSOR_CONV1D_23_BIAS_0 {101, 72, -8, 34, 49, -25, -29, -41, 35, 74, 126, -102, 86, 9, -3, 8, -36, 44, 3, 6, -11, 114, 29, 44, -52, 7, 71, -18, 92, -50, -80, -47, -56, -39, 18, 55, -15, 95, -18, 10, 10, 98, 28, 98, 13, -3, 53, -35}

#define TENSOR_CONV1D_23_BIAS_0_DEC_BITS {7}

#define CONV1D_23_BIAS_LSHIFT {5}

#define CONV1D_23_OUTPUT_RSHIFT {8}

