#include "nnom.h"

/* Weights, bias and Q format */
#define TENSOR_CONV1D_28_KERNEL_0 {34, -47, 16, -33, -43, -31, -10, -49, 1, -16, 6, -14, 29, -38, -21, 4, 47, 39, 14, 13, 73, -15, 0, 50, 2, -5, -20, -8, -2, 46, 39, -1, 17, -32, -32, -12, 0, -47, -53, -34, 36, -15, 10, -19, -25, -38, -21, -47, 28, -5, -13, 17, 11, -28, -42, 8, -28, 20, -42, -25, -8, -27, 9, 0, -17, 10, -29, 41, 15, -40, 8, 1, 35, -52, -55, 41, -49, 24, 2, 0, -55, 4, -22, 11, 20, -27, 8, -26, 16, -13, -6, 25, 22, -25, 22, -15, -22, 2, 13, -24, -21, -17, 3, -1, 31, -11, -9, 26, 28, 5, 4, -31, -5, 13, -14, 28, -11, -17, 17, 22, -14, -17, -12, -15, -7, 14, -8, 27, -21, -18, 14, -16, -12, -21, -35, -23, -28, -27, -4, 12, 4, -6, 5, 3, -27, 3, -24, -31, -29, -21, 22, 28, -24, -16, -28, 25, 5, -9, 7, -25, 28, -27, 32, 31, 58, 1, -38, 2, 2, 46, -59, 17, -25, 51, -42, 5, -28, 34, 20, 31, 27, 69, 71, 66, -20, -59, -34, -26, -42, -31, 5, -39, -14, 28, 8, -30, 14, -14, 31, -32, 29, -26, 11, -43, -7, 6, -10, -11, 9, 2, 1, -39, -12, -19, 2, -18, 38, 1, -6, -27, 14, 39, -4, 22, 3, -1, -26, 16, -19, -19, 13, 33, -35, 10, -31, 26, 11, 28, 19, 43, 17, -17, 36, 24, -21, -12, -18, -35, 30, 14, 10, 43, -47, 14, -28, -10, 7, -3, 34, -16, 7, -32, 41, -18, -11, 1, -9, -44, 6, 40, -25, -17, -2, 14, 16, 8, -32, 4, 4, -9, -14, 5, -24, -16, 12, -6, 24, 0, -12, 14, -1, 3, 1, -2, -14, -26, -16, 11, -32, -2, -18, 8, -27, 22, -5, -1, -15, -32, 3, -26, -38, 11, 32, 0, -17, 5, -31, 33, 28, 7, -33, 34, -4, -4, 11, -38, 57, -28, 37, -8, -12, 53, 60, 24, -26, -26, 44, 32, -51, -9, 3, 23, -12, 43, -43, -36, 6, -55, -32, -9, -39, -5, 6, -22, -26, -4, -25, -15, -31, -30, 10, -32, -30, -27, -16, -8, 2, -31, -22, -7, -15, 25, 3, 18, -8, 32, 29, -10, 27, -29, 29, -35, -14, 20, 37, 46, 26, -39, 18, 50, -17, 35, 43, 43, 37, -23, 31, -8, 24, -19, 24, -23, -5, 9, -37, 16, -14, -21, 25, 3, 18, -4, 5, -32, -11, -12, -20, 24, -2, -36, -26, -6, -30, -11, 8, -18, -12, -19, -22, 28, -3, 26, 49, 55, 60, -10, -44, 43, -26, -31, -21, 29, -35, 48, -62, -8, -52, 58, -61, 32, -38, 43, -68, 22, 3, -75, 44, 1, -22, -38, 18, -15, -8, 33, -23, 15, -22, 8, 21, -19, -9, -8, 32, -29, 1, 40, 13, -23, 36, -13, 0, -22, -24, 25, 35, 6, -21, -18, -32, -11, 28, -11, -20, -7, -28, 26, -10, -29, 17, -1, 18, 31, 1, -22, 27, -19, -32, -8, 19, -18, -27, -14, 2, 3, 27, 10, -11, 29, 9, 1, 0, 23, -8, 15, -13, -22, 20, -15, -12, -8, 27, -22, 26, 30, -8, -29, -12, -4, 8, 1, -19, 13, -22, -10, 11, -8, -17, -6, -2, -5, 22, 7, -17, -21, 21, 5, -3, 13, -5, -6, -6, -25, 14, -14, -16, 15, -5, -2, -26, -47, -9, 58, -10, -23, -25, -56, -40, 57, 38, 13, -35, 23, 6, 59, 34, 40, 54, -17, 30, -9, -13, 47, -25, 49, 15, 4, -28, 15, -27, -32, 29, 34, -28, -12, 16, 15, -34, -21, 25, 21, -30, 34, -16, 2, -12, 43, -5, -2, 42, -7, 9, -22, 16, 8, -2, 37, 32, 14, 19, 13, 25, -40, 35, -14, 41, -28, -35, 0, -26, 1, -2, 43, 7, 18, 12, -40, -41, 23, -16, -42, 17, 10, 17, 26, 1, -35, -1, 13, -40, 26, 13, -2, -8, -31, -37, 29, -25, 0, -16, 22, 31, 31, -5, -8, -10, -35, -43, 34, -29, 45, -3, 25, 31, -71, -23, -61, 57, 2, -12, -65, 60, 68, 35, -34, 13, 32, 13, -16, -53, -3, 73, -66, -18, -25, 20, 17, -23, 23, -30, 26, 42, 31, -8, -9, 8, -28, 33, -26, -29, 17, -12, 10, -8, 23, 33, -5, -33, 28, 15, 12, -27, -19, 18, 9, -33, 16, -26, -25, -15, 1, -23, 18, 0, -25, 6, -9, -18, -14, 26, 2, -11, -22, 4, -2, 13, 3, 12, -16, 3, -27, -38, 49, 25, -3, 45, 26, 34, 13, 23, -28, -19, 29, 5, -18, -32, 3, 16, -2, 32, 48, 25, 19, -9, -2, 5, -14, -4, 4, -25, 17, -3, 6, -14, -12, -17, 16, -11, -27, 15, -1, -15, 11, -6, 7, -13, 20, -25, 20, 15, -20, -1, 30, -2, 36, -40, -43, -34, -30, -10, -16, 2, 34, 38, 16, 31, 10, -18, 12, 32, -38, 18, 40, -17, -39, -24, -19, -23, 27, -1, -10, -39, -3, -39, 12, 40, -35, -52, 10, -42, 36, -23, -6, 29, -25, -47, -40, 43, 27, 20, -34, 15, 41, 45, 17}

#define TENSOR_CONV1D_28_KERNEL_0_DEC_BITS {19}

#define TENSOR_CONV1D_28_BIAS_0 {28, -21, -15, -29, -83, -39, 1, -42, 25, -45, -32, 30, -79, -17, -7, -1, 2, -78, -10, -56, -60, -24, 8, -22, 37, -61, -1, -9, 35, -50, 25, -56}

#define TENSOR_CONV1D_28_BIAS_0_DEC_BITS {9}

#define CONV1D_28_BIAS_LSHIFT {2}

#define CONV1D_28_OUTPUT_RSHIFT {7}

#define TENSOR_CONV1D_29_KERNEL_0 {5, -50, -6, 34, -4, -32, -6, 43, 44, 24, 45, -35, 15, -29, -26, -49, 4, -35, 18, 16, 37, 56, 6, 36, -12, 19, 11, -34, 50, -27, -14, 53, 33, 51, 9, 14, -21, 10, -1, 35, 44, 22, -43, -45, -13, -12, 58, -1, -23, 39, -21, 42, 2, 2, -20, -42, 3, -19, 48, 20, -28, -42, -45, 33, 6, -45, -45, 36, -43, -16, 47, 5, 48, 54, 51, -27, -26, -45, -2, 19, -14, 13, -32, -34, 38, -21, 22, 19, -26, 9, 13, 34, 31, 28, -10, 27, -58, -2, 17, 21, 12, -30, -39, -45, 45, -21, 21, -22, -31, -29, -11, -33, -51, 44, 29, 44, -5, -42, 26, -9, 20, -47, 10, 43, -63, 43, -25, 7, 8, -46, -39, 37, 23, 31, 32, 17, 3, 14, 29, -37, -40, -6, -22, -11, -25, -22, -31, 34, 21, 49, 9, -7, -16, -37, -45, -49, -3, 39, 11, -8, -32, -19, -6, -4, -28, 39, 26, 40, -17, -11, -29, 22, 7, -20, -7, -38, -20, 3, -1, 7, -47, -30, -14, 30, 2, -22, -1, 45, 10, 21, -21, 2, -20, 20, -12, -31, -44, 4, -35, -13, -3, -34, -37, -50, -26, 34, 43, 38, -19, 33, -36, 21, 23, -1, 30, -22, -46, 6, 5, -25, 10, -2, -45, 13, -28, 10, 25, -2, 12, 13, -18, -49, 14, 9, -44, 18, -42, 43, -50, 37, 38, 3, 25, -27, -32, -11, -8, 16, 14, -7, 20, 11, -25, 35, -36, 25, -38, -6, -22, 5, -15, -40, 10, -6, -19, -23, -18, -38, -17, -10, 11, -9, -26, -58, -42, 29, -39, -7, -31, -10, -39, -9, 11, -34, -27, -51, 23, -48, 28, -13, -18, 17, -40, -26, -21, 15, -34, -35, -14, -34, 32, 6, -19, -15, 21, -29, -36, 7, -42, -43, 30, 6, -43, -40, -7, -37, -22, 29, 40, -40, 23, 31, 30, 7, -42, 43, -9, -26, 52, -67, 56, -64, -38, 31, 16, -33, 58, 58, 41, -61, 18, -21, 62, -69, -77, -11, 62, -17, 36, -15, -44, -56, 73, 6, 9, 14, 11, 88, -51, 23, -44, -50, 39, 40, -18, 4, -22, 21, -25, 47, 89, -57, 50, 1, -87, -60, -9, 65, -53, 25, 13, 35, -9, 45, -65, 29, -63, -38, 24, 43, 40, 65, -16, 60, 61, -26, -66, 7, 31, 54, -14, -25, -16, 39, 27, 14, -15, 3, -58, -22, 53, 57, -81, 35, 27, 28, 21, -7, 14, -65, -15, -44, -56, -4, -41, 38, -57, -82, 8, 3, 0, -46, -77, -37, -26, 39, -33, 46, 48, -4, 52, 32, -33, -36, 18, -25, 26, 30, 11, -16, -10, 42, -62, -28, -3, -12, -41, -13, 3, -26, 19, 31, 4, 23, -63, 57, 26, 14, 16, 7, -58, 10, 55, 34, 22, 53, -46, 27, 20, 57, -21, 47, -59, -6, 60, 35, -17, 49, -6, -22, 62, 51, -43, 17, 23, 46, 30, -31, 12, 59, 62, 58, 19, -52, -32, 9, 17, -33, -31, 41, 6, -34, -33, -43, -15, -36, 23, -58, 20, -41, -55, -68, -38, -5, -26, -3, -25, 30, -33, 38, 0, 12, -49, 47, 44, -58, 27, 65, 22, 43, 50, -52, -10, 19, 26, 48, 51, -51, -47, 52, 63, 44, 62, 7, 20, 3, -51, 19, -19, 37, 16, -18, -11, 52, 60, 19, 59, -8, -7, -42, 46, -43, 3, -1, 9, 25, 53, 60, 58, -32, -7, -19, -29, 57, 23, -10, 18, 29, -25, 26, 5, -1, 32, 38, -25, -9, -46, 49, 11, 37, -48, 42, 14, -42, 21, 54, -1, 21, -54, 22, -11, 56, 50, 11, 42, -19, 29, 20, -24, -43, 21, 38, 53, -24, 63, 48, -34, -56, -6, 20, -47, 48, -51, 37, -14, 44, 22, 55, 54, -48, -12, -40, -30, -50, -40, -43, -38, -18, -24, 1, 50, 23, 0, 14, 37, 33, -42, 6, 21, -13, 27, -63, -31, 35, -7, -52, -31, -20, -2, 59, 49, -7, -25, 67, 42, -14, 39, -25, -57, -39, 12, -34, 54, 15, 25, 41, 50, 57, 45, 9, 50, -30, 13, 29, -5, 34, -61, 44, -24, 50, 19, -6, 32, 14, -37, 23, -21, -38, -66, 4, -56, -5, -14, -64, -3, -70, 2, -49, -62, 65, -62, 41, 28, 19, 21, -10, -62, 44, -67, -57, -65, -58, -24, 30, -7, 5, -34, 38, -47, -15, 63, -32, 16, 34, -7, -7, -29, 59, -17, -6, -63, -67, -42, -52, 56, -50, 23, -49, 22, 29, -52, -23, 44, 53, 61, 50, -45, 30, -9, 11, 58, 19, -31, 55, -26, 40, 28, -5, 50, -50, -76, 69, -4, -50, 17, 36, -58, -35, -18, -73, -20, -47, 47, -47, -46, 16, -56, -66, 21, -29, 26, -58, 45, 14, -37, -62, -1, 56, 36, 15, -17, 26, 45, 31, 63, -26, -46, 57, -2, 76, -3, 25, 17, 14, -44, 10, 77, -50, 30, -3, 33, 67, 2, 69, -26, 41, -34, 62, 63, -29, -44, 60, 51, 77, -14, -27, -21, -24, 59, -32, 60, -10, -24, -29, 49, 23, 62, -17, 78, -8, 16, 6, -46, -51, -27, -33, 58, -52, 33, 56, 25, -30, 59, 12, 18, 71, -44, -48, 3, -41, -23, 15, -7, 10, -1, -61, 44, 24, 64, -18, -22, 61, 29, -29, -14, -39, 75, -44, 41, -5, 26, 5, -2, 29, 3, 64, 45, -33, 16, -17, 55, 60, 64, 5, -40, -28, -46, 42, 28, -51, -42, 16, -26, 18, 9, 26, -18, 2, 32, 16, 44, 5, 16, 10, -32, -40, 68, 7, 17, 69, 62, -9, -23, -14, -43, 14, -14, 61, -26, 30, -64, -13, 78, 65, -16, -41, -32, -1, -11, 52, 54, -75, 35, -56, 0, -18, -25, -37, 30, -30, 15, -58, -51, 44, -46, -10, 34, -16, 25, 38, 49, -69, 17, -36, 20, -34, -72, 56, -59, -10, -32, 61, -30, -61, -23, -75, 51, 30, 35, 21, -71, -59, -83, 42, -18, 15, -41, 43, 23, -8, -15, -34, 30, -53, -17, -53, 40, -45, -31, -55, 47, -4, -7, -64, 19, -46, -9, 52, 33, -78, 10, 6, 11, -4, 0, -62, 66, 4, -4, -31, 56, -50, 29, 18, -42, -35, 36, -78, -53, 74, 39, -62, -57, 59, -1, -37, -67, 39, 82, -50, -19, 13, -30, 59, 26, 61, 15, 71, 83, -19, 8, 70, -41, -39, 3, 51, 63, -79, -65, 14, -29, -50, 6, -29, -34, 58, -46, 14, -36, 35, 10, -65, 9, 59, -23, -18, -45, -51, 64, -11, -41, 80, -56, -29, 52, 24, 49, -36, -32, 38, 57, 67, 22, -14, -38, 13, -29, 38, 65, -11, 74, 99, -14, 9, -22, -118, 87, -97, 33, -9, 35, -50, -90, 23, 83, -64, 45, -101, 74, -2, 30, 32, -29, 80, 51, -11, 63, 73, -77, 113, -88, 39, -60, 46, -21, 44, -80, -115, -34, -108, 1, -99, -54, 11, 59, 69, -80, 18, 21, -56, -7, 58, -4, -23, 46, -85, 18, 32, 63, 5, 28, -69, 35, -91, -42, -38, 19, 82, 28, -53, -52, -75, -21, -12, -48, 31, 8, 50, -85, 86, 74, -1, -6, -14, 87, 88, 108, -65, -92, 23, 21, 82, 58, 114, 68, 59, -100, 101, -100, 8, 76, -29, -83, 77, 32, 29, -99, 14, -31, 43, 10, -85, 50, -82, 36, -30, 82, -24, 10, -40, 25, 47, 24, 25, -13, -57, -54, 73, -87, -105, -58, 26, -22, 21, -69, 40, -55, 23, 2, -49, -30, -18, 18, -74, 38, 67, -95, 80, -12, -40, -39, 41, 37, -49, 29, -93, -80, -50, -2, -16, -31, 52, -7, -10, 79, 3, -59, -49, -15, 47, 72, 76, 52, 78, -12, 14, -10, 32, -53, 4, -12, -77, -71, 65, -3, -72, -31, -24, -51, -20, -62, 29, 37, 44, 90, 20, 32, 26, -75, 13, -22, -42, -26, -21, 9, -29, 37, 15, 14, -25, 30, -83, 76, -68, 52, -51, -16, -2, -46, 6, 77, -22, 68, 45, -28, -20, 56, 39, 57, 79, 60, 46, 37, -61, -23, -65, -36, -60, -36, -2, -76, 4, -58, -68, -12, -52, -32, -2, 63, 74, 77, -40, 49, -62, 73, -35, 3, 13, 4, 50, -82, 60, 17, -39, -41, -68, -41, 4, 43, -57, -28, -28, -41, 69, 26, 50, -54, 27, 40, -40, 87, 26, -73, -49, 79, -57, -59, 47, -9, 12, 85, -5, -26, 27, 57, 62, 79, 86, -24, 4, 22, 49, -60, 10, -30, 5, 29, -13, 27, 60, -24, 63, -24, 17, 44, -75, 64, -12, 13, 54, -51, 62, -26, 41, 10, -58, 66, -7, 13, -33, -8, 22, -2, -14, 39, -3, -13, -40, -19, -6, -8, 30, -41, 67, -34, 51, 28, 46, 7, 23, 33, 17, 56, 4, -31, -2, -20, -76, 71, -66, -35, -32, -39, 13, -1, 6, 28, -19, -10, 60, -18, -24, 54, 72, 36, 33, -56, -49, -51, 20, -87, 63, -24, -36, -10, 40, -72, 16, -4, -19, 30, -51, 51, 11, -21, -3, 56, -65, -6, -29, -30, -9, 8, -17, 20, 1, 24, -63, -58, -7, -69, 27, -42, 44, -73, -61, -8, 25, -35, -74, -8, -12, -68, 3, 15, 35, 51, -34, -67, -34, -43, 69, 21, -48, -52, -23, -50, -49, 21, 34, 35, -33, 53, -12, -60, 64, -62, -51, 35, 63, 17, -54, 60, -32, -38, -57, -11, -22, 28, 34, 42, 19, 53, 19, -46, 7, 9, -31, 15, 0, -4, -62, -48, 31, -41, -19, -46, -50, 26, -60, -43, -54, 11, -80, -5, 50, -26, -67, -54, -7, 49, 82, -2, 44, 35, -34, 79, -94, -26, -95, -76, 23, -68, 31, -16, -34, -32, -44, 7, 68, -42, -59, 75, -68, 49, 35, 0, -38, 48, -75, -22, 8, 65, -9, -70, -46, -77, -53, -40, -89, 31, -61, 9, 35, -42, -31, 20, -38, 10, 90, 16, -69, 5, -1, -68, -7, 10, -40, 44, -2, -43, 24, 82, 8, -34, 44, -8, -37, -39, -29, -37, -20, -32, 39, 4, -10, -66, -44, 15, 73, 50, -57, -42, 81, 24, 10, -59, 76, -34, -25, -21, 56, 43, 16, 49, 86, 1, 27, 66, 40, -56, 35, 7, 8, 46, 13, 32, -97, -50, -27, -12, 2, 25, 67, -44, -6, 4, -15, 16, 34, 54, -57, 84, 5, -42, 27, -10, -9, 54, 45, 91, -26, 58, 65, 24, 49, -62, 66, -65, 8, -1, -39, 78, 76, -12, 67, -66, -22, 53, -40, 88, 96, -27, 51, -43, -36, 101, -27, -25, -102, 90, -93, 46, 95, -32, -125, -29, 63, 64, 36, 19, 39, 25, 102, 85, 70, 14, -76, -86, 14, -109, 43, 27, 75, 96, -17, -35, 0, -8, 49, 42, 58, -109, -49, -126, 59, 23, 0, -6, 56, -16, -45, -14, -89, 47, -33, -103, 62, -80, -107, 13, -30, 16, 3, 86, 54, -106, -100, 74, -109, -55, -71, -42, 87, 62, 68, -82, 38, -107, -20, 4, -58, -57, 25, -39, -9, 88, 53, 27, -84, 72, -104, 57, -76, 7, 10, -82, 91, -14, 18, -3, 83, -80, -99, -90, -26, -119, 98, 94, -46, -27, -16, -53, -125, -38, -67, 30, -3, 38, -51, 84, 47, -33, 4, -107, -72, -64, -97, -73, 41, 85, 46, 61, -31, 109, 63, 39, 1, -37, -23, 115, -81, -72, -57, 2, -116, -34, -42, -56, -25, 86, -31, -89, 76, 84, 49, -17, -3, 70, -75, -19, 10, -55, 20, 81, 67, 31, 31, 20, -9, -46, 26, 14, -58, -49, -27, -2, -68, 3, -63, 28, 1, -54, 67, -36, -66, 85, 0, 81, -59, 75, -18, -37, -8, 52, 39, -45, 68, -59, -23, -50, 29, -17, -13, 66, 54, -22, -24, 38, 42, -28, 92, 27, 44, -67, 9, 82, -47, 11, 16, 17, 16, 66, 16, 47, -19, -14, -16, 21, 81, 46, -64, -47, 48, 80, -9, 57, 7, -20, -11, -72, -60, 63, 19, 0, -43, 50, 79, 40, 28, -53, 1, -60, 10, 21, 83, 66, -12, -52, 54, 14, -65, -87, 18, 38, -15, 33, 87, -65, 95, 50, 16, 12, -12, 2, -5, -57, 73, 47, 15, -1, 40, -6, -57, -20, -2, 36, 28, -25, 19, -32, -17, -69, 60, 43, -83, -17, 24, -62, 39, -77, -25, -32, 54, 13, 30, 11, 67, -3, 72, 1, 21, 51, 38, -5, 15, -79, 32, 46, 14, -39, -2, 0, -103, 36, -10, 14, -56, 70, -16, 22, 26, 27, 47, -49, 18, -43, 5, 0, -56, -69, -84, 57, -91, -49, -75, -36, 70, -13, 13, -3, -3, 20, 85, 73, -89, -3, 68, -36, 67, 4, 18, 23, -42, 16, -25, 60, -16, -70, -2, -71, -7, -15, 39, 5, -47, -68, -2, 45, 81, 42, 0, 32, 62, -30, -52, 38, 31, -43, 79, 46, -38, 46, 31, -13, 65, 47, -17, -3, -33, -63, -47, 71, -65, -2, -51, -56, -25, -28, 10, 21, 98, 62, -14, 75, 52, -8, 35, 21, -72, 34, -10, -45, -37, 8, 5, 56, -19, -31, -60, 31, 21, -50, -85, 10, -79, 19, 55, 60, -59, 64, -42, -67, 3, 36, -6, 1, 17, 28, 10, -34, 66, -79, 76, -24, 62, 41, 4, 71, -49, 31, -30, -75, -20, 45, -8, 67, -6, 4, -26, 49, 4, -24, 46, -23, -43, -3, -58, 20, 32, 22, 8, -34, -38, 46, 17, 32, -31, -21, -25, -40, 30, -16, -30, -51, -25, 38, -29, -17, 53, 58, -10, 13, -46, -4, -18, -12, -35, -30, -4, 3, -25, -38, -48, -59, 49, -2, 64, -59, 12, -60, 43, -46, -15, -13, 10, -52, 5, 43, -29, -38, 51, -10, -54, -47, 16, 32, -2, -38, -42, 15, -44, 18, -18, 4, 6, 18, 21, -41, -18, -38, 26, 3, 2, 34, -25, -40, 52, 40, -9, -55, -28, 20, -32, 67, 34, -50, -17, 69, 2, -15, 20, 31, 42, -30, 17, 25, -43, 64, -25, -4, 48, -16, -19, -23, -30, 36, 22, 11, 10, -6, -15, 41, 16, -66, 7, 34, 42, 7, 39, 38, 43, 24, -26, 5, -57, -9, -8, 51, 37, 53, 48, 38, 41, 29, 42, -33, 12, 16, -30, 8, 51, 34, 14, 54, -13, -36, 7, -24, 53, 46, 55, -38, 15, 54, 19, 18, 32, -6, 38, 54, -12, 15, 43, 27, -6, -7, -18, 34, -53, -43, -32, 44, -5, 33, -25, 19, 24, -2, -25, -12, 50, -29, 41, -22, -29, 53, -52, -52, -32, -48, 38, 27, 9, 5, 16, -46, -33, 30, 5, -52, 25, 46, -5, 33, -18, -15, -20, -7, -41, -28, -15, -51, -7, -17, 11, 43, -16, -31, 26, 51, 42, 6, 8, -32, -54, -20, 15, 38, -29, -12, 24, 37, -20, -31, -44, 14, -9, -9, -11, -29, 28, 32, -6, -10, 13, 56, 14, -53, -47, -58, -19, 32, -33, 33, 40, -70, -8, 40, -35, -49, 3, -26, 5, -55, -59, -42, -18, 14, -32, -15, 31, -40, -16, -41, -39, -51, -50, -3, -51, 43, 1, -49, 7, -5, 6, 51, -32, -8, 19, -27, -46, 43, -17, 42, -58, -3, 45, -45, -59, -24, -33, -61, -52, 24, -2, 3, 15, -10, -17, 25, -56, 0, -27, -9, -7, -28, 5, 16, 40, 48, 59, 18, -3, 44, 27, 12, 10, 19, 25, 55, -11, -40, 10, -29, 64, -15, 45, 42, 31, 35, -62, 18, 10, -23, 24, 45, 55, 49, -16, 55, -41, -50, -40, 33, -3, 55, -45, 59, 10, 22, 67, -2, -47, -15, -43, 30, 21, -40, 34, -46, 1, -26, 44, -47, 54, -31, 25, -28, 4, -22, -65, -26, -52, -57, 45, 23, -47, 64, 39, 4, -25, 46, -1, -45, -20, -17, -26, -8, 47, 6, -3, -67, 73, 75, -56, -7, 15, -10, 18, 7, 54, 30, -31, -73, -51, -55, -13, -63, -33, 25, 18, -71, 9, -46, 45, -42, -14, 54, -36, -56, 50, -7, -34, -60, -31, -41, 45, 12, 64, -53, -37, -1, 16, -51, -62, -44, 14, -39, -65, -65, 20, 30, 58, -23, 3, -47, 77, -2, -1, -48, 48, -7, 31, -50, -32, -4, -14, 54, -8, 23, -2, 53, 24, 45, -6, 7, 30, 9, -22, 46, 9, -66, -35, 4, 36, -49, 70, 40, -54, -58, -35, 58, -69, -51, -12, -24, -34, -25, 54, -44, 69, -79, -20, 2, -28, -13, 40, -35, -28, -66, 12, -3, 56, -32, 16, -29, 58, 25, 53, -6, -16, -21, -82, -18, -28, 48, 37, -29, -10, 41, 53, 25, -33, -21, 49, -55, -3, 68, 11, 0, 17, -26, -20, -10, 15, -56, -14, -61, 3, 71, -62, -29, 45, -78, 45, -58, -69, -37, -13, 64, -4, -17, 11, -22, -30, 54, -83, -57, 9, -66, 35, -7, -51, -42, 58, 44, -11, -13, 61, -65, 57, 75, 40, 45, -67, -53, -3, -19, 50, -68, 4, 18, 27, -68, -62, -61, -12, -11, -43, -79, -28, 12, 26, 12, 19, 18, 13, -21, 45, 33, -20, 32, -39, -53, 17, 35, -30, -36, -34, -44, 62, 70, -13, -47, -62, 1, -24, -32, -51, -58, -48, 44, -11, -14, -74, 59, 21, 47, -32, -68, 15, -48, -72, 61, -56, 51, 32, 56, -32, 62, -42, 3, 32, -63, 41, 2, 66, 17, -72, 49, -60, 14, -13, -5, 68, 68, -57, 62, 68, 42, 23, -18, -71, 0, -56, 62, 49, -78, 58, 3, -42, -47, -61, 2, 46, -30, 40, -36, -19, -69, 53, -53, 13, -49, -9, 48, 36, -58, -4, 46, 33, -66, 4, 19, -14, 1, 54, 1, -15, 57, -11, -62, -62, -9, 8, 75, -5, 27, -61, -44, -11, -30, -32, 8, -32, 46, 19, 0, 17, -15, 33, -70, -9, -73, -56, -40, -7, -16, -68, -64, -47, -20, 2, -25, -69, 52, -67, -4, 52, -64, 22, -84, -60, 22, -28, 35, -42, -44, -36, 48, 20, -34, 74, -50, 56, -31, -37, -49, 74, -22, 18, -48, -52, -73, 28, 17, -40, -2, 18, 21, 48, 53, 37, -60, 64, -46, -52, -17, 6, 38, -57, 77, -16, 31, -55, 8, 46, -14, 4, 59, 46, 25, 12, 31, -19, -15, -19, -18, 25, 19, -28, 52, 16, -22, 48, -6, 0, -30, 40, 29, -40, 6, -6, -47, 26, -20, 31, -30, 45, 35, 30, 3, -54, 55, 40, -36, -35, -27, 43, -24, 11, -1, 42, 8, -7, -37, -26, 59, 47, 46, -46, 40, -26, 1, 48, 0, 43, -41, 7, 23, 19, -12, 46, -18, 44, 24, 55, 52, -21, -6, 31, 13, -3, -31, 22, 51, 11, -45, -47, -7, 57, -44, -17, 50, 45, -28, 54, 8, -24, 15, 16, -15, -7, 59, -29, 27, 33, 42, -43, -40, 29, 0, -24, -10, 9, 64, 19, 48, 4, 45, 7, 62, 11, 4, 57, 41, -9, -54, -30, -2, -7, -4, -4, -36, -40, -30, -8, 37, -39, -34, -4, 56, -3, 20, -7, -7, 9, -2, 51, 9, -32, -24, -27, 53, 44, 6, 4, -31, 59, -38, -56, 32, -4, 46, -16, -30, 16, -6, 21, -38, 45, -27, -16, -53, 7, -22, 35, -41, 8, -39, -63, -2, 44, -41, -32, -33, -72, -27, -76, -29, -32, 7, 18, -39, 6, 25, 9, 44, 8, -24, 54, -29, -32, 54, 43, 1, -33, 10, 21, 26, 22, -64, 27, -63, -21, -63, -51, -57, 17, -25, -44, -41, 0, -29, -1, 17, -32, 35, -11, 77, 2, 14, -69, -30, 3, 4, -62, -8, 2, -2, 19, -2, 26, 0, 27, 35, -19, -26, -7, -48, 31, -12, -15, -30, 60, 53, 36, -11, -48, 49, -42, 59, 41, -15, 8, -28, 26, 30, -2, -22, -14, 63, -54, -24, -59, 6, -3, -19, -31, 42, -20, 50, 56, 29, 13, -14, 32, 51, -29, 22, 20, -20, -79, 14, 14, -34, 37, -51, -34, -43, 72, 52, -56, -49, 45, 78, -17, 10, 25, -12, -19, -5, -40, 18, -10, -42, -21, -12, 2, -50, -18, 49, -64, -1, -75, -41, -39, 1, -41, -74, -60, -18, 18, 14, 78, 31, 87, 14, 69, -74, -45, -47, 23, -6, 64, -38, 63, -42, -2, -30, 69, 77, -63, -24, 49, -71, 35, -64, -15, 11, 44, -30, -53, 68, -22, 29, -70, -30, 70, -16, 40, 75, -47, -6, -12, -21, -66, 60, 74, 63, -77, -41, 1, 48, 73, 0, 45, -31, 28, -21, 14, -58, -43, -36, 25, -70, 29, -9, 75, -50, -41, 19, 31, -44, -89, 27, -59, -51, -24, 49, 23, -13, 7, -32, 79, -22, -57, -71, -33, -6, 31, -9, -10, -63, 20, 26, -80, -65, 64, -1, 78, 60, 59, 99, -65, -58, 34, 10, -23, -94, 5, -36, -60, 6, 8, 10, 62, 49, 42, 25, 56, 64, 57, 9, -10, -17, -32, -6, -43, -2, 86, 76, -44, -38, 52, -43, 3, -15, -57, -13, 80, 31, 70, 20, 8, -55, -38, 32, 1, 32, 34, -56, -6, 32, 35, 68, 0, 60, -6, -48, 31, 45, -56, -24, 20, 21, -33, -84, 44, -10, -22, -28, 29, -33, -82, 63, 85, -49, -76, -23, 6, 16, -23, -83, -6, 36, -34, -14, 37, -17, -8, -64, -36, -20, 1, -16, -64, 5, -4, 13, 59, 4, 48, 6, 17, -59, -46, 71, 65, 13, -50, 13, 43, 31, -31, -32, 69, 18, -57, 48, 33, 55, 37, -32, 55, -46, -66, -39, -37, -59, -76, -1, -55, 20, 62, 25, 14, -104, -32, -14, 15, 31, -30, 7, -14, -59, -19, 20, -19, -32, 38, -28, 19, 24, -44, 61, -20, -62, 21, 62, -86, -63, -20, -17, 67, 85, 29, 26, 45, -9, -76, -109, -93, -44, 20, 46, 16, 46, -11, -49, -70, -81, -53, -20, 47, 66, -24, -58, -5, 79, 43, 15, -67, -59, -21, 52, -12, -66, -18, 52, -47, -30, -10, -76, -46, 23, -52, 90, 65, 63, 10, 24, 47, 24, -32, 58, -40, 52, -88, 23, -65, -11, -47, -72, 49, -39, 53, -33, -30, -28, -32, -1, 56, -8, -96, -86, -17, 21, -6, -53, 15, -74, -33, -10, 66, -11, 29, -93, -33, -104, 20, 56, 63, 70, 87, 6, 72, -40, -12, -92, -61, -83, -59, 0, 49, -99, -37, 87, -68, -35, -79, -25, 36, -94, -53, -33, -53, 86, 69, 73, -70, 81, 67, 18, -45, -68, 13, -89, -84, -23, -45, -6, 80, -88, 36, -4, 67, -74, -90, 83, -81, -20, 21, 27, 110, -58, -67, 9, -3, -89, -96, 26, -96, -42, -76, -43, 71, 51, 4, 89, -5, -20, -97, -41, 25, -71, -10, 47, -57, -70, 62, -10, -17, 49, 69, -7, 124, -65, 20, -53, 63, 44, 55, 70, 20, -14, 73, 80, 65, -105, -7, 100, 63, -3, -53, 43, 94, -32, -2, 19, -67, 24, -65, 112, -69, -101, -79, 13, 126, 15, 86, 55, 20, 4, 39, -31, -22, -40, 19, -56, -4, 43, 69, -62, 38, 94, -16, 44, 79, -44, 8, 34, -57, 95, 22, -58, 29, -67, 76, -81, 31, -58, 45, 86, 10, -34, 63, -39, -44, -39, 24, -37, -18, -55, -38, 69, -1, 66, 8, 65, -73, -45, -65, -24, 26, -30, 77, -18, -46, 78, 1, 74, 24, 7, 39, -5, 36, -45, 66, 56, -20, 4, 5, 80, -41, -47, 62, 13, 1, -4, -25, -11, -90, -25, 68, -43, 22, 38, -28, 68, 62, -81, -33, 3, 16, 23, 11, 59, -76, 74, -47, 71, -18, 89, 51, -51, -18, 11, -2, -1, -100, -20, -11, 27, 48, 4, -22, 16, -27, -23, -7, 18, -74, -76, -3, 53, -20, -26, -29, -14, -53, -34, 23, 87, -45, 2, -35, -67, -52, -31, -40, 60, 45, -44, 6, 79, -69, -83, 45, 74, 65, 74, 32, -50, 20, 29, -14, 40, -50, -27, -89, -80, -66, -48, -71, 24, -11, 78, 26, -6, -58, -10, -9, 35, 19, 38, -52, 11, 11, -26, -37, 53, 15, -48, -29, 2, 4, 32, -15, -33, -2, -2, 4, -35, 0, 44, -2, -33, 47, 45, 34, 12, -53, -8, 24, -7, -18, -12, -50, -38, -15, -59, -9, 2, -4, -47, -45, 14, -15, 49, 28, -31, 43, -39, 19, 27, 7, -45, 26, -4, 46, -33, 52, 49, -42, 22, -41, -30, -58, -13, -48, 27, -40, -30, 33, -2, 41, -8, 20, -15, -10, 22, -42, -40, 36, -48, 38, -5, -38, 20, 54, -29, 6, -10, -36, 6, 13, -8, -50, -51, -5, 41, -2, -18, -27, 4, -4, 57, 13, 6, -45, 8, 27, -32, 3, -50, -30, 32, 32, 52, -21, -6, -39, 6, 28, 43, 24, 39, -1, 41, 36, 13, -31, 35, -27, 2, 19, -29, -18, -3, 33, -2, 59, 58, -21, 1, -18, -35, 53, 14, 2, 5, 15, 49, 32, 38, 40, -5, -13, -61, 41, -15, -47, -45, 26, -52, -45, -47, 29, 63, -20, -26, -22, 4, 37, -55, 34, -55, 61, -2, -7, 41, 1, -22, -14, 42, -9, 14, 9, -25, 63, -49, 6, -18, -53, 38, -54, 36, 24, 13, 69, -23, 30, -53, -39, 66, -63, 2, 51, 35, 31, -14, -44, -68, 34, -19, -4, 11, -24, 28, 27, 42, -22, 40, 14, -26, -9, -47, -30, -56, 0, 25, 14, 48, 1, 38, 2, 65, -2, 37, 11, 17, 11, 56, 17, 52, 62, -30, -2, 55, 18, -4, -23, 57, 45, 7, -5, -20, -32, -7, -37, 38, 35, -16, 47, -25, -31, 18, 50, 19, 5, -34, 8, -42, 22, -53, 23, 49, -12, 21, 17, 10, 34, 57, -59, -55, 39, -24, 48, -37, 52, 36, -41, 9, 34, 46, 22, -16, -48, 9, -62, 52, -21, -6, 62, 35, 78, 40, 66, -1, -10, -42, 31, -13, 11, -46, 32, -7, -30, 64, 53, 90, 46, -52, 79, -94, -5, 91, 11, 10, -33, -31, -38, -28, -17, -58, -72, -26, -6, 8, 66, -86, -23, 93, 70, -70, 4, 9, -14, 58, -33, -60, -66, -6, -46, 69, 57, -32, -32, 82, -53, -55, 38, 58, 34, -44, -90, 20, 39, -66, -3, -52, 82, -77, -51, 95, -23, 13, 37, -52, 37, 48, 48, -5, -50, 57, 31, 87, 31, 49, -48, -63, 59, 14, 18, 39, 1, -32, 41, 2, 31, -27, 3, -5, -29, 17, 1, 56, 66, -36, 65, 19, 60, -35, 50, 1, 53, 30, 51, 76, -23, 46, -48, -49, -55, 28, -30, 42, -86, -20, -23, -35, 1, -6, -62, -70, -40, 59, 58, 58, 1, 62, -63, -62, 91, -17, -41, 41, -10, -15, 22, -55, -19, -43, -9, 28, 4, -15, -14, 73, 62, -3, 46, 90, 52, -40, -87, 5, 17, -23, 68, 88, 46, 9, 72, -5, 17, 58, 70, -45, 47, 50, -46, -41, -1, 17, -26, 40, 25, -49, 29, -30, 34, 64, 31, 30, -30, -22, 13, 51, 27, 49, -21, 7, 52, -11, -19, 0, -37, -27, 30, 36, -28, 32, 61, -39, -32, 60, 24, -13, 14, 35, -34, 36, 60, -62, 43, -12, 66, 53, 48, 51, 32, 16, 57, -36, -71, -12, -7, -1, 42, 61, -33, 58, 8, -49, -42, -3, 25, -34, 38, 5, 31, -4, 71, -68, 37, -16, 71, 3, -29, -3, 10, -38, -29, 1, -6, 26, 41, -53, 21, 55, 19, 1, 21, 48, 13, -50, -29, 26, -42, 12, 65, -4, -12, -21, -10, -19, 41, -37, -62, 26, -26, 7, 58, 78, 15, 51, 16, 52, -65, 62, -37, 40, -15, 35, -27, -24, 15, -16, 51, -37, -61, 16, 62, 62, -50, -25, 65, 33, 40, -66, 45, -18, -64, 40, -38, 3, 2, -6, 88, 4, 48, 50, 25, -21, 52, 11, -69, -7, 0, 44, 13, -45, -19, -13, 28, 31, -35, -16, -18, -8, 20, -26, 29, -36, -32, 20, -29, -49, 43, 38, -38, -35, -5, 35, 11, -39, -9, -24, -29, 8, 37, -45, 3, 25, 23, -44, 24, -4, 37, -49, 31, -9, 5, -23, -30, 11, 18, 17, 34, -2, -43, 3, -40, -2, 30, 31, -6, -49, 42, 18, 21, -41, -12, 10, 31, -27, -40, -33, -45, -13, 6, -21, 8, 19, -15, 5, -24, -4, -8, 39, -49, -47, -29, 14, 13, 6, 1, -49, 44, -32, 27, 28, -42, -21, 3, 19, -44, -8, 20, -21, -11, 32, -31, -34, -33, -6, -3, -25, 46, -32, -30, 21, -47, 37, -23, 26, -34, -17, -44, 30, 23, -48, -8, -40, 20, -18, 6, -17, -17, 27, 18, -44, 33, -28, -44, -39, 31, 4, -51, -13, -29, -2, 40, 39, -6, -15, -27, -12, -25, -49, 10, -17, -32, -33, -31, -7, 40, 28, 81, -15, 20, 3, 33, -39, 1, 63, 44, 24, -44, 33, -6, 12, 17, 4, -44, 57, 59, 32, -11, 3, 51, -2, -28, -40, -39, -13, -31, -50, 16, 58, -9, -40, 22, 34, 17, 22, 54, 55, -2, 23, 5, -11, 73, 60, -21, 38, -7, -23, 32, 13, 27, -10, -17, -11, 46, -19, -32, 64, -4, 38, 55, 31, 3, 12, -25, -37, -49, -15, -38, 7, 47, -53, -2, 59, 5, 62, 66, 19, 21, -9, 64, -40, 43, 36, 32, -24, 15, -6, -37, 4, -44, -4, 59, -43, -37, -46, 58, -32, 30, -58, -52, -31, 47, -36, -35, 37, -39, 39, -3, -5, -20, 1, 48, 13, 21, -14, -40, 41, -18, 53, -35, -6, 29, 30, -24, -19, -3, 50, -59, -61, -42, 38, -42, 36, 27, 52, -61, 37, -39, 6, 5, 41, 16, 50, 24, 20, -62, -24, 47, 46, -33, 42, 72, 24, 11, 0, -33, 37, 36, -42, 3, -25, 36, -2, 34, 41, -30, -31, -26, 18, 12, -4, 11, 11, -54, -8, 1, -16, 44, 4, 29, -44, -43, -1, -37, -9, -7, -13, -41, 13, -47, 13, 16, -6, -43, -3, 15, -21, -37, 44, 7, 9, -26, 10, 25, -27, -11, -51, -24, 10, 10, -4, -29, -36, -49, 16, -26, 31, -42, -31, 29, -26, -37, -52, -45, -3, 8, 45, -26, 18, 27, -41, -17, -33, -46, -28, 23, -25, 18, 18, -35, 6, 30, 49, -3, -41, 7, -3, -42, -13, -19, 2, -50, -19, -10, -43, -41, 39, -14, -20, 22, -13, 32, 38, 27, -19, -4, 17, 24, 25, 1, -3, 12, -34, -33, -7, 41, -48, -25, -40, -53, 15, 4, -2, -12, -43, 9, -44, -6, -50, -30, -7, 14, 15, -27, -20, -27, 3, 15, 4, -26, 19, -28, -41, -20, 38, -22, 21, -46, -24, 17, -1, -4, 6, 0, -5, -48}

#define TENSOR_CONV1D_29_KERNEL_0_DEC_BITS {9}

#define TENSOR_CONV1D_29_BIAS_0 {-5, 65, -15, -58, 33, -67, 26, 17, -25, 45, 2, 41, -49, -2, -22, 53, 3, 55, 41, -48, 46, -18, 47, 37, 0, 0, -35, -44, -60, 49, -45, 61}

#define TENSOR_CONV1D_29_BIAS_0_DEC_BITS {6}

#define CONV1D_29_BIAS_LSHIFT {7}

#define CONV1D_29_OUTPUT_RSHIFT {9}

#define TENSOR_CONV1D_30_KERNEL_0 {-33, -26, 37, -22, 32, 15, -21, 27, 5, -2, 27, 8, 31, 24, -17, -42, 18, -29, 19, -28, 30, -37, -37, -16, -17, -17, 45, 11, 42, 39, 38, 5, 36, 0, 21, 40, 15, 32, 20, -14, 24, -39, 3, -38, 23, -5, -4, -46, 35, -6, 0, 35, -24, 13, 4, -30, 31, -5, 29, 24, -43, -6, -24, -3, -21, -2, 40, 38, 19, 6, -33, -6, -38, -24, 16, 25, -17, 3, 24, 33, -19, -1, -14, 6, 45, -23, -43, 0, 40, 23, -34, 15, 25, 1, 17, 31, -24, -19, 3, -49, -26, 19, -12, -3, -30, 21, 26, -10, -46, -1, 18, -19, 2, -6, -7, -20, -54, 46, -45, -26, 40, -19, 3, 22, 45, 34, 42, -5, 11, -4, 30, 9, 46, 39, -32, -34, -35, -23, 21, -28, -47, 5, -45, -48, 53, 14, -46, -27, 36, -28, -41, -35, 37, 45, -41, 27, -39, -12, 7, 4, 26, 11, 17, 43, 21, 48, 6, -29, 8, -9, 41, 39, -7, 12, -11, -44, 6, 4, 10, -24, 36, -12, -15, -20, 18, -2, 35, 24, -36, -29, -35, -36, -38, 23, -10, 31, 16, 16, -13, -25, -41, -49, -35, 5, 26, -17, 25, 23, -19, 48, 8, -3, -10, 13, -16, 1, 16, 17, -30, 40, 23, 0, 14, -13, -45, -34, -17, -34, 40, -48, -24, 18, -19, -37, -45, -12, 39, -45, 37, 19, -36, 37, -8, -26, 2, 36, 33, 42, -1, -50, 38, 41, -48, 37, 43, 18, 17, 3, -8, 12, 8, -35, -24, -47, -2, 48, -8, -21, 5, 44, -46, -53, 21, 14, -41, 11, -7, 16, 42, -8, 39, -38, -16, 4, -41, 29, -23, 31, -29, -25, 48, -16, 1, 5, -7, 23, -27, 9, 28, -6, -15, -39, 12, -29, -8, -38, 45, -38, -14, -12, -15, -18, -50, 2, -51, 30, -20, -50, 1, 30, -36, -7, 48, -18, -6, -4, 26, -12, 22, 13, -23, 0, 19, 31, -5, 13, 41, -42, 21, -39, -22, 7, 32, -13, -8, -33, -28, 3, -4, 37, -27, -40, -17, 37, -16, 18, 15, 37, -32, 30, -16, 33, 25, -22, -36, 30, 22, 10, -11, 10, 46, -31, -19, -18, 38, -8, -9, 10, 16, -17, -15, -32, 7, -21, 18, -1, 22, -31, -32, 29, 15, -21, 5, 11, 12, 6, -35, -3, -18, -13, 30, 21, 18, -22, -32, 11, 5, 14, -11, 14, -5, 10, -16, -39, 10, -13, 35, -35, 24, 21, 8, 20, -29, -13, -26, -28, 22, -12, 3, -27, -5, -36, 24, -13, -18, -27, 1, -35, -15, -38, -27, -14, -12, -31, -30, -1, 9, 21, -16, -16, 30, -33, -8, -19, 28, 35, 7, 6, -20, 33, -34, -12, -28, 2, -9, 35, -29, -24, -33, 31, -25, -26, 16, -42, -22, -14, 24, -5, -19, -19, 29, -32, -24, 59, 11, -11, 18, -32, 19, -28, -4, -38, -21, -19, 28, -6, 47, 16, -10, -40, 53, 46, -3, 43, -6, -3, 40, 21, 13, -18, 20, -23, 41, 42, 35, -28, 59, 11, 4, 12, -7, 29, 30, 25, 30, -24, 7, 36, -28, -35, 16, -11, -15, 11, 49, 50, -24, 1, -18, 43, 53, 25, 19, 7, 14, -48, 38, -45, 8, -11, -7, 13, 46, 26, 45, 39, 21, 6, 43, -7, 40, -33, -28, -18, 20, -7, 4, -4, -32, 52, -51, 45, -32, 31, -52, -53, 58, -17, 57, 59, 48, 15, -48, 56, 26, 49, 62, 14, 16, -51, -1, -40, -32, -59, -2, 46, 56, 28, 59, -26, 8, 19, -24, 42, 31, 33, 48, 17, 12, -54, -29, 44, -41, -53, 59, 13, -52, 43, -42, 11, -38, 27, -24, 11, 10, -11, 26, 5, 31, -27, 21, -16, 49, -47, -34, -26, 9, -53, -11, 36, -30, 45, 5, 37, 28, 6, -42, -15, -50, 19, -32, 38, 17, -30, -42, 9, 17, -33, -61, -59, -22, 45, 27, -15, -16, -32, 9, -43, -1, 9, -50, -15, 10, -16, 9, -29, -25, -23, -26, -4, -1, -11, -31, 27, 5, -20, -28, -10, -11, -7, 11, -25, -20, 13, -28, 14, 10, -8, 18, 28, 29, -33, 24, -25, 5, -27, -20, 19, -24, -25, 1, 1, 15, 33, 26, 3, -24, -19, -24, -31, -27, 20, -33, -14, 33, 6, -13, 30, -37, 23, 14, 11, -6, -34, -19, 14, -35, -14, 6, 36, 10, 13, 27, 17, -29, -16, 25, -29, -15, 22, 21, -8, -24, -30, -28, -11, 23, -33, -8, 24, 7, 5, -18, -11, -32, 16, -21, -12, -22, 28, 14, -51, 34, 29, -41, 36, 2, -42, -51, -50, 22, 55, -33, -24, 46, -6, 46, 9, 22, 10, 28, -27, -42, 48, 31, -17, -6, 0, -42, 21, 36, 14, -17, -31, -47, 12, -29, 9, 3, 32, 31, 34, 16, -31, -31, 27, -51, -30, 37, -16, 18, -25, 20, -13, -45, 32, -27, -27, 26, -42, -9, -28, 37, 31, 23, -17, -28, 56, -37, -28, 14, 27, 14, 15, -31, 20, 33, 43, -38, 1, 26, -23, -10, -18, -27, 18, -40, -32, -45, 4, 26, 26, -30, -43, -69, -16, -18, -66, 65, 56, 38, -57, -9, -3, -52, 75, 74, 1, -53, 17, -13, -66, 32, 52, -7, 27, -42, -41, 71, -16, 10, -63, 34, 59, 26, 67, 39, -61, 74, 68, 56, -58, 57, -4, 22, 73, -67, -13, 29, -42, 2, 24, -23, 23, 78, -23, -73, 6, -60, 60, 8, 58, 18, -65, -27, 77, 36, 43, 57, -67, 27, 33, 34, -49, -19, 17, -24, 22, -45, 2, -32, -45, -17, -48, 22, -38, 34, 20, 65, -44, -8, -27, -60, -35, 50, 53, 9, 33, 67, -11, -35, 56, 66, -43, -38, 41, 24, 44, 23, 39, -36, -58, 18, 1, 36, 7, -6, -28, -29, 51, 52, -2, -1, 22, -57, -29, -21, 38, 6, 14, -15, -5, -48, -16, 61, 9, -51, 24, 36, -57, 34, -33, -21, 47, 16, 49, -41, 21, -3, -11, 8, 15, -47, -52, -65, 30, 57, -26, -2, -39, 20, 17, -8, -56, 12, 61, 40, 16, 48, -53, 35, 40, 18, -37, -48, -8, 23, 14, -34, -28, 4, -34, -41, 56, 54, -46, 5, 51, 18, 19, 58, -14, 49, -19, 60, 15, -6, 64, 23, 40, -45, -2, -51, 48, 45, 34, -8, -56, 38, -10, -13, 48, 4, 38, -43, 24, -68, -22, -57, -61, -12, -11, 49, -32, -62, -54, -12, -56, -19, -38, 2, -33, 10, -6, 52, 57, 41, -65, 18, -34, -46, 3, -58, -44, -27, -34, 26, 41, 10, 37, 48, -12, -3, 28, 5, 12, 3, 57, 4, 9, 21, 70, 70, 5, -48, -11, 11, -47, -7, -27, -58, -7, -16, 30, -30, 52, -40, 31, 22, -63, -43, -35, 48, -42, 30, 20, 34, -31, 9, -7, -40, 17, -38, -55, -30, 40, -22, 12, -9, -24, 20, -26, -37, 60, -16, 38, 12, -8, 32, -5, 25, -4, -10, 8, 40, -25, -15, 40, 45, -51, -8, -2, 12, 33, -15, 28, -1, 4, -15, -8, 13, -32, 44, 24, 11, 31, -33, -18, -38, 54, -3, -36, 12, 36, 5, -13, -30, 2, -44, 36, -28, 42, -11, -2, 2, -1, -15, 19, 48, 24, 37, -28, 2, -34, -36, -14, 32, -18, -1, -48, -19, -11, 37, 39, -39, -48, -19, 21, 40, 12, -46, -39, -2, -16, 57, 25, 45, 6, -21, 19, -16, -9, -4, 18, 17, 32, -3, 14, 24, -30, 30, -8, -23, 28, 12, 35, -16, 18, -7, -25, 16, 22, -4, 16, -7, -23, -19, 11, -22, -22, -41, -29, 15, 22, 29, -8, 13, 29, -9, 18, -28, -3, -8, -5, 19, -15, 12, -3, 30, 26, 29, 3, 10, -25, 18, 32, -31, -7, -11, 12, -31, -1, -5, -23, -28, -37, 27, 27, 16, 5, -26, -3, 7, -14, -7, -11, -24, 33, -3, 34, -15, -10, 8, -14, -27, 22, -30, -20, -16, -29, 8, -22, -9, 20, 18, 32, -3, 15, 27, 12, -21, -16, 25, 1, 1, 42, -53, -31, 21, -29, 8, 12, -27, -8, 18, 43, -29, 19, 50, -2, 28, 8, -7, 22, 49, 28, -40, -39, 3, 49, -3, -34, -30, -53, -22, -38, 29, -12, -15, 16, 7, 27, -48, 26, 5, -17, -9, 1, 7, -12, -17, -31, 43, 51, 52, -30, 39, 35, -40, -10, 25, -21, -15, -53, 47, -35, 21, -1, -23, -5, 36, 2, -15, 6, -33, 24, 42, 37, -9, 50, 14, 51, 8, 46, 11, -39, -7, 47, 29, 31, -22, 47, -57, 33, -42, 48, -66, -4, -11, -21, 24, 27, -36, -44, -28, 16, 40, -54, 24, -30, -33, -10, 24, -9, 48, -19, -42, -33, 28, 58, -45, 47, -6, -46, 1, -49, 26, -8, 44, -65, 23, 34, 28, -25, -44, 35, -25, -4, -15, 43, -19, 55, -34, 39, 57, -1, 35, 24, -7, 53, 40, 22, -24, -39, -5, -42, 57, 6, -41, 4, -58, -14, 1, -46, -50, 50, -57, -12, -46, 8, -62, 15, 56, -14, 56, -39, -21, 13, -28, -38, -31, -29, -69, 51, 0, -1, -40, -4, 6, -13, -20, 22, -9, 5, 8, -25, -41, 25, -17, -46, 27, 33, -12, -3, -12, 33, -24, 33, -44, -50, -7, -37, -45, -36, 1, -35, -36, 12, 22, 16, 21, -13, -6, -9, -12, 20, -39, 42, 44, 38, -49, 19, 11, 48, -18, 25, -46, 14, -40, -29, 51, -42, 5, -22, 8, 48, -6, -7, -3, 29, 7, 33, 18, 12, -25, 18, -47, -54, -41, 34, -41, -3, 26, 11, 15, 11, -11, -31, -12, -20, -50, -30, -17, -31, 34, -43, -13, 21, -17, 31, -24, 38, -21, 41, -12, -24, -21, 32, -31, 4, 12, -44, -32, -18, 41, 21, -42, 18, 24, -20, 46, 11, -33, -7, 28, 32, -28, -13, 8, 28, -44, -18, 22, 31, 16, 11, 33, -22, -8, -22, 35, 34, -36, 14, 5, -20, 13, 49, -15, -33, 21, -4, -11, 4, 26, -12, 11, -16, -24, 6, 19, 39, 11, -30, 0, -42, 12, 22, -23, -14, 2, 9, 37, 25, 4, 11, 19, -23, -20, 4, -39, 11, -33, -10, 34, -23, 26, 21, -8, -1, -44, -1, -16, 7, -1, -6, -39, -21, -24, 1, -9, -23, -8, -30, -22, -29, -14, 13, -31, 31, -28, -12, -29, -31, 15, -32, 10, -31, -16, 8, -8, 18, 20, -23, -36, 24, -5, -24, -24, -20, 0, 2, 31, 24, -25, -24, -23, -5, -3, 13, -7, -19, -1, -7, -33, 29, -34, 25, -20, -10, -5, -13, 24, -29, 25, -37, 2, -28, -39, -5, 26, -32, 22, -32, -17, 18, -20, 23, 0, -18, 16, -14, 24, 13, 25, -10, -9, 31, -7, -9, 5, -20, -30, 32, 10, 30, -14, -11, 6, -21, -27, -7, 15, 15, -36, -51, -39, -9, -28, -7, -2, -3, 15, 5, 5, -15, 43, -56, -15, 37, 13, -13, -11, -40, -6, 48, -2, -20, -45, -12, 25, -66, -55, -62, 6, 17, 8, -45, -36, 48, -47, 6, 54, 51, 45, -52, -42, 20, -38, 38, -49, 1, -38, -10, 46, 17, -11, 30, 36, 14, -11, 21, 3, -61, 52, -13, 20, 55, -19, 33, -43, -8, 58, 65, 7, -40, 37, -41, 63, 0, 21, -36, -11, -20, -45, -50, -48, -43, 20, 50, 64, 2, 24, 22, 33, 26, -44, 53, 42, 40, 13, 14, -44, 0, -38, -47, -44, -8, 0, 4, 30, 14, 19, -41, -2, -22, -9, -47, -33, -54, 5, -21, 23, -64, -10, -15, 1, 32, -49, -16, -17, 26, 19, 21, -1, -55, -25, -45, 31, -50, 56, -40, 52, -47, -36, -19, 55, 20, 35, -12, -3, -12, 40, 10, 32, -57, 27, 35, 8, -7, 16, 21, -55, 49, -32, 21, 17, 4, -4, 48, 43, -5, -27, 53, -12, -18, 3, -47, 34, -44, 30, -29, 20, -39, 38, -58, 35, -19, -29, 22, 50, 5, 54, 19, -35, -59, -23, -35, -34, -47, -18, 23, -49, -19, -22, 24, -47, -14, -25, -8, 42, 39, -54, -30, -32, -9, -2, -26, 44, -4, -29, 5, -33, 3, -27, -34, 7, 52, -51, -27, -14, 33, 1, 25, 44, 27, 10, 0, 2, -13, 21, 11, 7, -40, -25, 21, -26, -1, -56, -48, 27, -31, 16, -26, 4, 29, -12, 27, -43, 24, 15, 23, 3, 41, -4, 2, -13, 34, -22, -25, 43, -41, 3, 27, -28, -16, -6, 18, -23, 27, 50, 28, -18, -10, 24, 46, -6, -33, 48, -49, 8, -32, 10, 10, -4, 39, -4, -4, -2, 20, -4, 38, 14, 6, 3, -2, -29, 4, -29, 25, 12, 23, -25, -22, 9, 6, -10, -37, 30, -13, -8, -14, -11, -30, -28, 13, 30, 30, -31, 18, -8, 1, 33, -17, 21, 22, -2, 29, 24, -41, -11, -28, -6, 23, 36, 19, -14, 5, 7, 31, 10, 27, 11, 3, 36, 6, -23, -7, -3, 38, -5, 4, -17, 18, 7, 18, -23, 4, -31, -18, 31, -17, -12, 19, -33, 1, -28, -10, 20, 17, 26, 14, 25, -35, -31, -16, -9, 3, -18, -14, -3, -37, -35, -24, 20, 43, 2, -12, 44, 35, 0, -10, 29, -36, -42, 28, -29, 26, 25, -26, -4, -29, -28, -14, 27, -12, 1, -30, 41, -39, -22, -2, 32, 31, 11, 40, -2, 38, -32, -3, -15, 30, 26, 31, 0, 28, -37, 25, -26, 38, -29, 26, -35, 18, -25, -33, -18, 32, -35, 36, -5, 31, 3, 50, 27, -4, 13, 37, -37, 6, 28, -1, 4, 5, 17, 27, -16, 9, 34, 30, -24, 21, -17, -35, -31, 20, -29, -16, -21, -22, -36, -36, -23, 21, 30, -7, -11, 43, 31, 2, -39, 8, -16, -6, 34, 10, -19, 10, -6, 6, -7, 18, -10, 4, 39, -2, -31, 0, 26, 21, -26, 19, -34, 13, -15, -38, 38, -18, -20, 35, 29, 13, -8, 11, -5, 16, 7, -25, 37, 26, 12, -5, 19, 41, -1, -14, 25, -34, 16, 3, -36, 12, -34, -42, -22, 5, 16, 26, -28, -3, 6, -7, 17, 13, 17, -10, -37, 4, 9, 8, -37, -28, -21, 16, -40, 15, -18, -18, 32, -36, 15, -5, 25, -25, -26, -14, 8, -15, 15, -18, 23, 37, -8, 34, 7, -21, 2, -1, 15, 18, 1, 3, -19, 37, 12, -3, 28, -20, 14, 27, 7, 25, -24, 30, 31, -20, 28, 40, 28, 5, 27, -31, -29, 23, 34, -23, 28, 7, 20, 16, -17, 13, -10, 28, -36, -6, -1, -21, 2, -13, -29, 19, -9, 4, -25, 40, -8, -24, -18, 28, -11, 30, -32, 2, 0, -35, 42, -4, -21, 20, -6, 2, 38, 33, 27, 37, -39, -35, 11, 43, 16, 19, -21, 20, 2, -4, 3, 23, 4, -5, 37, 24, -17, 38, 26, -10, 26, 33, -13, 15, 53, -31, 49, -22, 78, 8, -49, 51, -31, -65, -59, 11, -10, -47, 44, -50, 42, 60, 14, -11, -61, -44, 10, -7, -9, -35, -15, -12, -4, 38, 9, -54, -6, 55, -25, 53, 71, -7, -41, 41, 14, 36, 71, 56, -23, 45, -36, -4, 24, 28, 9, -2, 56, -1, 29, -35, -22, 56, -54, -18, 36, 60, -6, 25, 64, -7, 45, -28, 53, 22, -35, -56, -18, 37, -5, -55, -13, 60, -62, -49, -3, 34, -77, 4, -15, 45, 17, -19, 54, 67, -27, 67, 47, 57, -5, 32, -19, 3, 14, -53, 0, 54, -37, 1, -15, -33, 30, 34, 47, -1, -11, -58, 39, 23, 59, -29, 4, 59, -34, 47, -39, 45, -22, -36, 47, 28, 2, -44, 25, -31, -16, -29, -36, 48, 29, -3, 33, 6, -51, 51, 46, 19, 41, -28, 54, -8, -47, -47, 19, -14, -18, 36, -14, -14, -15, 50, -25, -32, 13, -10, -36, 29, 13, -27, 45, 34, 15, -44, -46, -4, -51, 57, 33, 35, -25, 45, -12, -4, -9, 32, 54, -42, 48, -46, -16, -23, 45, -33, -41, -46, -53, -8, 13, 8, -17, 48, 5, -32, 19, -21, 34, -11, -28, -34, 0, 37, -21, -39, -5, 32, 47, 5, 12, 19, 23, -39, -16, -39, 19, -35, -46, -40, 22, 48, 19, 46, -25, -2, -5, -30, 47, 31, 25, 35, -22, -4, 0, 32, 11, -37, -17, 13, 12, -44, -25, 9, -1, -43, 39, -31, -37, -39, 41, 9, 12, 31, -40, 37, -6, 48, -15, -1, 3, -16, -1, -19, -26, 24, -3, 42, 29, 10, 17, -11, -30, -15, 4, 23, 6, -6, -24, -17, 2, -16, 19, 33, 25, -17, -56, 48, 49, 56, -37, 40, 43, -48, -19, 16, 13, 35, 36, -13, -1, -31, -48, -32, 23, 59, -6, -33, -12, 43, -23, -19, -52, -56, 40, -68, 48, -25, -58, -54, -15, 27, -32, 35, -39, -45, 36, 7, 62, 4, -31, -37, -61, -46, -48, 39, 4, 60, 57, -66, -25, -50, 27, 36, 4, -49, 49, 25, -41, -43, -29, -60, -30, -62, 17, 44, 47, -12, -15, 40, -39, 22, 40, 27, -9, -19, 10, -5, 26, -5, 38, 28, -47, -22, -57, 21, -23, -11, -44, 3, -80, 82, -60, 52, 52, -9, 25, 36, 89, 4, -72, 67, -55, 11, -6, 49, 11, 51, -43, -47, -15, 2, -43, 31, -82, -41, 50, -77, -52, -58, -53, 76, -85, -55, -77, -54, -63, -27, 30, 32, -77, 27, -62, 76, 57, 64, -3, -80, 55, 4, -88, 73, 44, -92, 64, 15, 10, 16, 4, -39, -11, 71, -18, -32, -27, 52, 84, 84, -83, 37, -61, 12, -42, 30, 7, -51, -36, 71, 26, -42, -62, 61, 24, 82, -89, -101, -32, -85, -19, 73, 98, -66, -46, -51, -44, -12, -35, 29, 57, 12, -42, 44, 41, 21, 50, -3, 20, 34, -40, -47, -41, -24, 20, -32, 18, 30, 40, -4, 37, -47, 44, -30, -31, -9, 27, 33, 23, 41, 46, 38, 29, 2, 17, -26, 40, -28, -38, 0, -43, -8, 17, 13, 4, -20, -1, -26, 28, -37, 40, -49, -48, 58, 5, 27, 49, -48, -21, 49, 6, -17, 41, -23, 45, 9, -21, 29, 59, -61, -16, -24, 28, -7, -27, 54, 24, 18, 0, -21, 53, -25, -3, 6, -1, 35, -9, 22, -2, -46, 23, 44}

#define TENSOR_CONV1D_30_KERNEL_0_DEC_BITS {8}

#define TENSOR_CONV1D_30_BIAS_0 {-70, 29, 15, 48, 107, -128, -27, 87, 25, -76, -66, 51, -10, 10, -79, 76, 79, 3, 110, 15, 61, 55, -39, -3, -1, -113, -98, -63, 21, 70, 93, -89}

#define TENSOR_CONV1D_30_BIAS_0_DEC_BITS {7}

#define CONV1D_30_BIAS_LSHIFT {5}

#define CONV1D_30_OUTPUT_RSHIFT {8}

#define TENSOR_CONV1D_31_KERNEL_0 {-14, -18, 33, 16, -27, 13, 2, -26, -4, 11, 5, -12, -5, -4, 13, 27, 6, 7, -25, 23, -19, 12, 0, 8, 23, 31, -5, 33, 28, 5, 10, 27, 9, 7, -1, 0, -18, 36, 5, -32, 11, -4, 7, -32, 26, -26, -23, 8, -15, -8, -12, 28, -15, 2, 11, 19, 31, 0, -26, 9, 29, -28, -21, -26, 9, 20, -34, -13, 14, -2, 33, 9, -3, 37, -14, 12, 17, -21, 0, -26, 20, 33, 26, 36, 22, 8, 14, 18, 13, -17, -14, -28, -1, -2, -8, 6, 13, 17, 12, -2, 4, 12, 7, -21, 6, 10, 32, 5, 32, -5, -8, -11, 14, -7, -1, -6, -26, -14, 24, 8, 28, -1, -11, -23, 15, 29, -17, -38, 14, -5, 18, -18, -11, -1, 11, -5, 28, 37, 26, -2, -6, -16, -23, 16, -1, -19, -14, 0, 22, 12, 33, -10, 37, 31, -27, 45, 37, -25, -11, 24, 30, -1, -27, 26, -21, 20, 35, -30, 16, 26, -3, -27, -19, -23, 17, 11, 32, 3, 38, 26, -16, 14, -21, 9, 30, 9, 9, 31, -36, 10, 33, -10, -14, 32, 27, 0, 16, 6, -7, 32, -12, 46, -21, 19, 16, 18, 10, 33, 13, -16, 29, 5, -4, -20, -13, 14, 13, 30, -6, -9, 2, -29, 27, 14, 16, 26, -16, -32, 13, 26, 8, 24, -13, -20, -30, 13, 1, 2, 10, -10, 2, 18, 22, -19, -2, -26, 38, 8, -8, 11, 15, -11, 13, 17, 10, -33, 1, -24, 31, 3, -17, -15, -16, -19, -4, -15, -13, -8, 14, 19, -35, 5, -29, -2, 19, -24, 28, 31, 17, 24, 1, 18, 30, 18, 26, 18, -15, -16, 8, -24, 20, 19, -15, -19, -14, 3, -16, 13, 14, 21, -14, -14, -4, 13, 23, 36, 40, 16, 39, -28, -25, 27, -38, -18, 7, -12, 10, 13, -9, 19, 23, -20, -8, -20, -1, -22, 3, -16, 10, -36, -32, 17, -50, 17, -12, -28, 17, 30, -12, -40, -1, -9, 26, 22, 10, 1, -22, -26, 16, 23, 17, -33, 12, 30, -6, 10, 20, -15, -7, 9, -42, 1, -1, -3, -13, -30, -20, 6, -1, -4, -25, -9, -13, 4, 7, 5, -3, 28, -10, -17, -5, 20, 9, -32, -21, 8, 14, 12, -24, 19, -38, 21, 15, -36, -29, -6, -26, 10, -22, 21, 5, 33, 12, -17, 14, -30, 21, 21, -26, -17, -28, 28, 21, -9, -19, -11, -1, 26, 31, -11, 3, 6, -29, -21, 18, 24, -29, -6, -19, -30, -20, 4, 3, -21, 11, -23, -26, -2, 11, 17, -3, -38, -24, -10, -8, -10, -17, -30, -7, -15, 5, 12, 11, 16, -16, 26, 22, 29, 31, 21, -25, 14, -39, 0, 19, 17, 25, 5, 22, -18, 2, 23, -6, -11, 10, 33, 25, -33, 3, -4, -36, 36, 6, 2, 3, -29, -25, 14, -13, 28, 2, -12, 16, 30, 12, 45, -35, 19, 16, -3, 47, 22, 32, 14, -17, -16, 8, -27, -17, 1, 15, 27, -28, -14, -31, -12, -1, -29, -2, 13, 10, -1, 2, 27, -25, 4, 27, -16, 21, 16, 41, 13, -4, -13, 13, -4, 7, 18, 0, -7, -33, -19, 42, 24, -41, 15, -16, -33, -5, 4, -22, -11, 35, 24, -38, -18, -30, -23, -9, -40, -20, -25, 6, -8, -35, 14, -6, -12, -31, 15, -9, -39, -26, 27, -27, -35, 6, -3, 53, -50, -37, -34, -8, -37, -50, 47, -14, -5, 5, 14, 26, 47, -4, 43, -24, 34, -26, -21, -10, -54, 21, 35, -46, 56, -15, -42, 13, 46, 39, 46, -55, 14, -20, 28, 51, 42, -40, 42, -16, -19, -53, -14, 18, 9, -40, -37, -62, -41, 4, -32, 38, -37, 28, 0, 42, 36, 33, 32, -13, -43, -24, -1, 38, -5, -18, -11, 48, 43, 48, -4, 42, -42, -19, -22, 20, -29, -28, 38, 10, -16, 10, -3, -8, 38, -51, -1, -20, -52, 8, 29, -50, 5, 48, 6, -14, -14, 5, 42, -1, 41, -32, 42, -40, -19, 22, 7, 33, 15, 38, 33, -13, -25, -43, -53, 32, -55, 7, -21, -7, 21, 36, -19, 23, -48, -35, -28, -27, 7, 0, 22, -23, 43, -20, -37, -12, 31, -1, 24, 3, 37, 13, 40, 48, -33, -15, -9, -20, -26, -6, 31, -17, -41, -42, -20, 2, 55, 5, 47, 45, 51, -25, -37, -28, -18, -55, -15, -20, -1, -39, 46, 14, -10, 43, -10, 7, -2, -47, 25, 41, 46, 49, -46, 34, -32, -31, 14, -36, -44, -32, 10, 20, 2, -21, 41, 53, 46, 14, 27, 8, -9, 20, 25, 11, -21, 21, 0, 10, 42, -33, 21, 26, 29, 0, 30, -17, 23, -51, -17, -45, -40, -51, 54, 47, 19, -4, -29, 1, 39, -19, -33, 22, 4, 32, -9, -35, 47, 24, 24, 4, 42, -36, 33, 40, 42, -6, 32, 16, 65, -2, -46, -52, -43, -39, 44, 15, -20, -13, -31, 27, 19, -50, -29, 43, 51, 13, 2, -19, 9, 46, -53, -37, 14, 34, 2, 27, 24, -11, 28, -18, 24, 1, -33, -8, 17, 12, -29, 40, -11, 37, 0, -18, 40, 25, 22, 34, -34, 11, -37, 28, -1, -25, 3, 23, -6, -39, 4, -29, -8, -44, 4, -30, 9, 28, -40, -13, 19, 1, 37, -19, -25, -29, 41, 19, 3, 21, 39, -27, -23, -1, 29, 35, 34, 15, 10, 10, 27, -12, 0, -26, 17, 34, -3, -23, -17, -5, 43, -38, 20, 11, 8, -20, -11, -37, -3, 16, -16, -34, 14, -26, 6, 16, -36, -5, -15, -22, 25, 10, 44, 33, 23, 35, -32, -23, 34, -17, 39, 0, -12, 13, -10, -33, 14, 39, -21, 19, 4, -29, 44, 11, -32, 26, 41, -28, -40, 3, -21, -13, 12, -3, -26, -36, 42, 23, 21, -24, 6, 15, -8, 8, 5, 13, 3, -9, 20, 26, 24, 0, 11, -9, 0, -5, 3, -39, 15, 40, 5, 12, -31, 14, -27, 35, 42, 34, -30, 15, -30, -33, -25, -22, 48, 4, 26, 33, 4, 30, 24, -38, -7, 19, -43, -13, -30, -51, -3, -40, 10, 5, 30, -43, 6, 10, -8, -25, 6, -39, -6, 37, -23, -11, -7, 15, -9, 8, -2, 38, 39, 20, 16, 21, -22, -11, -22, -45, 20, 7, 30, -21, -1, 22, 14, -32, 14, 10, -27, 28, 8, -28, 24, 38, 1, 23, 7, 7, 2, -32, 24, -11, -38, 11, -27, 17, -6, 23, -20, 41, -7, -20, 9, -31, -3, 16, -32, 38, 45, 14, -4, 41, -9, -48, -7, 7, -4, -26, 32, 25, -21, 34, 10, -32, 35, -22, 22, 25, 1, 9, -10, 14, 0, 16, -24, 10, -11, -21, -20, 15, -19, -25, 24, 7, -32, 12, 16, -2, 27, 24, -22, -20, 28, -23, 41, -3, -19, 28, 1, 34, 11, 18, -4, 23, -11, 6, 8, 32, 12, -38, -11, -18, -21, -10, -4, -37, 1, 23, 12, 2, 5, -5, 35, -34, -7, -33, -21, -33, 2, 14, -21, -13, -10, -41, 15, -13, 21, 43, -25, 22, 22, -14, 27, 5, 21, 27, -10, 17, -34, 1, 13, 20, 4, 1, -7, 27, -6, 37, -5, 4, 14, 10, 6, 18, -16, 18, -34, 14, 9, -23, 20, -37, -17, -6, 17, -15, -17, 2, 14, 42, 15, -20, -16, 18, 42, -17, 38, 15, 33, -34, 27, 23, -19, -11, -15, -23, -33, -16, -8, 16, -29, 39, -49, -19, 26, 21, 26, -24, -33, 11, -9, 44, -7, 23, -13, -10, -29, -18, -14, 24, 29, -19, -10, 40, -18, 19, 22, 24, -12, 1, -26, -29, -13, 35, -25, -6, -15, 13, -17, 7, -18, -3, 37, -33, 9, -19, 25, -30, 43, 15, -15, 2, -24, 34, -7, 36, 39, -20, -23, -2, -14, -24, -21, 29, 24, 25, 17, 33, 26, -14, -24, -30, 37, -29, -14, -2, 4, 30, 28, -14, -26, 9, -26, 7, 30, -15, 27, -38, 36, -19, 1, 19, -20, 4, -35, -16, 18, -3, -22, -30, -33, -28, 8, -9, -30, -28, 34, 26, 21, -4, -31, -40, -16, -12, 10, 11, -35, 14, -17, -28, -23, -15, -19, -4, 15, 14, -17, -38, -1, 5, -31, 29, 43, -2, 3, -23, 4, -24, 39, -16, -33, 12, 4, 28, 28, -8, -17, -35, 7, -13, -43, -2, 36, 21, -14, 25, 29, -21, 34, -40, -1, 12, 16, -24, 7, 14, 12, -4, 15, -24, -9, 21, -15, 17, -13, -34, -27, -43, 36, 6, 38, 34, -22, -10, -11, -3, -6, -3, -9, -11, 11, -29, 14, -25, -27, 36, -9, 11, -1, 35, 17, 21, -32, -26, 23, -16, -12, 8, 3, -23, -1, 27, 17, -25, -21, 21, 24, 18, 11, -28, -32, -20, 10, -5, 27, 9, 2, -32, -22, -6, 5, 12, -26, -20, 11, -24, -22, -30, -26, -20, -11, 28, 9, -27, 9, 24, -24, -25, -3, -16, -13, -37, 0, 27, 25, 15, 2, -13, 34, -13, 35, -12, 9, 17, 15, -13, 13, 14, 13, 23, -17, -4, 22, -27, 17, 15, 7, 25, -29, 14, -26, 33, 16, 19, -32, 31, 37, 2, 1, 29, 32, 26, -28, -20, -15, -25, 25, 22, 15, 3, 27, 3, 15, 8, 14, -18, -9, 2, -7, -15, 24, 22, -4, 32, -21, -10, 3, 21, 4, -2, -12, -25, 34, 11, 3, -14, 35, 25, 3, 21, -1, -22, 7, -32, -22, 26, -26, -11, 10, -29, -7, -3, -22, 26, -8, -31, -4, -13, 2, 14, 4, -1, 34, -3, 38, 34, -20, 28, 14, 3, 13, 30, -17, -8, 25, -6, 25, 12, 33, 20, 4, 31, 27, 29, -1, -14, -17, -5, 28, -6, -30, -12, -10, -28, 15, -1, 23, -14, -18, 41, -27, -27, 34, -10, 36, 20, 16, -35, -11, 16, 4, 38, -25, -29, -20, -13, -29, 10, 24, 3, 19, 24, -12, -22, 23, 36, -30, 23, -10, -15, 12, 14, -24, -9, 10, -30, -23, 1, 23, 21, 17, -20, -13, 10, 24, 0, -20, -30, -1, 14, -3, -2, 20, 11, 8, -3, 3, -17, 17, -23, -1, 11, -31, 25, -6, -15, -13, 23, -19, 2, 5, 8, -15, -4, 9, 30, -9, 13, -19, -9, 22, -20, -14, 37, 23, -19, -14, -37, -20, -2, 9, 23, 3, 26, -4, 27, -17, -11, -11, 16, -26, -27, 17, 3, 7, 12, -13, 18, 21, 21, -2, 13, -6, 19, -15, 3, 18, -25, -36, 11, -38, 3, 31, -22, 31, -10, -9, 0, 28, 11, -10, 41, -27, 22, -25, 16, -13, 32, 20, -23, 17, -13, -20, 24, 26, 18, -8, 5, 2, -10, 33, 31, -3, 3, 11, 11, 17, 7, -20, -16, -22, 6, -22, 3, -8, 14, 7, 11, 0, 5, -8, 23, -12, 20, -33, -9, 15, 7, -29, 12, 13, -7, 2, 1, 5, 22, 14, 26, -26, 15, 14, -17, -31, -3, -31, 24, -19, -14, 21, -31, -19, 18, 2, 13, 4, 10, -15, 3, -13, 23, 23, -26, 1, 0, -36, -21, -10, 37, -4, -16, 27, -6, 7, -22, 11, -2, 8, -6, -4, -7, 1, -28, 20, 26, -16, -10, 2, -32, 6, -23, 7, -30, -33, 7, 21, -10, 11, 31, 2, 20, -6, -7, 34, 11, -19, 21, -13, -8, 16, -23, -26, 17, 2, -11, 13, 7, 2, 25, 23, -2, -16, -16, -12, 23, -19, 34, 4, 8, -7, 25, -7, -14, 35, 20, 8, 14, 29, -1, 5, 0, 20, 7, -25, -36, 8, -5, -6, -11, -10, 13, 12, 31, -24, -19, -7, -21, -28, 21, -16, 8, -27, -2, -37, 8, 31, -7, -16, -11, -18, -11, 10, -13, -42, 21, -21, -11, 13, -21, -26, 16, 23, 1, -22, -22, -20, 8, 9, -2, 35, 24, 21, 19, 23, 22, 9, -27, -19, -6, -16, -2, 24, -4, 7, 31, -14, -25, -8, 6, -16, -6, 19, -10, -20, -17, -18, -14, -22, 20, -34, -3, -10, 41, 14, -13, -32, -24, 40, 28, 52, 20, -25, -32, 13, 41, 33, 5, 2, -22, -44, -28, 4, 9, -8, -27, -32, 44, -37, 17, -10, -29, -26, 55, 0, 12, -33, -20, -6, 25, 16, -27, 23, 11, 36, -22, -27, 18, -2, 20, -9, -16, 3, 18, -40, 9, -21, 24, -28, -23, 23, -6, 16, 24, 4, -11, -4, -25, -41, -26, 36, -11, -35, 34, -10, -11, -4, 31, 30, 5, -33, 2, -35, 11, -2, -47, 9, -36, -18, 26, -16, -8, -38, -28, -6, -1, 1, 4, -4, 35, -11, 30, -33, 11, 13, -42, 39, 2, 17, -7, 27, 4, -36, -20, 31, 46, 16, -36, -14, -35, -36, -18, -35, -17, -46, 11, 14, 28, -28, 7, 32, -41, -10, -33, 32, 36, -11, 0, -16, -18, -27, 12, -33, -16, -3, 15, 3, 22, 31, -29, -43, -16, 9, 34, 35, -25, -13, 32, -48, -35, -8, -21, 32, -45, -30, -5, 32, 30, 31, -22, -21, 32, -35, 12, 16, 19, -19, 29, 12, -12, 9, -34, -6, 13, 29, -13, -21, 34, -16, 39, 7, -18, 27, -5, 18, 19, 56, -7, 25, 1, -21, -37, -38, -33, 36, -24, -42, 11, 11, -35, 30, -4, 3, -8, -18, -18, -10, -19, -33, -36, -12, 1, 8, 36, -4, -32, 51, -32, 3, -19, -8, 47, 13, -2, 35, 24, 18, 5, -9, -40, -38, 15, 7, -16, -17, 16, -33, 25, -11, -31, 8, -37, -6, 18, 6, -21, 14, 19, -40, 27, 17, -31, -8, 18, 15, -33, 9, -13, -9, -7, -4, 12, -19, -35, -28, 27, -13, 3, 0, -39, 1, -26, 17, -25, 44, -10, -1, -4, -13, -29, -13, 55, -38, -25, 31, -33, -17, -33, 5, 30, 44, 21, -16, -38, -52, -25, -25, 28, -27, 41, -45, -38, 0, -27, -47, 53, -5, -9, 21, 28, -71, 16, 3, -5, -24, -23, 18, 7, 48, 18, 22, 18, 11, 9, -31, 9, 18, 3, -15, -43, -18, -67, -34, 30, -9, 31, -5, -37, -30, -38, 2, -25, 8, -36, -50, 27, -11, 37, 45, 16, 32, -11, -23, -32, 31, 8, -29, -13, -6, 21, 22, -21, 20, -3, 30, 23, 4, -13, 3, -48, -46, 46, -28, 42, 38, 15, -9, 23, -40, -32, -19, -44, -32, -28, -7, 11, 1, 2, 16, -12, -24, 4, -35, 23, -21, -57, 36, -49, 4, -2, -33, 47, 35, 20, 8, -21, -8, 11, 32, -24, -30, 13, -42, -12, -38, 11, -7, 23, 33, 13, -7, 19, -10, -16, 36, -52, 16, 5, 32, -34, -42, -7, -19, -11, -43, 16, 5, -17, -20, 20, -7, -14, 12, 43, 11, 14, -26, -21, 15, 38, -23, 5, -8, -36, 36, 38, 47, -37, -43, 20, 11, -32, -35, -15, 3, 22, 10, 32, -13, -22, -7, -25, -37, -9, 50, -29, -38, -1, -14, 38, -16, -18, 40, -24, 28, -12, 32, -36, 23, 37, -8, -34, -5, -2, 29, -43, -56, 11, 25, 13, -17, -46, -2, 16, 18, -33, 6, 8, -11, 23, -9, -29, 30, -17, 7, -21, -31, 6, 2, -23, 25, -12, -40, -27, -24, -14, -2, 0, 3, 17, -27, 16, 11, 13, 16, 36, 26, -40, 30, -9, 12, -46, -43, -31, -8, -21, -30, 1, -31, 27, 7, -17, -32, -20, 18, -47, -9, -45, -34, -24, 0, 17, -37, 18, 45, -25, 1, 40, -22, -9, -5, 7, -16, 30, -10, -8, 8, 11, -13, -20, 1, -1, 17, 34, -19, 1, -2, -4, -7, -21, 3, -33, 28, 22, 29, 9, 2, -21, 26, -5, -14, -17, -16, -29, 17, 4, -23, 22, 21, 8, -18, 17, -18, 17, -22, -3, -19, 1, 3, 18, -8, 11, 7, 13, -31, -29, -22, 32, -9, -23, -12, 20, -27, 31, -29, -18, -18, 0, 3, 17, 11, -6, 15, 7, 21, 12, 31, 1, -7, 17, 1, -3, -32, 24, 21, 29, -23, 0, 19, 24, -5, -9, 7, 10, -15, 4, 6, 12, -5, 2, -28, -21, 18, -7, 18, -16, -3, -10, 13, 11, 24, -21, 20, -21, -1, -18, -29, -36, 13, -2, -29, 15, -6, -14, 25, -14, 4, -18, 9, -14, 1, 9, -21, -12, -24, 22, 7, 2, 17, -10, 4, -6, -2, 23, -1, -25, -9, 6, -13, -23, -16, -18, 2, 29, -30, -18, 5, 9, -19, 30, -16, -4, -17, -28, 27, 28, 10, -21, -8, -13, -23, -10, -13, -2, -15, -13, 19, -4, 12, -33, -5, -10, 10, 4, -11, 20, 3, 9, -22, 16, -21, -4, -1, -12, 32, -23, 19, 2, 16, -24, -23, -7, 10, -23, -19, 12, 11, 14, 9, 5, -4, -16, -11, -6, -19, -2, 3, -24, 3, -27, -1, 23, 23, -26, -9, 11, -4, 3, 15, -32, 20, -4, -25, -18, -13, 0, -28, -31, 19, -25, -25, -1, 23, 26, 3, -28, -22, 20, -37, -14, -28, -19, 6, 29, -31, 11, -7, 20, -8, -11, -22, 22, -12, 5, 6, 14, -20, -2, -3, -1, -29, -8, 18, -25, 20, 10, -10, -7, -13, -1, -8, -8, 23, 30, -14, -18, -12, -51, -32, 14, -31, 48, 20, 5, 53, -34, 7, 20, 12, 16, 13, 34, 5, 49, 12, -51, -26, -12, -61, 57, -3, -51, 6, 57, 12, -42, 24, -29, -14, 30, 12, -24, 49, 17, -40, -3, 23, 9, 34, 55, 34, 29, 22, 33, 31, 33, 47, -20, -29, -41, 9, -37, 21, -18, 0, 1, 20, -16, -47, 21, 23, 18, 7, -11, -36, -50, -38, -26, 45, 48, -15, 14, 69, -30, -22, 35, -4, -26, -1, -4, -34, -24, -48, 36, -25, 42, 17, -16, 44, 9, -3, -23, -25, -59, -1, -6, -41, -31, 49, 19, 32, -44, 8, -57, -54, 57, 10, 15, 2, -56, -11, 27, -32, -28, -33, 5, -26, -19, -1, 36, -21, 50, -2, -13, 37, -14, -16, 7, 46, -28, 41, 56, -48, -54, -10, -1, -29, -13, 5, 31, -1, 12, 15, -20, 32, -20, 2, 49, 30, -24, 5, -7, -46, -38, -55, -39, -34, -30, -31, -40, -33, 29, 19, 50, 16, -6, 17, 55, -36, -9, 11, 38, 43, 58, 34, 51, 31, 25, 16, 57, -9, -27, 46, 12, -56, 57, 27, 73, 19, 12, -32, -57, -17, -6, 21, -65, -3, -54, -17, 10, 11, 40, -21, 13, 24, 17, 22, 47, -19, -55, -11, 67, -37, 31, -58, -19, -50, 16, -45, 26, 49, 34, -42, 44, -42, 25, 45, -23, -7, -58, -26, 50, -60, 46, -32, -8, 37, -34, -19, -49, -28, 43, -13, 35, 6, 18, 30, -29, -36, 7, -53, 25, 11, -27, -17, -34, -49, -32, 33, -36, 20, -17, 14, 12, -23, 1, -13, -42, 13, 62, 40, 31, -29, -17, 55, -4, 40, 2, -13, -15, -12, 11, -11, -8, -56, -13, 25, 12, 15, 4, 22, -3, -24, -5, -21, 36, 11, 33, 18, -4, 20, 23, 25, 24, 27, -4, -5, -12, 28, 7, 11, -3, 23, 13, 6, -18, 41, -6, 19, -15, -34, 20, -3, 25, 14, 15, 30, 12, 9, -11, 28, 18, -8, -23, -1, -30, -10, -25, 31, 25, 23, 7, -12, 25, 33, -10, -19, 41, 16, 15, -8, 17, 19, -7, -25, -7, 22, 0, 6, 4, -18, 29, -10, 26, -14, 3, 28, 23, 0, -5, 14, -31, -8, 28, -10, 9, -1, 16, -5, -11, 15, 32, -24, 33, -11, 4, 32, -26, 8, 14, 3, -12, 30, 27, -8, -3, 19, -13, -19, -11, 28, 30, 33, 23, -11, 24, 23, -2, 11, -24, -4, 15, 20, 28, 32, -2, -26, -11, 0, -7, -34, -10, 38, -11, 42, 16, -31, 15, 9, 22, -35, 0, -23, 19, 19, 12, -6, -25, 19, 15, 2, -23, -18, 37, -10, 4, 7, -30, 25, -17, 33, 3, 33, 17, 19, -14, 33, 23, -25, -18, -30, -9, 15, 7, -1, 25, -8, -13, 19, -16, 21, 16, 28, 26, -16, 16, 26, 11, 16, 33, -26, -27, 24, -36, 26, 19, 25, -6, -35, -4, 19, 5, -25, -12, -19, 29, -14, 22, -26, 15, -21, 4, -20, 1, -1, 22, -34, 29, 40, 18, -5, 31, -10, -18, 9, 21, -5, 17, 15, 11, 10, 26, -8, 29, -36, 15, -6, -7, 0, 26, 11, 3, 26, -6, -15, 11, -20, -29, -27, 2, 17, -6, 17, 12, -14, 25, -12, -10, -13, -9, -24, -26, -13, 32, -9, 16, 1, -30, -27, -2, 13, -19, -8, -7, -10, 23, 29, 14, 32, 7, -37, -21, -27, 14, 6, 6, 8, -16, -20, 5, 21, -18, 27, 4, 14, -10, -7, 4, 10, -4, 13, 6, 28, 7, -17, -11, -32, -7, -30, 13, -18, 9, 24, -28, -28, -9, -6, 22, -16, 31, 6, -19, 16, 13, -16, 22, 37, 9, -7, -19, -20, 7, -9, -2, -2, 20, 36, -13, 11, 27, 23, 15, -18, 9, 0, -19, 4, -21, 27, -9, -11, 26, -18, 14, 11, 6, 18, -26, 1, -8, 11, 21, 11, -13, 11, -26, -18, 8, 23, 29, 31, -22, 30, 16, 23, 26, 19, -24, 22, -2, -8, 1, 26, 14, 33, 5, 22, 30, -11, 15, 13, -8, -25, 9, 23, -12, 25, 2, 32, 32, -13, -11, 28, -4, -28, 24, -16, 9, -12, 11, 18, 8, 30, 21, -31, 15, 3, -19, 27, 3, 31, 4, -9, -23, -12, -10, 7, -17, -10, -18, 3, -5, -9, 6, 33, -15, 21, -17, 10, -12, 31, 29, 21, 15, -16, 32, 26, 4, 32, -20, 30, -30, 35, -12, -6, 11, 12, 25, 22, -15, 13, -2, 23, -1, -21, 18, -15, 31, 28, 6, -35, 15, -31, -10, -20, -9, 25, -11, -1, -6, 0, 14, -12, 19, 5, -17, -7, 31, -1, 28, -1, 5, -29, -26, 11, 27, 29, -19, -24, 23, 5, 14, 2, -21, 20, -13, -3, 29, 30, 21, -38, 1, -11, 26, -23, -13, 8, 20, 12, 2, -22, -4, 6, 4, -34, -22, -14, 13, -8, 25, -27, -15, 16, 26, 15, 32, -25, -14, 35, -9, 0, 16, 15, 20, -14, -9, 13, -11, 20, 26, 3, 27, -17, 15, 18, 0, 13, -14, 0, 21, 27, -15, 14, 20, 28, -22, -23, -18, -4, 22, 7, 27, -14, 47, 7, 35, 8, -29, 28, -23, 29, -32, 14, -27, -16, -7, -14, -35, -60, -40, 51, 27, 22, 31, -22, -3, -16, 15, -42, 30, 42, -12, -48, 39, -38, -11, -43, -33, 41, 67, -5, 42, -37, 30, 32, 16, -16, 0, 52, 49, 55, 15, -3, -30, 44, 36, 13, 58, 4, 50, -28, 28, -7, -12, 52, 15, -2, 23, 63, -15, -30, -57, -27, 11, 27, 51, 29, -25, 22, 8, 37, -23, -35, -14, 39, 14, 43, -6, 51, 40, -26, -27, -50, -18, -17, 51, -12, -24, 1, -37, 48, -18, -24, 24, 45, -6, -4, 30, -6, 46, 9, 51, 43, -48, -62, -27, -3, 0, -39, 0, -2, 35, 22, -43, -53, 46, -28, 39, -35, 53, 8, -32, -33, -3, -13, 14, -1, -19, -13, -58, -44, -29, -2, -23, 9, -3, -29, -38, 8, -2, -57, 4, 27, -18, -30, 2, 22, -17, -45, 37, 34, 4, -48, 47, -30, -26, -19, -9, 28, -45, 34, -32, 51, -4, 32, 32, -4, -42, 20, -5, -17, -19, -13, -37, 13, 6, 41, 32, -47, 8, -19, -43, 5, -34, 19, 4, -3, -36, 17, 10, 16, -16, 31, 50, 19, -18, -11, 13, -10, -28, 44, -45, -1, -28, -52, -33, -47, -25, 38, -51, 35, -16, -10, 10, 2, -21, -52, -31, 25, 41, -48, -24, 36, 38, 29, 25, 1, -2, 23, 15, 31, 57, -63, 38, -21, 41, -30, -37, -37, -38, -49, -47, -33, 0, 33, -34, 14, -58, 1, -32, 24, 36, 5, 45, -40, -7, 29, 35, -32, -48, -24, -42, 35, 7, -22, -15, 40, 21, 12, 25, -46, 6, 26, -47, -5, -3, 16, -7, 34, -43, 31, 8, 43, -31, -22, 35, -10, -36, -1, 20, 1, -16, -35, 24, 36, -26, -34, 21, -20, 14, -34, 11, -4, 43, 13, -23, -18, 35, 29, 17, 10, -34, -42, 28, 42, -14, -12, -44, -15, 35, 2, 38, -44, 37, 15, 32, -5, -4, 20, -7, 39, -6, 37, -33, -21, -1, -10, -7, -9, 20, 25, -14, 8, 39, 15, 8, 16, -6, 41, -25, -28, -2, -3, -25, 44, 47, -19, 39, 41, -29, -9, -29, -7, 32, -22, 31, -42, -29, -40, -5, -31, -2, -22, -4, 11, -27, 27, 29, 48, -41, -16, -18, 35, 11, 8, 0, 32, -45, -27, -47, -13, 13, 28, 34, -6, 17, 9, 32, 38, 13, -15, -4, 6, 33, -8, 29, 36, 7, 32, -35, 22, -29, 26, 15, 8, -8, 43, 28, 5, 12, 54, -27, -41, 7, -19, -17, 51, 56, -9, -40, 30, 28, 43, 46, 36, 31, -42, -41, 9, -20, -31, -12, -18, -43, -14, 8, 46, -33, -18, 16, -17, 38, 16, 42, -8, -24, -24, 18, -36, 0, 43, 27, -25, 37, -21, -22, 18, 34, -22, 33, 39, -38, 4, -13, -11, 38, 32, -2, 48, -8, -16, -18, -30, -8, -6, 1, -36, -32, 53, -17, 51, -39, 12, -41, -53, 13, -33, -31, 11, -28, -23, 19, -24, 7, 33, 45, 4, 7, -44, 35, -7, 39, 49, 37, 28, 21, 46, -34, 11, 22, -24, -51, -30, 40, -34, -29, 30, -18, 54, 41, -45, -24, -15, 39, 33, 44, -7, -18, 43, 40, 39, -13, 48, 58, 15, 44, 8, -11, -25, 10, -19, 8, -25, -37, 44, 13, -44, -6, 9, -26, -11, 38, -10, -22, -18, 45, 36, -9, -20, 31, -25, -23, -35, -7, 10, -2, -8, 7, -1, 23, 24, -11, 21, 11, -9, 2, 5, 13, -11, -12, 0, -11, -13, 14, 23, -3, 32, -20, -17, 9, -1, 14, 19, -23, -1, -2, 15, 24, -12, -9, 3, -26, -15, -20, 12, 32, 24, 10, 16, 9, 9, -23, 15, -14, -4, 34, 21, -15, 16, -32, 16, -19, -16, -12, 25, 7, 27, -22, -1, -31, -2, 5, 29, 13, 1, -4, 6, -15, 35, 4, -21, -12, 14, 9, -2, 7, -26, 21, -18, 17, -1, 5, 2, -1, -28, 4, 2, 23, -25, 12, -10, -15, 25, 26, -27, -23, 26, -5, -26, -28, 2, 13, 18, -25, -7, 14, -10, -24, -16, -23, -25, 25, 13, 17, 7, -6, -25, 32, 33, -13, 18, -26, -22, 29, 15, 29, 19, -20, -20, -1, 18, 23, 34, -32, -18, -24, -12, -26, 12, 20, 23, -26, 12, 7, -15, 7, -18, 13, -12, -7, -26, 10, -23, -8, -29, 1, -17, -4, 23, 29, -8, 14, 31, 24, 19, -21, -7, 2, 24, -9, -14, 18, 7, -22, 16, -31, 32, 19, 5, -35, 1, -29, 9, 2, 2, -8, 23, 21, -10, -21, -20, 0, 14, 12, 27, 2, 2, -11, -16, 4, -3, -5, -26, 4, 28, -6, -7, -6, -23, 21, -22, 13, 4, 15, 34, -11, 16, 7, -2, 8, 9, 26, -36, 13, 9, 13, 10, 2, 21, -1, -16, 8, -13, -18, 19, 6, -20, 0, 8, -6, -10, -25, 3, 26, 3, 14, 22, 2, 15, -29, 15, 8, -5, 19, 32, -22, -6, 22, 30, -13, 28, 35, -9, -13, -2, 6, 1, 8, 3, -24, 19, -17, 21, -18, 8, -17, -22, 37, 6, 29, -9, 10, -32, -29, -30, 17, -26, -29, 37, -41, -9, -17, -48, 28, -33, 27, -3, 25, -45, -26, -13, 27, -13, 18, -8, -36, 25, -23, -6, 35, -4, -22, -1, -22, -23, -20, -14, 17, -42, 16, -18, 31, -21, 24, -31, 15, 5, 19, -17, -7, -8, -17, -6, -9, -14, 32, 35, 28, 36, 19, 33, 8, 27, 46, 35, -33, 12, -12, 5, 9, -3, -14, 4, 41, 20, 1, 2, 5, 24, 28, -41, -14, -3, -3, 45, 16, 39, 7, -6, -2, 4, 3, -15, 27, -21, 28, 33, -5, 11, -32, -6, -32, -8, 19, -22, -32, -5, -22, -2, 22, 46, -20, -34, -4, -8, -12, 23, 53, 29, -23, 3, 34, -14, 12, -22, -9, -14, 19, 12, 1, -5, 37, 12, -6, -43, 8, -16, 32, 3, 21, 6, -32, 15, 24, 15, -19, -3, 35, -1, 38, -39, 35, 27, 28, 29, -9, 23, 25, 16, 8, 0, -31, -17, 10, 22, -40, 3, 40, -44, 44, -33, -32, -17, 22, -27, 35, -4, -25, -32, 17, 17, -39, 11, 12, -18, 40, -23, 27, -42, 37, 42, -29, 23, -16, 2, 5, 6, 8, -37, 6, 17, 26, -39, -14, 23, 33, 34, -2, 13, -8, 10, -49, -30, -10, 21, 30, -11, -40, 5, 17, -47, -1, -10, 21, 18, 15, -8, 3, -29, -4, -24, 20, 43, 36, 14, -17, -32, -22, -31, 46, 14, -10, 21, 4, 25, 24, -10, 8, -11, -6, -32, -42, -41, -12, -31, -5, 40, 23, 5, -24, -9, 31, -18, 30, -53, 52, -26, -32, 56, -29, 29, -7, -35, -13, -9, -18, 29, 0, -44, 2, -20, -40, 28, -16, -3, 32, -23, -16, -29, -30, -27, 35, -35, 27, -19, 23, -32, -39, 13, -45, 16, -43, -21, 21, 14, 34, -17, 48, 44, -14, -43, 26, 7, 16, -9, -45, 29, -31, -12, 15, 32, -22, -8, -8, 2, 17, -25, 4, -4, 6, 6, -47, -20, 11, 22, 12, -1, -27, -5, -37, -13, 36, -24, 0, -37, 34, -42, 10, -1, -32, 14, -22, -21, -33, -4, 3, 29, -23, -22, 9, 10, 23, 23, -12, 25, 32, -4, -9, 27, 11, 21, -13, -20, -2, -16, 8, 34, -29, 39, -7, -9, -46, -14, -50, 14, 11, 31, 19, -18, 20, 33, -28, 33, -33, -10, -16, -10, 19, 5, 32, -4, -3, -28, -29, 20, -30, 6, 24, 2, -22, 21, 28, 41, 16, -48, -2, -9, -19, -35, 8, -17, 6, 31, -19, -38, 35, 25, -7, -5, -4, 6, 49, -10, -20, -27, -46, 14, 52, -30, -33, -45, -22, -43, -4, -1, 13, -8, 25, -19, 45, -10, -7, -44, 21, -29, 19, 30, 4, 31, -32, 40, 11, 32, 31, -12, -32, -10, -27, 7, 28, -4, 46, -27, -32, 4, -27, -40, 13, 31, -45, -6, 37, 21, 8, -30, -11, -24, -19, -43, 36, -22, 21, -18, -7, -29, 49, 21, -35, 3, 20, 12, 45, -41, 13, -23, 40, 0, -9, 14, 28, 16, -32, 37, -29, -18, -13, 40, -10, 20, 32, 45, -32, -12, 30, -1, 12, 15, -18, 13, 16, -30, 5, 1, 37, 13, -32, 29, 25, 28, -28, -33, 7, 24, 18, -8, 23, -37, -14, 6, -34, 29, 12, 21, 31, -35, 31, -3, -37, 21, -42, 44, -33, 22, 19, -21, 4, 23, -25, 40, 37, -8, -18, -17, -8, 26, -28, -25, 22, -49, 33, -59, -31, -1, 39, 13, 17, -36, -17, 36, 0, -21, -22, -2, 32, -17, -16, -22, 33, 3, 27, -23, -12, 2, 20, -7, 23, 34, -9, -26, 27, 43, -15, 26, -28, 9, -26, -8, 18, -12, 15, 37, -39, -37, -17, -24, 13, -1, 0, 0, 31, -36, 51, 28, -12, 43, -47, -11, 23, -32, -15, 33, -50, -6, 1, 1, 8, 12, 0, 11, -25, -11, -40, 11, -6, -23, -21, -43, -19, -17, -23, -12, -41, -22, -33, 10, -42, -7, -14, -33, 27, -11, -44, 4, 9, -45, -18, 15, -44, 2, 26, 46, 25, -30, -38, -22, 41, 20, -31, 13, -5, -37, 36, -3, 1, 29, 39, -17, 33, -27, -36, -23, 26, 9, 7, -26, -25, -39, 4, -32, 40, 50, 44, 40, -28, 19, -24, -3, -32, 35, 11, -52, 46, 33, 47, 40, -4, -10, -34, 40, -1, -17, 12, -20, 27, 43, 11, -34, 31, 9, -30, 34, 17, 25, -52, 25, -6, -37, -32, 6, 24, -32, -41, 24, 43, 21, 44, -9, 4, 27, 19, -27, -1, 27, -9, 13, 31, 1, 28, -6, 20, 7, -18, 28, -3, 38, 17, -37, -11, -6, -42, -53, 21, -18, 2, 8, 44, 40, -36, -22, -21, 46, 17, 49, -11, -54, -26, -42, -25, -6, -39, 4, 36, -23, -36, 31, 3, -4, -11, -25, 56, 7, 45, 12, -36, -18, 10, -13, 37, -48, 27, -30, -20, 24, 17, 34, -5, 4, -29, -1, -25, -53, -29, -33, 2, 15, -19, 18, 29, 46, -31, -19, -20, -21, 19, -3, 15, 11, 28, 6, 11, -25, -24, 13, -8, 45, 6, 51, -35, -18, -41, -39, -42, -30, 48, -27, 3, -17, -23, 34, 6, -20, -21, 48, 23, -24, -43, 28, -9, 51, 16, -31, -2, 40, 36, 28, 39, 29, 13, 13, 8, -31, -37, -2, 45, 31, -29, 12, -5, -10, 3, -7, 52, -44, -1, 15, 52, -2, 42, 42, -18, 8, -24, -9, -3, -13, -31, -27, -26, 36, -22, -19, 45, -22, -39, 9, 8, -4, 35, -24, -44, 11, 31, 31, -45, 44, -10, -5, -20, 40, -20, 18, -28, -13, -41, 20, 22, 32, 1, 3, -42, 13, -7, 16, 34, 20, 26, 36, 38, 43, -30, -6, -38, -22, -6, -30, -42, -22, 39, 52, -22, 6, -25, -30, -40, 42, 25, 39, 7, 36, 2, -23, -24, 2, 3, 14, 23, 5, 23, -3, 7, 11, -18, 29, -34, 28, -12, 11, 27, -55, 28, 15, 25, 33, -18, 18, 31, 4, 15, 28, 4, 24, 15, -21, 16, -7, 7, 37, 39, -27, 23, 7, -14, -41, 37, 21, 25, -50, -31, -16, -41, 43, 44, 33, 2, 38, 11, 1, -19, -1, -5, -35, -13, -13, -26, 26, 1, -25, 40, -25, 6, 16, 18, -8, 32, 33, 8, -17, 13, -26, 32, 40, -33, -30, -17, 7, 22, -3, -19, -10, 3, -4, 2, 42, -30, 35, 48, -24, 32, -6, 23, -43, -11, -7, 10, -11, -27, -19, 11, 34, -3, -48, 8, -37, -21, 33, 32, -20, -25, 48, -22, 27, -27, 3, 24, 1, 29, 7, -1, 39, 21, -34, -11, 16, 3, 27, -26, 21, 0, -14, 24, 7, 48, -32, 11, -52, -10, 30, 3, 34, -29, -36, -27, -45, -32, 38, -4, 5, -19, -7, 14, 19, -34, -14, 41, 24, 6, 5, -22, 38, 16, 24, 11, -25, -18, 22, -30, -20, 16, 22, 7, -2, -19, 6, -12, 23, -16, -22, -2, -1, 21, 22, -35, 10, -22, 0, -8, -11, 16, 25, 26, 5, 5, 18, 33, -3, -15, -11, 2, -2, 26, 5, 4, -1, 12, 34, -22, -5, -5, -12, -7, 12, -6, -13, -15, -15, -5, 14, -30, 25, 7, -11, -7, 12, -20, -13, 25, 14, -26, -10, 3, 11, 27, 15, 3, 29, -4, -6, -28, -8, 2, -3, -21, -29, 12, 26, -11, -21, -16, 22, -17, -22, -30, 13, 18, -27, 11, -17, -14, -1, -7, -12, -24, 24, -2, -8, -23, 24, 15, -28, -12, 3, 7, -24, 25, -12, -30, 0, -17, 6, 19, -18, 9, 27, -29, 3, -9, -25, 23, 8, -8, -17, 18, -8, 30, 3, -12, 28, -12, 4, -20, 19, -23, -13, -6, 6, -18, 13, 3, 1, -8, -30, -27, 1, -1, 17, 9, -34, -27, -17, -21, -15, -15, -14, -13, -7, -2, 24, -1, -24, -31, -21, 12, -28, -32, -3, -30, 7, 1, 14, 5, -15, -12, 13, -5, -6, -12, -26, 5, -10, -22, 10, 21, 9, -17, 9, 24, -22, 9, -19, 16, 16, -11, -19, -26, -2, -22, 10, 19, 13, 12, 1, 11, 30, -5, -16, 2, -8, -22, -25, -25, -6, 3, -15, -1, 33, 25, -4, -2, 20, -6, 3, -31, 7, 7, 20, -14, 5, -7, 2, -23, 25, -16, -23, -16, -24, -20, -18, -25, -3, -3, 7, 29, 14, -2, -25, 28, -3, 1, -8, -36, 7, -11, 18, 27, -25, 0, 19, 16, -5, -7, -3, -3, -12, -4, -20, -21, -17, -26, -16, -9, 22, -15, 7, 14, 10, -28, 2, -18, 31, 14, -5, -14, 29, 6, -18, -41, 21, -23, 30, -21, -23, 18, 23, -17, 19, -42, -3, 30, -18, -25, -12, -24, 1, 7, 6, -22, -12, -3, 25, -27, -22, -2, -10, -22, -48, 22, -7, -23, -19, 40, -6, 19, -18, 11, 23, 7, 11, -21, -30, 9, 15, 27, 32, 10, 8, 1, 30, 30, -1, -1, -17, 21, -8, -6, 32, -34, -16, -6, 33, 20, 13, 11, 32, 29, 37, 35, 25, -30, 32, 40, -13, 12, 23, 10, -1, -11, 2, 11, 18, 12, 31, -10, -12, 19, -33, 29, 4, -34, 35, 34, -32, -2, 35, -14, -37, -27, -4, 24, -14, -3, 34, -6, 2, -35, -29, 8, -28, -38, 30, 15, 3, -15, -26, 1, -4, -10, -22, -28, 30, -7, 14, 9, 22, 30, -14, 38, -25, 16, -28, 15, -22, -7, -30, 0, -23, 7, -7, 31, -16, -4, -20, 8, 20, 16, 22, -28, 15, 4, 6, 16, 4, 24, -15, 12, 28, -11, 29, -43, 21, -8, 40, 29, -6, 29, -37, 29, 10, 21, -29, 14, 18, 30, 28, -2, -15, 40, -25, -38, 36, -37, 27, 2, -40, 34, 26, -25, 19, -15, -12, -4, -33, -21, 31, 20, -15, -29, 20, -10, -44, 37, -21, -40, 20, 7, -33, -14, 19, -30, -29, 17, -2, -17, -15, 27, 17, 24, -26, 1, -45, 21, -37, -8, -11, -27, 39, -26, 26, 13, -31, -38, 41, -28, -37, -12, -28, 18, -31, 3, -20, -36, -41, -39, -34, -42, 16, -24, -30, 23, -16, -11, -22, -26, 33, 10, -25, -1, 10, 35, -6, 22, 23, -2, -13, 6, -31, -18, 28, -19, 19, -18, -10, 24, 21, -21, -35, 1, 1, -40, 15, 12, -17, 32, -2, 0, 47, 52, 32, 10, 29, -10, -18, -19, -33, -50, -13, 22, 17, -4, -31, -6, -2, 15, 8, 19, -14, 42, 40, 3, 37, 41, 13, 55, 43, -37, -45, -10, 9, -1, -16, -33, 36, -25, -11, -17, 2, -34, 43, -17, 21, -26, 35, 30, -32, -39, 45, -12, 6, -3, 30, 52, 7, 33, -34, -33, -40, -8, -1, 23, 35, 24, -34, -40, 5, 18, -47, 1, 7, 17, 26, -29, 31, 36, -4, -26, -27, -38, -8, 1, -40, -5, -36, 2, 11, -23, -24, 22, -7, -13, -20, 11, 21, 25, -3, -39, 25, 24, -49, -18, 44, 3, -47, -16, -38, -40, 16, 6, 6, -27, -7, 2, -50, -39, -18, -37, -3, -37, -32, 2, 18, -30, -29, 5, 4, -19, -29, 15, -38, -32, -18, 17, -39, -22, -30, 40, -49, -6, 46, -11, -8, -18, 15, -43, -1, 20, 21, -14, 29, 34, -21, 28, 19, 4, -23, 30, 17, 19, -3, -3, 28, 45, 20, 11, -32, -3, -30, 18, -31, 21, 35, 44, -29, 5, 32, 17, -9, -16, 11, -40, 16, -24, -36, 7, 28, -5, -31, -31, -22, -24, 25, -28, -13, 0, -31, 5, -51, -50, 3, 34, -4, 37, -12, -32, -1, 35, -34, 1, 16, 8, -20, 50, -4, -30, 9, 2, 0, 5, 35, 12, 36, -13, -42, 19, 46, -7, 25, -20, -27, 6, -3, 1, -10, -33, 11, -12, 10, 20, -6, 45, -3, 11, -2, -18, -1, 14, -27, 14, -33, 11, 4, 10, -32, 19, -37, -32, 9, -6, -25, 39, -33, -48, -10, 7, 43, -44, 13, 18, -17, -19, 37, 48, 33, -41, -54, -37, 12, 15, 20, -8, 0, 30, 22, 39, -5, -24, 13, -14, -10, 31, -43, 7, -28, 8, 16, -42, 58, -47, 8, -27, 0, -6, -30, 1, -32, -4, 43, 13, -5, -27, -21, 19, 45, -33, -50, -36, -13, -38, -26, 42, 0, 23, -30, 23, 5, -13, -44, 42, 27, 34, 22, 45, -9, -1, -31, -33, -12, 7, 8, -38, -46, -39, -17, 22, 38, 11, 4, -19, -23, 0, 32, -14, 0, -32, 3, -12, 34, -11, 1, 23, 35, -55, 16, -14, -49, 17, -26, 0, -33, -36, -38, 38, 25, 15, 6, -37, 27, 23, 31, 22, -54, -16, -26, 13, -20, 35, -36, 13, 30, -24, 3, -32, 15, 29, 38, 48, -10, 20, 5, -37, 6, 5, 22, -14, 6, -6, 18, -6, -37, 31, -19, -56, 31, 10, 19, 28, -13, -23, -18, -40, -16, -26, -32, 44, -14, 15, 11, -1, -27, 11, -20, -29, -38, 38, -12, -32, -47, 30, 37, 31, 30, -38, -13, -32, -7, 8, -27, 36, -19, 15, 57, 49, -29, 36, 53, 28, 13, -17, 10, 26, 35, 1, 13, 25, 25, 38, -42, 11, -26, 7, 35, -20, 4, -17, 0, -18, -53, -24, -34, 7, 39, 13, 34, -21, 19, 12, 1, 21, 21, -31, -2, 11, -31, 5, -21, 6, 42, 46, 47, 45, -48, 0, 38, 2, -36, -11, -26, -18, 35, -31, 7, -20, -10, 3, -29, 42, 39, -5, -30, 28, 26, 50, -24, -30, 36, -2, 5, 36, -19, 14, 14, -6, -27, 10, 7, 0, 17, -51, 18, -23, 25, -4, -11, 45, -26, 8, -8, -4, 43, -28, 38, -26, -11, -53, 7, 6, -16, -35, 25, 32, 20, -28, 13, 0, -37, -41, -7, -21, -34, 17, 13, 11, 6, 38, -22, 19, 24, 20, -10, -10, 37, -40, 40, 9, 13, 9, 24, -24, 2, -27, -28, 26, 30, 0, -16, -34, 6, 3, -33, 32, 25, 1, 3, -19, 11, 15, -10, -4, 25, 2, 9, -37, 1, -46, -5, -8, 23, 43, -40, 10, -23, 33, -34, -26, -40, -37, -28, 20, -6, 47, 31, 24, 2, 10, -6, 7, -17, -12, -30, 24, 9, 12, -19, 21, 31, -4, 27, 2, -26, 15, 28, -35, 9, -19, 10, -26, 21, -2, -8, 10, 6, -20, 1, 24, -39, 27, -13, 2, 43, 33, -33, 31, -14, 37, 6, 26, 20, -16, 22, 29, -17, 13, 1, -21, 32, -24, 34, -36, 8, 26, 6, -6, 27, 3, 33, -16, -18, 11, 24, 24, -9, -36, 28, -29, 21, -28, 4, 34, -20, -31, -11, -38, -24, -15, 24, -12, 1, -4, -28, -25, 17, 10, 14, -18, 8, 16, 23, -16, -2, -21, 37, 5, -23, -30, 20, -43, -8, -13, -34, 18, 1, -3, 4, -37, -18, 26, -13, -8, 14, 14, 20, -21, -33, 22, -9, -20, -18, -37, 25, -6, -22, -3, -29, 52, 6, 14, -26, -12, -8, -30, 23, 17, 4, 31, 26, -14, 26, 0, 18, 4, 17, -27, 8, -30, 22, 1, 21, -18, -38, 41, 25, 13, 29, 24, -35, -10, 6, 7, -16, -23, -6, 11, 3, -34, -4, -15, -8, -4, 32, -19, -19, 37, -8, -20, -22, -6, 7, 40, 30, 25, 13, 11, 41, -26, 29, -16, 1, -13, 10, -10, -23, -27, -3, -14, 13, -26, -4, 15, 14, -29, -19, -9, 18, 35, -27, 6, 26, 35, 30, 34, 29, 11, 43, -39, -20, -41, -14, 35, -31, -40, 25, -7, 30, -5, 2, -20, 21, 9, -30, -17, 41, -7, 15, 23, 16, 31, -18, 34, -6, 25, 35, 4, -34, 26, -20, 39, 4, -11, -6, 39, 6, -19, 19, -4, -32, 10, 29, 17, -34, -27, 4, 35, 28, 2, -25, -31, 8, -38, -30, -9, -7, 48, -35, -40, -8, -26, -38, 14, -22, 27, -9, -10, 19, -36, -23, -27, 13, 16, -14, -30, 8, 20, -6, 13, 32, 5, 10, 16, -3, 34, -20, -29, 31, 3, 34, -25, -1, 33, -35, 24, 0, -29, 9, -26, -28, 13, -12, 4, 2, 14, 17, -27, 34, 26, 8, -23, -38, -30, 14, 26, -16, -25, 7, 5, 2, 12, 3, -1, 31, -7, 31, 2, -10, 16, -46, 9, 20, -6, -25, 5, -26, -24, -27, -19, -5, 32, 48, 29, -11, -5, 14, 11, -33, -38, 19, -14, 36, 21, 20, 25, -37, 30, -23, 35, -9, 22, 32, 21, -8, 16, -27, 11, 25, -4, -7, 45, -41, -4, -20, -36, 29, 2, -25, -3, -25, -42, -39, 0, 7, 39, 8, -20, 17, 16, 8, -2, -29, 11, -26, 40, -23, -35, 15, -9, 30, 30, 23, -20, 1, -17, 5, 22, -7, 43, 27, 20, 15, -22, -49, -5, -36, 40, -26, -37, -26, -19, -27, -19, 37, 30, 37, 4, -14, -13, -3, 6, -9, -19, -1, -5, -19, -5, 34, -20, 8, 7, -30, 10, 25, -16, 24, -7, -2, 28, -14, 7, 14, 5, -40, 10, -30, 22, -4, 38, 41, 4, -14, 6, -39, -29, 25, 26, -41, 7, -33, -10, -36, -6, 41, 3, -11, -33, 38, -10, 15, -17, -36, -1, -28, -29, -14, 39, -26, 40, -19, 20, -44, -15, -31, 1, 12, -14, -4, -12, -23, -21, 4, -32, -28, -25, 10, 6, 20, 2, 19, 37, -6, 31, -5, 22, -1, -16, -12, 29, 2, 32, 17, -2, 27, 31, -13, 4, -6, 19, 15, -23, -6, -14, 8, -18, 19, -31, -19, -17, 34, -19, -22, 14, 16, 11, 27, 2, 20, 2, 15, 33, 18, -4, 18, -23, 18, 25, 23, -4, 11, 20, 40, -18, 19, -32, 23, -4, 5, 27, -13, 30, -32, 37, 3, -18, -23, 5, -18, -35, -18, -9, 7, -11, -4, -8, 7, -2, -35, -1, -9, -27, -2, 31, 6, -11, -4, -10, -4, -34, -16, -32, -22, 2, 28, 23, 32, -14, -16, 1, 10, 14, 32, -3, -18, 31, 22, -18, 4, 16, -18, -12, -26, -14, 41, 11, -29, 17, -2, 13, -26, -37, -13, 27, 4, -26, 26, -27, -10, 45, 6, 4, -14, -2, -6, -21, -19, 38, -18, 18, -28, -8, 3, -15, 23, -14, 32, -19, 25, -17, -31, -12, 18, 6, -13, -2, 1, 3, 34, 31, -1, 28, -13, -5, 25, -16, -13, 6, -32, 9, 38, -5, 30, 34, 19, -19, 18, 31, -7, 16, -3, 36, -31, -7, 36, 22, 10, -1, -17, -35, -22, -30, 20, -19, -13, -13, -18, -26, -1, 19, 17, -13, 14, 40, -16, -6, -39, 35, -13, -33, 31, -7, 2, 5, 16, 1, -39, -21, 16, -16, 10, 40, 3, -24, 10, 33, -13, -11, 0, 14, 0, -11, 28, -10, 11, -32, -12, -14, -11, -7, -32, -16, 22, -19, -5, -17, -1, 6, -4, -13, 14, -37, -3, 16, 22, -8, -17, -23, -9, 6, -14, 33, -31, -30, 19, 25, -6, 13, -12, 21, 9, -23, -10, 16, 39, -18, 33, -37, 14, 35, 22, 27, 5, 27, -21, 47, 36, 48, -3, 13, 45, 35, -27, -24, -16, 4, -11, 14, 4, 5, -4, -15, -15, -6, -7, -17, -29, -3, -15, 2, -2, 20, -14, -32, -4, 36, -12, -18, -4, 8, -21, 10, -26, 14, -1, -26, 3, 0, 20, 0, -22, -29, -14, -4, -31, 24, -9, 5, 29, 38, -2, -34, 0, 33, 37, 33, 8, 9, -19, -13, 19, 14, 27, 43, -37, 25, 33, -20, -23, 39, 7, 10, 19, 21, -42, -10, -24, -6, 0, 25, 24, -17, -30, -1, -5, -24, 2, -4, -29, 24, -24, 9, 20, 12, -12, 29, -27, 39, -11, -22, 33, 20, -2, 15, 11, 29, 1, 17, 16, 50, -14, -36, -38, -8, 13, 14, -18, 14, -25, 34, -11, 13, -15, -25, -4, 23, -43, 16, -30, 4, 4, -27, 21, 10, -1, -14, -9, -15, 23, 14, -25, -29, 38, 11, -14, 36, -8, 18, 29, -28, 4, -6, 8, -40, 6, -23, 4, 41, 26, 28, 16, -17, 16, 20, -29, -9, -30, 0, 47, 3, -18, 27, -32, -4, 7, 14, -13, 9, 0, 29, 14, -9, -35, -18, -47, 16, -18, 42, 9, 30, 1, 31, 3, 30, -41, -1, -5, 3, 33, 26, 3, -21, 30, 45, -16, 19, 4, -29, 29, 14, 14, 8, 4, -23, 9, -23, 20, 1, -19, 12, -1, -19, -14, -31, 32, 18, 21, -6, -1, -27, -20, 7, -31, -13, 11, 34, 35, -3, 37, 36, -29, 16, 12, 30, -18, 20, 4, 15, -7, 17, -20, 21, 33, 44, -24, 17, 19, 18, -12, -10, 18, 21, -38, 18, -42, 23, -17, -6, -14, 42, 9, -40, 7, 6, -16, 8, 11, 37, -42, 6, 1, 2, -6, -15, -2, 1, -3, -27, 32, 16, 35, -10, -17, -41, 10, -37, -16, -7, 31, -35, 16, 33, 41, -26, -10, -33, -47, -35, 0, 35, -3, 11, -32, -36, -24, 1, -38, -7, -19, 4, -3, -40, 8, -7, 28, -41, 27, 16, 6, -32, -24, -34, -8, -32, -40, -13, -47, -18, 22, 23, -31, 8, 22, 26, 9, -4, -21, 4, 32, -17, -19, 4, -15, 16, -49, 30, 6, -6, -33, 23, -38, 2, 9, -25, 8, -14, -21, -27, 8, 38, -29, 37, 15, -30, -38, 22, -8, -44, -29, -33, 35, -10, 45, 6, 15, -6, 15, 13, -9, -40, 30, 10, 46, 36, 31, -3, 31, -20, -6, -35, 16, 12, -14, -11, -25, -34, 1, 39, -25, -30, 39, 4, -8, 19, 28, -27, -23, -14, -29, 8, -26, -22, -14, -28, 0, 6, -26, -32, 1, -28, -5, -4, -11, 22, -41, 4, -23, -40, 28, -31, -46, -5, 35, -21, 13, 8, -10, -21, 1, 20, -3, 24, -24, 39, -7, 15, -31, 33, 42, -8, -6, 33, -9, 34, 35, 40, -20, 16, -35, 5, 28, -11, 6, -39, -13, -38, 32, 15, -9, 16, 33, -12, -17, 25, 14, 20, 1, -18, 1, -14, 26, -7, 33, 29, 20, 36, 18, 0, 8, -38, -32, -33, -8, 15, 5, 23, 24, -19, -5, -25, 4, 22, 32, -16, -3, -15, 46, -3, 12, 30, -21, -19, 29, 26, 2, -5, 26, 31, 36, 3, 26, 8, 4, 33, 30, 37, 3, -34, -7, -33, 38, -21, -30, 0, 26, 23, -12, 10, 28, -39, -29, 15, -38, 6, 2, 41, -14, -16, 24, 35, 1, 35, 16, 7, 26, 28, 37, 27, 8, -26, -17, 20, -24, -10, -15, 31, 23, -35, -25, -35, 21, -43, 18, -9, -2, 37, 40, -38, -34, -33, 16, -8, 38, 5, 3, 15, -26, 3, -3, -1, 51, -7, 12, -14, -20, 15, 34, -30, 24, -23, -15, -40, 20, -15, 29, 34, -27, 31, -21, -11, -17, 13, 24, 22, -39, 28, 24, -8, 37, -2, 14, 30, -27, 32, -3, 4, 20, -33, -22, 16, -21, -26, 5, 19, -24, -11, 7, -16, 6, -18, 4, 22, -35, 18, 7, 32, -14, 14, 12, -4, -29, 11, 22, -13, 0, 24, 35, -13, 24, -26, 4, -35, 33, -45, 17, 21, 24, 22, -46, -26, -45, 7, 12, -9, -9, 26, -7, 23, -25, -28, -16, 19, -25, 20, -27, 7, 31, 36, -7, 25, -4, -24, 40, 14, 18, -30, -3, -23, -8, 27, -6, 5, 22, -5, 1, -6, -15, 40, 2, -7, 10, -35, -27, 39, -1, -35, 6, -20, 2, 15, 26, 9, -9, -25, -12, 20, -5, -9, 21, -14, -6, -23, -24, -35, 37, -1, -25, -13, 28, 35, 39, -3, -14, 11, 12, 7, 22, 43, 5, 15, -16, 40, 32, -27, -26, 27, 6, 33, -19, 0, 34, 29, 34, -26, -28, -29, -30, 15, -16, -50, 34, 10, -30, 29, 24, -32, 29, 10, -17, -15, -21, 31, -21, 33, -32, 32, -24, -36, -5, 42, 3, 17, 24, 32, 36, 17, 8, 30, -31, -35, 24, 25, 43, 5, -17, -1, 21, -26, -12, 29, -12, -5, 13, 20, -9, 20, -16, 24, 43, 32, -25, 12, 23, 35, 18, -26, 5, 35, 22, 23, -3, -11, 30, -26, 8, 27, 2, -20, -23, 16, 14, 8, -5, 32, -8, 34, 13, -6, 4, 30, 14, -1, -20, -31, 26, -14, 24, 17, 7, 16, -36, 20, -2, -32, 12, 13, -12, 14, 3, -25, 25, -27, 8, -30, 2, 7, 16, 16, 0, 8, 13, -25, 10, -14, 5, 13, 10, -10, 4, 3, -1, 12, -25, -1, -16, -25, 30, -23, -3, -13, 23, 7, 7, -4, 28, 16, -5, 31, -25, -29, 14, 14, 21, 10, -6, 18, 2, 23, 18, -35, -24, 13, 27, -2, -30, 13, 7, 1, 3, -38, -20, -5, -2, 0, -3, 18, -29, -21, -4, 34, 21, -27, -12, 23, -28, 22, -8, -1, 22, 0, 3, -10, 25, 12, -7, 28, 10, 24, -5, 0, 30, 31, -27, -21, -10, -20, 24, -18, -29, 15, -11, -25, 18, 4, 10, 22, -14, -13, 10, -28, -7, -4, 16, -7, -31, -8, -7, -38, -10, 31, -11, -13, -21, 5, -6, 8, 4, 26, -14, -15, -22, 22, 4, -8, -27, 16, 23, -17, -14, 16, 8, -17, 1, -4, 29, 5, 5, -26, -15, 17, -13, 21, -22, -15, -14, -7, -28, 32, -18, -8, -27, -28, 3, 2, 35, 10, -4, 13, 4, -38, 26, -14, 7, 0, -6, -32, 5, -23, 1, -1, -10, -2, 12, -16, -20, 6, -4, -24, -27, 1, 25, -31, -9, -1, 6, 26, -14, 3, -5, 16, 26, -22, -31, 7, -15, 19, -30, -13, -10, 7, 9, -16, -23, -24, 2, -6, -13, -27, -21, -25, -28, -26, -34, -34, -2, -27, 12, 27, -23, 16, -26, 8, -34, -35, 4, 1, -5, -10, -30, 18, -3, -38, -26, 24, 31, 39, 49, 41, 27, -5, -34, 4, 24, -20, -32, -26, -47, 39, -13, 1, 56, 31, -38, -15, -1, -26, 23, 28, 21, 2, 37, 35, -34, -42, -19, 41, -52, 31, -11, -3, -14, -6, 4, 17, -44, -40, 25, -43, -44, -26, -17, -33, -18, 5, 14, 64, 3, 8, 5, 7, -16, -33, 28, 47, 40, 37, 60, -57, -2, -15, 16, 23, 19, 51, -45, 0, -36, 31, 33, -4, 46, -4, -14, -25, 25, 2, 1, -48, -3, -3, -40, 53, 17, 30, -21, 24, -24, 17, -54, 21, 2, 51, 40, -55, -5, -69, 6, -12, 18, -46, -28, -35, 3, -17, 35, -64, -12, 30, 28, 26, 33, 38, 8, -4, -34, -1, 32, -47, -20, 48, -19, 4, 28, -29, -24, 1, 28, -40, 2, -27, 8, -29, 17, -15, 32, 0, 4, -56, 5, -37, 6, -39, -43, 28, -17, -38, -36, 44, -29, 20, -22, -32, 6, -27, 5, -5, -35, 16, -42, 43, 41, 53, -13, 17, -45, 16, -38, 56, -13, -41, 29, 57, -47, -34, 27, 42, -55, 26, -25, -38, 18, 49, -39, -32, -40, 7, 37, 38, -7, 9, 40, 10, -33, 50, 4, 14, -37, 8, 15, -59, 12, -2, -20, 9, 24, 1, -14, -56, -10, -30, -29, -14, 53, -25, 29, -18, 43, -9, 2, 5, -3, 21, -36, -50, -51, -48, 38, 52, 34, -17, 33, 16, -4, -4, 7, -49, 16, -11, 33, 15, 46, 33, -28, -18, -29, 17, -1, -28, 6, 27, -12, -12, -14, 30, 24, 17, 53, -5, 22, -15, -20, -34, -31, -19, -5, 23, 42, 47, -8, -49, 49, 11, 35, 18, -45, 27, 10, 17, -40, -11, 41, -24, 4, -25, 7, -2, -19, -24, -25, 23, -21, 16, -5, 3, 19, -17, -27, 46, 29, -6, -30, 4, 16, 37, -19, -22, 8, -3, -32, 14, -25, 5, -24, 3, 15, -14, -3, 20, -25, 33, 10, -15, -29, 17, -17, 16, 23, 25, -16, 26, -13, 32, 8, 20, -10, 6, 31, -38, 26, -11, -25, -39, -32, 15, 10, -15, 17, 6, 7, 9, 9, -16, -19, 22, -26, 4, -4, 13, -25, 43, -5, 14, -36, -18, 6, 13, -26, 26, 12, 34, 8, 12, -32, 11, 14, 19, 25, -6, -45, 11, -24, -28, 2, 7, -9, -12, 36, -11, -30, 9, 15, 28, -30, 1, 18, 26, -18, -29, 25, -28, 22, -6, 31, 34, -11, 43, 6, 32, -11, -31, -35, 11, -28, -34, 30, 6, 25, -3, -3, 6, -32, 40, 26, 18, 4, 38, -10, -23, 11, 4, -6, -30, 21, 11, 28, 22, -11, 6, -12, -35, -33, 31, -12, 12, 10, -11, 31, -36, -9, 21, -11, 38, 16, -23, 9, 25, -35, -31, 5, 32, 23, -25, 27, 24, 17, 6, 9, 0, 27, 44, -4, 21, 12, 13, -34, -9, -27, -4, 29, -20, 42, 41, -31, -25, -38, -5, 12, 28, 2, -34, -7, 35, 17, 13, -13, -13, -26, -5, 13, 45, -14, 40, -3, 21, 18, -34, 15, -26, -32, 30, 6, 3, -4, 11, 38, 42, -12, 12, -21, 13, -19, 11, -33, -11, 11, 3, 7, 30, -16, -29, 12, -14, 30, -28, -35, 37, 31, 44, 3, -22, 28, -14, -5, -34, -29, 12, 22, -32, 34, 25, -36, -1, -6, 8, -8, 5, 45, -23, -23, -32, 30, -24, 31, -21, 28, -17, 38, -20, 23, -29, 27, -27, 23, 34, -27, 22, -16, 2, -1, 32, -37, 29, 23, -31, -1, 26, -27, -4, -28, -35, -17, 8, 18, -36, -7, 24, -41, 9, 39, 31, 16, -38, -34, 21, -14, -20, -33, -14, 7, 40, 21, -2, 34, 7, 1, -35, -14, 28, -27, -4, -3, -10, -36, 4, 20, -41, 18, 9, 26, 6, 30, 34, -16, 16, 28, -6, -39, -36, -28, -8, -20, 15, -29, -41, -30, 5, 31, -36, 22, -3, -14, 4, -21, 8, -21, 11, 4, 16, -10, -31, 12, 10, -26, 40, -21, -20, -21, 0, 27, 4, -9, 28, -7, -3, 28, 13, -19, -33, 8, 16, -8, -19, -6, 6, 8, 4, -5, 5, -39, 36, -5, 12, -19, 11, 16, 0, -41, -10, -17, 9, 37, 12, 26, 7, -31, 22, 14, -33, 13, 8, 12, -1, -18, 30, 37, -16, 2, 3, -8, 21, 35, 27, -18, -31, -24, 7, -12, 7, -5, 14, 16, 34, -21, -30, 18, -6, 8, -28, -25, 15, 28, -17, 20, -12, -21, 4, 20, -29, -10, -25, -35, -27, 2, -37, 9, -40, 28, 19, -32, -18, 30, 16, 19, -31, -15, -10, -25, 40, -20, 6, 6, 50, 11, -24, 48, 16, -29, -8, -22, -22, -32, 28, 19, -3, 1, 2, 0, 16, -21, 26, 15, -11, -21, 20, 22, -9, 9, 4, -11, 0, 26, 32, -27, -2, 4, -24, -10, 15, -39, -27, 37, 33, -11, -23, 31, 19, 19, 20, -29, -25, -16, 24, 14, 6, 8, 36, -6, -21, -9, 1, 21, -29, 20, -2, -31, 25, 22, -15, -9, -10, 3, 16, 6, 8, 26, 17, -34, -17, 14, -30, 20, -38, -2, 27, -12, -17, -8, -46, 31, -19, 36, -21, -27, -22, 39, 34, -38, -22, 4, 30, -44, 8, 6, 5, 43, 16, -5, 6, -8, 36, 26, 23, -35, -40, -16, 1, -20, 37, 1, -23, -26, 11, -30, -22, 26, -29, 20, -40, 32, -35, 26, -25, 38, 43, -32, 34, 35, 32, -21, -8, -2, -32, 42, -31, -3, -4, -41, -28, 15, -22, 14, -8, 8, 20, 33, 6, 44, 9, 21, -1, 37, -30, -17, -29, 40, 10, 35, 41, -3, -16, -49, 0, 24, -47, 5, -2, 42, 38, 37, 19, 25, -18, -34, 41, -3, -18, 28, -25, -33, -40, -41, -27, -16, -2, -33, 40, -1, -35, 18, -45, 27, -30, 26, 11, -25, 36, -3, -49, 36, 21, -25, 14, 6, -38, -36, -33, -7, -17, -11, -23, -24, 8, 11, 5, 28, -28, 38, 26, 6, 53, 22, -9, -16, 1, -43, 30, 29, 34, 0, -5, -23, 8, -24, -19, -14, -33, -33, 27, 11, 3, 50, 35, 0, 3, -38, -38, 3, 0, 14, 40, -5, -48, -18, 27, 39, 40, -1, -4, -13, -10, 19, -27, 20, 21, 50, -39, 38, 8, -26, 35, -34, -36, -2, -6, 28, 4, 31, 33, 58, -54, -22, -11, 41, -17, 5, 32, -29, -20, 37, -19, -38, -8, -32, -19, 36, 24, 21, -17, -16, 8, -25, 6, 15, 53, 36, -3, 21, 0, 23, -62, 58, -30, -19, -11, -3, 20, 30, -16, -34, 47, -33, -10, -9, 22, -6, -27, -29, -18, 43, 26, 27, 10, -20, 29, -17, 33, -4, -23, -43, -8, -51, -34, 41, -49, -37, 20, 40, 4, 35, 23, -21, 18, -20, 9, 0, 40, -18, -25, 34, 25, 53, -54, -2, 13, 36, 7, 30, 11, -26, 39, -4, -20, -21, 12, 23, 4, -15, -16, 24, -26, -14, 18, 20, 0, 25, 14, -19, 10, 5, -6, -24, 4, -31, -32, 44, -17, 2, -27, 30, 6, 22, 5, 12, 25, 42, 27, 23, -8, 18, -22, 3, 6, 19, 30, -8, 5, 6, -17, 17, -35, -32, -12, 23, 15, -5, 25, -5, -3, 32, 33, 3, -11, -17, -30, -24, -44, -35, -17, -21, -33, 8, -6, -8, -33, 31, 10, 11, -33, -27, 3, -2, -7, -4, -11, 6, -23, -9, -9, -13, -23, 25, -36, -2, -12, 16, -29, 26, -15, -7, -25, -13, 2, -30, -19, -7, -28, -28, -8, 14, 24, 7, -15, 22, -2, 29, -3, -3, -15, 10, -14, -1, -12, 11, -27, 10, -2, 11, -13, 5, -12, 9, -2, -16, 0, -6, -21, -30, -20, 11, -9, 13, 32, 15, 21, 17, -2, 22, -5, 4, -23, -2, -9, 19, 15, 14, -20, 9, 33, 18, 6, 4, -22, 15, -2, -2, -29, -14, 27, 13, 2, 14, -30, -4, -18, -38, 4, 6, -36, 14, 10, -23, 16, -24, 2, 6, -17, -9, -34, 22, -2, 7, 18, -25, 31, -24, 1, -32, 17, 9, 18, 0, -24, 24, -24, -20, 39, 18, 42, 17, 21, 27, -33, -33, -1, 27, -19, 39, 5, 16, 16, 16, -5, -1, 7, 20, -9, -29, -8, -15, -30, 32, -35, -14, 1, 7, -21, 4, 6, 1, 5, -18, 10, -15, -18, -18, -27, 12, -8, -21, 12, -12, -23, -3, 26, -26, -17, -24, -10, 1, -22, -5, -23, -4, 12, 15, 24, -25, -39, -28, 10, 6, -17, 7, -44, 6, -19, -24, -39, 24, -4, 4, -8, -22, 5, 5, -4, 0, -22, 0, 2, -11, 38, 3, 14, 7, -23, -41, -41, 8, -34, -25, 41, -42, -21, 23, -12, -22, 9, 11, 3, -43, 7, -24, -41, 25, -45, -28, -30, 7, 35, -37, -26, -5, -18, 8, -36, 43, -13, -55, -42, -2, -16, -39, 5, 3, 25, 20, 1, -5, -12, -8, -20, -40, -8, 5, -18, -33, 21, 24, 11, 16, -19, -35, 1, -20, 0, -12, 25, 32, 8, -51, 20, -19, 33, -46, -11, -4, 23, 26, -16, -25, 33, -9, -3, 31, -8, 27, 10, -33, 24, -10, 30, 32, -16, -7, 23, 35, -23, -20, 31, 44, -47, 29, -29, -46, 37, -32, -28, -22, -13, 16, 36, 24, -4, 15, -21, 31, -12, 24, 39, 41, -15, 22, 27, 15, 2, -22, 1, 34, 1, -32, 42, 30, -10, -17, -26, -5, 19, 3, -12, 15, -26, 5, 15, -18, 35, 22, -17, 8, 35, 12, -18, -24, -38, 12, -1, -6, 4, 21, -34, -7, -18, 17, 12, 40, 13, -36, 21, -14, -20, -7, -29, -21, -26, -35, 11, -19, -4, 30, -15, 1, -36, -22, 8, 16, -17, -26, -16, -9, -1, 26, 32, 32, 0, 0, 62, -28, -16, 0, 8, -18, -1, 34, -33, -20, 6, 38, -2, -34, 24, -1, 7, -4, -15, -37, -37, -38, -16, 41, -1, 42, 40, 51, -22, -37, -24, 32, 32, 37, 35, 2, 14, -45, -30, 2, 16, 15, -44, 44, 46, 38, -21, 34, 24, 31, -17, -33, 14, -3, 3, 37, 11, 31, -22, 30, 9, 33, -20, 23, -19, 35, 35, 17, 8, 5, 2, -16, 17, 31, 35, -6, -19, 5, 31, 30, 17, -10, 7, -35, 38, -1, -4, 14, -19, 26, -9, -10, 27, -7, -15, 25, -25, -41, 29, -9, 25, -34, 4, -1, 9, 13, -18, -32, -8, 3, 10, 6, 3, -11, 38, -5, -20, 36, 34, 13, 15, -46, 47, -6, -4, 19, -22, 40, -22, 31, 50, 37, -8, 41, -41, 29, -4, 17, -25, 50, 32, 20, 31, -12, -6, 14, -22, 35, 20, -2, -3, 25, -14, 9, 18, -6, 42, -12, 26, 33, 28, 14, 5, -3, 36, 15, -28, -2, -24, -31, 10, -28, -20, 30, -25, 36, 7, 40, 32, 28, 3, -35, -12, -38, -38, 23, -2, 7, -29, 24, 16, -25, 16, -16, -17, 19, 22, 11, -31, -5, -5, 30, 43, -17, 25, 14, -17, 32, 8, 19, 1, -32, 6, -7, 23, -8, 1, -19, -33, -38, -1, -23, -25, 26, 21, 6, 8, -7, -33, 19, 33, -1, 42, 46, -8, 14, 1, 28, 17, 25, -8, -6, 33, 31, -9, 4, -24, 2, -32, -29, 2, -19, 1, 9, 30, -24, 6, 39, -30, 16, -15, -4, 11, -14, 24, -12, -18, -38, 39, 38, 30, 10, -2, -38, -41, -38, 27, 20, 43, -22, -29, 35, 16, 11, -35, -34, 46, 37, -13, -31, 12, 2, 47, 11, 2, -1, 11, 44, 43, 11, -3, 51, -16, -20, 31, 51, -9, -41, -1, 34, 16, -6, 5, -26, 38, 2, -21, -16, -47, 10, -7, 27, -7, 47, -21, 30, 5, -23, 2, 41, 45, 22, 14, 22, 20, 53, 11, 31, -38, -45, 40, 18, 3, -40, -36, 5, -33, -17, 14, 43, -12, 22, 51, -31, 35, 5, 11, 13, -16, 12, 14, 16, 14, 23, 14, -20, 40, -24, -23, -36, 30, -25, 29, 37, 4, 5, 26, -20, -24, 0, 41, -24, 13, -38, -35, -24, -16, 19, 33, 34, -42, 45, 41, 26, 41, 4, -36, -25, -39, -13, -49, 2, 5, 40, -38, 47, -1, -16, -19, -24, -31, 4, 19, -19, -37, -49, -2, -8, -29, -44, -54, 6, 29, -17, 7, 12, -4, -40, -18, 28, -38, -36, 36, -40, 26, -8, 43, 23, 27, 32, -41, -9, -12, 46, 15, 0, 50, -5, 9, 29, 6, 26, 2, 42, 20, -13, -45, 30, 11, -19, -1, 17, -34, -45, -9, -17, -10, 15, -45, 31, -34, 2, -43, -33, -33, -37, 15, -8, -1, 50, 48, 26, 2, -37, -21, -29, -9, 38, -15, -6, 52, -20, -53, 3, -50, 41, -46, -6, -5, -21, 12, 20, 9, -21, -19, 3, -30, -10, -36, 31, -24, -36, 22, -18, -3, 18, 0, -16, -27, 55, 25, -26, -32, -6, -14, -2, 21, -6, 46, -48, 24, 21, -47, 50, 7, 17, -45, -14, 31, -30, 6, -6, 27, -3, -5, 33, 24, 8, 44, -44, -26, 9, 0, -41, 17, -38, -33, 18, 27, 14, -21, -49, 6, 47, -17, 15, -23, 18, 42, 8, -25, 27, 3, 45, 21, -32, 11, 18, -40, 37, 14, 46, 30, 9, 50, 32, 23, 21, -19, -39, -17, 12, 9, -29, -4, -11, -18, -2, 51, 46, 4, 20, -9, 1, -6, -43, 63, 38, 0, 24, 9, 9, -26, 4, 57, 37, 48, -35, -1, 2, 21, 8, -41, -30, 9, 19, -23, 39, -19, -38, 15, 35, 16, 30, -12, 4, 18, 7, 25, -48, 34, 43, 4, 23, 31, 39, -7, 49, 39, -48, -34, -40, -35, -14, -13, -23, -12, 38, -13, -18, -32, -4, -4, -13, -14, -35, -20, -18, -18, -5, -49, 38, -29, -2, -53, 26, -31, -45, 66, -40, 7, 32, 7, 15, -54, 25, -22, -39, 31, 14, 12, 40, 12, -40, 41, 44, 32, 37, -27, 40, 14, 23, -6, -24, -17, -16, -9, 12, 11, -31, 9, 49, -64, 36, 38, 46, -15, 17, 26, -46, -36, 3, 41, 37, 13, 28, -23, 22, 12, 58, 36, 44, 36, 38, 42, 19, 58, 10, -54, -2, 45, -34, -10, 34, 19, 5, -9, 15, 36, -23, -20, 15, -46, -22, 4, -23, -48, 22, 7, -57, -35, -3, -8, -38, 27, -6, 20, 28, 23, 38, -44, -28, 44, 37, -44, -5, 38, -18, -7, -52, 15, 18, -23, -22, -23, -51, -43, 28, -24, -30, -16, 9, -49, 29, 26, -10, 10, -34, -28, -46, 27, 15, 18, -13, 32, 12, -43, -4, 0, -52, -43, 25, -6, 26, -29, 43, -26, 24, -38, 5, -37, -32, -47, 45, -19, -33, 44, 19, 52, -14, 27, 26, -32, 5, 44, 3, -4, -40, -45, -16, 7, 4, 55, -17, -52, 39, 11, 11, 22, -21, -3, -22, 13, 30, -51, 11, 33, -26, -25, -24, 36, -30, 50, 6, 25, 4, 5, 38, -28, 20, 47, 36, 20, -9, -23, -5, -31, -41, -12, -21, -51, 20, -8, 58, 3, -1, -18, -64, 20, -28, -25, 31, 1, -31, -1, -35, -33, 8, 24, -31, -49, 0, -21, 4, -52, -27, -9, 12, -32, 0, 8, -3, -14, -37, -44, 27, -33, -26, -20, 44, -1, -19, -3, 14, -39, -31, 43, 46, -47, -24, 42, -41, -46, 42, 47, 43, 33, -35, 9, 29, -20, 32, 3, -26, 12, 45, 9, 9, 21, 41, -57, 12, 25, 12, 49, -35, 8, -48, 36, 8, -40, -51, -4, 25, -8, 30, 18, 2, -11, -9, 0, 22, -24, 37, 29, -27, -1, 34, 50, 5, -3, -12, 35, -35, 13, -18, 43, 14, -19, -42, 48, -10, -16, -28, 34, 9, 28, 6, -5, 43, -22, 30, -37, 12, -1, -32, -14, 42, 7, 31, -39, -13, 22, 32, -14, -29, -11, -29, -43, -29, 1, 23, -16, -18, 13, -27, 16, 3, -4, 29, 40, -37, 28, -15, -12, 10, 28, -1, -39, 22, 7, -15, -18, -30, -12, -30, -30, -26, 22, -30, 43, 4, -42, 13, 27, -43, -41, -2, 15, 37, -10, -31, -5, 21, -3, -24, 41, 37, 8, -41, 16, 11, -40, 12, 31, 14, 29, -12, -36, 28, -28, -7, 16, -30, -23, 21, 41, -23, 35, -41, -34, -44, 1, 43, 7, -29, -41, 27, 16, -3, -27, 16, -15, -15, -21, -25, 42, -12, -2, -8, 4, 7, 16, 26, -49, -27, -29, 12, -5, 14, -40, 18, -6, 3, -51, 17, 22, 35, 9, 18, 3, 33, 6, 16, -4, 0, 21, 46, 8, -13, 33, 21, -37, 20, -3, -44, -32, 2, -7, -6, -33, -25, -31, -33, -8, 32, 18, 29, 3, -6, -20, 6, 12, 35, 4, -2, 4, -43, 17, 13, 39, 32, 22, 27, -31, -3, 25, 31, -44, -25, -7, -28, 46, 2, 33, -28, -1, 33, 15, -10, 8, 34, -11, 37, -6, 30, -9, 16, 39, -37, 12, 39, -21, -31, 29, 33, 29, -35, -39, 2, -25, 34, 0, -1, 42, 39, 37, 8, 15, -42, -39, -18, 25, -48, 8, -18, 31, -25, 30, 18, 0, 33, -28, -22, -30, 22, -31, -36, 26, 8, 19, 8, -19, -17, 36, -17, -27, -30, 28, -33, -30, 31, 17, 21, 31, 11, 10, 11, -23, 6, -28, 21, -27, 13, 20, -22, 1, -31, 23, -32, 28, 21, 6, 30, 24, 12, 6, -23, 34, -24, 8, 26, 14, 40, 11, 7, 3, 35, -19, -23, -30, -22, 23, 21, 18, 36, -4, 1, -14, -31, -10, 16, -26, -15, 14, -26, 0, -5, -27, 29, -7, -10, -19, -1, 4, -21, -3, -26, 10, 33, 15, 33, 5, -29, -15, -12, -36, 3, -28, -12, -18, -13, -17, 7, -22, -18, 16, -23, 10, -28, 30, -32, -2, -41, -2, -30, 27, 9, 9, -19, -22, 8, -15, 14, 8, 22, 22, -28, -2, -1, -25, -2, -18, -8, -22, -15, 16, -23, 21, -3, -4, -3, 1, -11, 22, -30, -15, 20, 21, -24, -27, -15, 13, 25, -19, -8, 10, 2, 32, 16, 33, 39, 16, -7, -11, 26, -23, 7, -15, 21, 2, -24, 14, 4, 20, -9, -3, 2, -18, -14, 20, -13, -23, 4, 4, 31, -5, -13, -23, -8, -16, 20, 5, 22, 3, 17, 25, 1, -17, 16, -17, 22, 24, 33, -12, 7, -14, 15, 17, 3, -5, 20, 5, 37, 15, 27, -25, 11, -15, -29, 17, -25, 17, 10, 1, 9, 0, 12, 30, -8, -29, -13, 32, 17, -17, 10, 7, -30, 0, -10, 25, -23, 30, 31, -2, -8, 26, 5, 26, 4, -24, 13, -21, 16, -4, 14, 18, 6, -35, -14, -2, -13, -11, -26, -20, 20, 4, -4, -22, 7, -20, 5, -16, -31, -20, -14, -20, 22, 11, -15, -12, 7, -5, -9, -16, -9, 0, 22, -29, -31, 9, 10, -17, -10, 27, -6, -2, -28, 9, 1, 13, 6, 23, -27, -11, -27, 15, -18, -12, 36, -8, -1, -34, 20, -21, -5, -33, 12, -7, -14, 23, -3, -12, -1, -9, -11, 13, -13, 14, 6, 25, 26, 22, 14, -18, -24, 17, 23, 12, -6, -22, 11, 19, -17, -15, 29, -33, 31, -12, 0, 8, 39, -14, -9, 25, 25, 38, -4, 32, 11, -13, -20, -18, -25, -18, -17, 1, 22, -7, 2, -17, 13, 7, 5, 13, 27, 12, -11, 25, 22, 18, -34, -3, -27, -25, -19, 23, 17, -8, 18, 9, -10, -31, 22, 28, -20, 35, 10, -2, -19, 8, -1, -2, 22, 2, 27, 31, 8, -36, 9, -18, 26, -9, 13, -27, -21, -9, -18, -14, 4, 10, 5, 5, -27, -17, -26, 10, -28, -25, -27, -6, 26, 4, -8, 21, 22, -36, 11, -22, -5, -22, 18, -46, -30, -25, -12, -15, -13, 0, -18, 12, -36, -17, -21, 27, -3, 33, -14, 14, 25, 22, 14, -3, 0, 13, -9, -9, -33, 14, 17, -11, 21, -31, 20, 10, 10, 24, -3, 7, -18, -28, 11, -35, -4, -28, 8, 23, 21, -8, -29, 32, 21, 26, 3, 35, -10, 35, -40, -12, -27, 22, 32, 29, -38, -29, -4, 1, 15, 13, 3, 17, -30, 6, -16, 2, 10, 18, -36, -7, -25, -22, 27, 27, 23, -23, 5, -34, -32, -21, -13, -1, 21, -12, 19, -30, -19, -26, 15, -7, -21, -21, -20, -31, -7, -31, -13, 9, -33, 21, -1, 17, 9, 12, 30, -8, -6, 7, 19, -13, -20, -2, 1, 10, -18, -16, 8, -3, 16, -31, 9, 15, -28, 2, 20, -38, -13, 10, 6, -32, 14, 28, -30, -24, -24, -12, 8, -16, -4, -12, 16, 14, -22, -8, -26, 4, 24, 18, -13, 20, -5, 25, 19, 15, -18, 31, -11, -27, -4, -18, 24, 6, 6, 5, -22, 14, -14, 19, -9, 19, -11, 2, -19, -27, -22, 5, 15, 23, 12, -3, -5, 22, 23, 30, 17, 30, 8, -16, 22, 27, -3, 1, -14, 18, 12, -25, 18, -21, -18, 31, 24, 27, 0, 17, 5, 14, 11, 14, -27, 11, -17, 16, -25, 21, 22, -20, 28, -4, -8, 20, 15, 20, 4, 27, -22, 1, -27, 5, 5, 7, -2, 27, 13, -5, 29, -10, 22, -11, -2, 14, 10, 1, -26, 25, 20, 8, 26, -21, -24, 22, -6, 7, 26, -9, -17, 28, 10, 33, 22, 24, 3, -15, 7, -2, -18, 8, -7, -19, 9, -10, -24, -4, -1, 20, -18, 30, 25, 31, -15, -17, -24, 9, 6, -9, -21, 14, -15, -2, 42, 29, 20, -5, -17, 27, -12, 30, 8, 11, 28, -28, -15, 16, -21, 3, 16, 10, 17, 8, -21, -6, -13, -3, 23, -14, 25, -14, 21, -3, -16, 10, -12, -8, -11, -17, 10, -14, 30, -19, -25, -27, 20, -3, 23, -28, 15, -7, -16, -2, 8, -4, 19, -1, 13, 3, 5, -24, -11, -22, 32, 2, -1, -18, -26, -19, 15, 35, -28, 18, 5, 11, 31, 16, 13, -21, 32, -1, -23, -25, 35, -6, -18, -21, -13, 31, 1, 32, 5, -1, -3, -21, 7, 1, -16, -8, 21, 0, 6, -15, 26, -23, 10, 17, -29, -23, 25, -26, -33, 6, -26, -17, 14, 8, -15, -20, -11, -17, 28, -6, 8, -20, -26, -21, 6, 15, -6, 35, -21, -7, 6, -16, 19, -7, -3, 56, 7, -29, 14, -17, 42, -33, -21, 2, 19, -1, 13, -13, -5, -20, -6, 50, -31, -18, 1, 28, -22, -31, -57, 51, -41, -27, -15, 8, -36, 61, -21, -35, -28, -15, 37, 4, 9, 50, -26, -11, -39, 19, 10, -13, -33, 50, -14, -3, -22, -12, -24, -24, -35, -24, 32, -21, -5, 29, 42, -40, 19, -10, 9, -24, 43, -13, -13, -15, -1, 16, 30, 57, 54, -34, 7, 2, 7, 42, -8, -22, -35, -4, -28, 29, 45, 14, -19, -20, -21, 12, -29, 21, -21, -36, 10, 30, 12, 6, -22, 14, 26, -40, -20, 19, -10, -43, -22, -4, -5, -33, -27, 52, 38, -40, -33, -23, -32, -9, -37, -24, 10, 7, 24, -32, 22, 28, -15, -7, -2, 9, -3, 0, -29, -20, 14, 52, -23, 49, -21, 2, 10, 34, -29, 39, 47, -10, 0, -9, -23, 14, -35, 15, 37, 24, -33, 15, 32, -8, 31, -40, -18, -26, -23, 29, 9, -26, -15, 51, 2, -18, 9, -40, 35, -14, -23, -24, -7, 44, 4, -42, -27, -20, 20, 4, -28, -17, 4, -3, 36, 15, 53, 56, -9, -7, -19, -18, -35, -17, -14, -15, 32, -24, 29, 10, -13, 30, 8, 22, -10, 43, 0, 16, 15, -31, -39, 13, 2, -13, -48, -35, 13, 6, 32, 13, -36, 12, 23, -37, -26, -38, 2, 16, 13, 9, 26, 27, -14, 34, -29, -11, -20, 7, -42, -26, 9, -28, 32, 15, 18, 15, 23, -15, 23, -21, -29, -3, 13, 1, 27, 5, 15, 18, -13, 8, 21, 21, -48, 4, -32, -7, -18, 29, 29, 42, 5, -33, -16, -27, -2, 8, -45, 23, -11, 4, -7, -53, -31, -27, -17, 5, -4, 3, 9, -23, -28, 6, -21, 3, 0, -20, 25, 24, -16, 0, 11, -17, -8, 17, 20, 12, 10, 9, -24, -16, -12, -25, 20, 2, 14, -18, -30, -14, -15, 0, -21, -8, 14, 22, -3, 6, 9, 17, 9, -29, -1, 10, -12, -3, -2, 5, 0, -26, -14, 16, -8, -3, -25, -25, -1, 11, 8, 13, -11, -5, -29, -22, 24, -10, 5, 10, -13, -8, 21, 23, 9, -19, -5, 6, 17, -23, -4, -1, 14, 8, -7, -2, -6, 3, 6, 18, 7, -14, -20, -12, 28, -12, -23, -13, -10, -13, -14, -11, -6, -24, -4, 10, -14, -23, -11, 10, -20, 2, 2, -2, -17, -15, -21, -13, -29, -14, 26, -23, 0, -17, 8, -22, -11, -8, 26, 13, -12, 5, 23, -6, -19, -22, 10, -12, -25, 8, -9, 4, -17, 6, -20, 9, 4, 8, 17, 8, -23, 12, -7, -17, 1, 18, -11, 16, -19, -7, -9, 7, -18, -12, 11, 5, -29, 15, -26, 14, 25, -26, 10, -17, -20, -17, -11, -16, -26, 12, -6, -7, -15, -11, 20, 8, -2, 9, -11, 8, -11, 12, -13, -22, -9, 20, -17, -20, 22, -19, -1, -23, -16, 12, 12, 12, -1, 32, 20, 15, -1, 7, -7, -1, 14, -28, -16, -11, 18, 5, 9, 5, -15, -17, 31, 0, -13, 5, -21, 26, 0, -15, -7, -1, 9, -32, 28, -21, -21, 7, -15, -21, 7, -4, -16, -16, 5, -2, -8, -1, 22, 14, 5, 17, -17, -22, -21, -16, 13, 12, -16, -20, 1, -8, -31, 2, 3, -11, -8, -4, -22, 21, -9, 5, -15, -6, 9, -18, -29, -8, -13, -14, -9, 10, 19, 7, -14, -1, -17, 3, -15, 21, 21, -33, 7, -5, -23, -36, -8, -35, -28, 28, -13, -16, 2, 42, 31, -16, -23, 11, -31, -10, -34, -16, 17, -39, 24, -44, -7, -25, -20, 29, -10, -14, -14, 15, 40, 17, 16, 4, -12, 1, -20, -2, 5, 23, -22, -23, 15, -41, -43, -27, 31, 7, 18, -23, 21, 16, -6, 25, -5, -28, 2, 7, 15, 32, -33, -31, -31, 5, -29, -16, 30, -29, -3, 29, -32, 9, -37, 20, 0, 1, 32, 21, 35, -30, -30, 2, -16, 33, 13, -27, 7, -23, 4, 32, -11, -31, 19, 18, 22, 17, -3, 11, -28, 19, -22, 42, 2, 20, -4, -8, 20, -10, -17, -49, 28, -27, 11, 5, -28, -30, -7, -30, 5, 32, -19, -16, 25, 8, 54, -34, 12, -18, -29, -11, 13, 26, -1, -9, 28, -2, 5, -37, -28, 34, -46, -26, 32, 5, -20, 3, 8, -19, -7, 7, -25, 0, -16, -16, -28, -38, 7, -7, 15, -19, -18, 4, -30, 7, 32, -29, -37, 20, 12, 2, -34, -9, -24, -2, -41, -19, -3, -40, 36, -34, 15, 42, 20, 16, -30, 2, 18, -44, -9, 0, -16, -5, 30, -31, 30, -16, 5, -14, -21, -29, 22, 11, 36, 7, 11, -14, -31, -12, -7, -13, 39, 23, -32, -35, -5, 7, -23, -8, 12, -28, 33, -11, -10, -5, -15, -25, -34, -42, 32, 25, -21, 28, 10, 4, 19, 18, -34, 39, -32, -38, 30, 7, -34, -12, 29, -24, -20, -23, 30, 8, 3, 22, 6, -1, -25, -22, -20, -4, 15, -34, 16, -34, -38, 9, -27, 25, 11, -30, 34, -11, -25, 31, -6, 0, 13, -1, 13, -32, 50, 16, -26, -1, -23, -7, 18, 15, 25, 31, 45, 11, 40, 50, -39, 26, 3, 29, -16, 40, 18, 64, -60, -2, -41, -29, -35, 17, 7, 3, -45, -11, 41, -29, 15, 12, 6, -21, -3, 1, -48, -11, -25, -2, -41, -17, 7, 38, -50, 36, -11, -55, 31, 25, 31, -6, -58, 5, 45, -15, 39, -37, 37, -28, -54, 8, 6, 13, 32, 14, 20, -32, 9, 38, 50, 36, 19, 30, 52, 53, 26, -40, -4, 17, 3, 6, 37, -16, -26, 34, -12, -23, 37, -30, -13, -44, -46, 8, -20, -7, 15, 18, 28, -25, -3, 17, -8, 33, -38, 15, -49, 20, -30, -23, -19, 15, 5, 9, -38, 0, 28, -27, 30, 5, -39, -52, -47, -54, 9, -6, -29, 26, 10, 11, -50, 13, -58, 36, 39, 5, -33, 25, -36, -41, -52, -40, 45, 2, 49, -8, 50, -22, -24, -9, -7, 54, -35, -2, -5, -46, 24, 6, -24, 33, 42, -30, -43, 13, 38, 14, -21, -27, -23, -20, -25, -8, -44, -39, -33, 22, -23, -16, 28, -36, -22, 47, 7, 33, 35, 21, 34, 10, -31, -46, -18, -25, 31, 45, -2, 62, 32, 8, 42, -49, 41, -19, -35, -5, 22, 1, -1, -44, 9, 41, -29, -34, -36, -31, 8, -36, -17, 38, 11, 45, -23, -56, -5, 23, -17, -17, -35, 15, 18, -39, 16, -21, 18, 16, 35, 5, -30, 27, -20, 45, 6, 22, -18, -18, -58, 29, -31, 20, 51, -15, -5, 33, 26, -35, -1, 25, 42, -45, 10, -38, 45, 28, 24, 37, -30, -36, -43, -21, 60, 6, -5, 25, 26, 7, 26, 18, -11, -42, -38, 48, -62, 50, 10}

#define TENSOR_CONV1D_31_KERNEL_0_DEC_BITS {9}

#define TENSOR_CONV1D_31_BIAS_0 {-64, 34, -24, -20, 13, -25, 2, 44, 79, 44, -3, -69, -64, 9, -53, -12, -9, 4, 22, -38, 47, 9, 30, 7, -8, 3, 10, -49, 22, -44, 36, 1, -22, 15, -13, 36, -4, -77, -2, 17, -4, 7, 29, -28, 33, 64, 61, 7}

#define TENSOR_CONV1D_31_BIAS_0_DEC_BITS {6}

#define CONV1D_31_BIAS_LSHIFT {7}

#define CONV1D_31_OUTPUT_RSHIFT {9}

